/*
 * Copyright (c) 2026 EdgeImpulse Inc.
 *
 * Generated by Edge Impulse and licensed under the applicable Edge Impulse
 * Terms of Service. Community and Professional Terms of Service
 * (https://edgeimpulse.com/legal/terms-of-service) or Enterprise Terms of
 * Service (https://edgeimpulse.com/legal/enterprise-terms-of-service),
 * according to your product plan subscription (the “License”).
 *
 * This software, documentation and other associated files (collectively referred
 * to as the “Software”) is a single SDK variation generated by the Edge Impulse
 * platform and requires an active paid Edge Impulse subscription to use this
 * Software for any purpose.
 *
 * You may NOT use this Software unless you have an active Edge Impulse subscription
 * that meets the eligibility requirements for the applicable License, subject to
 * your full and continued compliance with the terms and conditions of the License,
 * including without limitation any usage restrictions under the applicable License.
 *
 * If you do not have an active Edge Impulse product plan subscription, or if use
 * of this Software exceeds the usage limitations of your Edge Impulse product plan
 * subscription, you are not permitted to use this Software and must immediately
 * delete and erase all copies of this Software within your control or possession.
 * Edge Impulse reserves all rights and remedies available to enforce its rights.
 *
 * Unless required by applicable law or agreed to in writing, the Software is
 * distributed on an "AS IS" BASIS, WITHOUT WARRANTIES OR CONDITIONS OF ANY KIND,
 * either express or implied. See the License for the specific language governing
 * permissions, disclaimers and limitations under the License.
 */
// Generated on: 17.07.2026 14:30:56

#include <stdio.h>
#include <stdlib.h>
#include "edge-impulse-sdk/tensorflow/lite/c/builtin_op_data.h"
#include "edge-impulse-sdk/tensorflow/lite/c/common.h"
#include "edge-impulse-sdk/tensorflow/lite/micro/micro_mutable_op_resolver.h"
#include "edge-impulse-sdk/porting/ei_classifier_porting.h"

#if EI_CLASSIFIER_PRINT_STATE
#if defined(__cplusplus) && EI_C_LINKAGE == 1
extern "C" {
    extern void ei_printf(const char *format, ...);
}
#else
extern void ei_printf(const char *format, ...);
#endif
#endif

#define STRINGIZE(x) #x
#define STRINGIZE_VALUE_OF(x) STRINGIZE(x)

#if defined (__GNUC__)  /* GNU compiler */
#define ALIGN(X) __attribute__((aligned(X)))
#define DEFINE_SECTION(x) __attribute__((section(x)))
#elif defined (_MSC_VER)
#define ALIGN(X) __declspec(align(X))
#elif defined (__TASKING__) /* TASKING Compiler */
#define ALIGN(X) __align(X)
#define DEFINE_SECTION(x) __attribute__((section(x)))
#elif defined (__ARMCC_VERSION) /* Arm Compiler */
#define ALIGN(X) __ALIGNED(x)
#define DEFINE_SECTION(x) __attribute__((section(x)))
#elif defined (__ICCARM__) /* IAR Compiler */
#define ALIGN(x) __attribute__((aligned(x)))
#define DEFINE_SECTION(x) __attribute__((section(x)))
#elif defined (__clang__) /* LLVM/Clang Compiler */
#define ALIGN(X) __ALIGNED(x)
#define DEFINE_SECTION(x) __attribute__((section(x)))
#endif

#if defined(EI_MODEL_SECTION) && (defined(__GNUC__) || defined(__clang__))
#define MODEL_SECTION(X) __attribute__((section(STRINGIZE_VALUE_OF(X))))
#else
#define MODEL_SECTION(X)
#endif

#ifndef EI_MAX_SCRATCH_BUFFER_COUNT
#ifndef CONFIG_IDF_TARGET_ESP32S3
#define EI_MAX_SCRATCH_BUFFER_COUNT 4
#else
#define EI_MAX_SCRATCH_BUFFER_COUNT 4
#endif // CONFIG_IDF_TARGET_ESP32S3
#endif // EI_MAX_SCRATCH_BUFFER_COUNT

#ifndef EI_MAX_OVERFLOW_BUFFER_COUNT
#define EI_MAX_OVERFLOW_BUFFER_COUNT 10
#endif // EI_MAX_OVERFLOW_BUFFER_COUNT

using namespace tflite;
using namespace tflite::ops;
using namespace tflite::ops::micro;

namespace {

#if defined(EI_CLASSIFIER_ALLOCATION_STATIC_HIMAX) || defined(EI_CLASSIFIER_ALLOCATION_STATIC_HIMAX_GNU)
constexpr int kTensorArenaSize = 2960;
#else
constexpr int kTensorArenaSize = 1936;
#endif

#if defined(EI_CLASSIFIER_ALLOCATION_STATIC)
#if defined (EI_TENSOR_ARENA_LOCATION)
uint8_t tensor_arena[kTensorArenaSize] ALIGN(16) DEFINE_SECTION(STRINGIZE_VALUE_OF(EI_TENSOR_ARENA_LOCATION));
#else
uint8_t tensor_arena[kTensorArenaSize] ALIGN(16);
#endif
#elif defined(EI_CLASSIFIER_ALLOCATION_STATIC_HIMAX)
#pragma Bss(".tensor_arena")
uint8_t tensor_arena[kTensorArenaSize] ALIGN(16);
#pragma Bss()
#elif defined(EI_CLASSIFIER_ALLOCATION_STATIC_HIMAX_GNU)
uint8_t tensor_arena[kTensorArenaSize] ALIGN(16) __attribute__((section(".tensor_arena")));
#else
#define EI_CLASSIFIER_ALLOCATION_HEAP 1
uint8_t* tensor_arena = NULL;
#endif

static uint8_t* tensor_boundary;
static uint8_t* current_location;

template <int SZ, class T> struct TfArray {
  int sz; T elem[SZ];
};

enum used_operators_e {
  OP_FULLY_CONNECTED, OP_SOFTMAX,  OP_LAST
};

struct TensorInfo_t { // subset of TfLiteTensor used for initialization from constant memory
  TfLiteAllocationType allocation_type;
  TfLiteType type;
  void* data;
  TfLiteIntArray* dims;
  size_t bytes;
  TfLiteQuantization quantization;
};

typedef struct {
  TfLiteTensor tensor;
  int16_t index;
} TfLiteTensorWithIndex;

typedef struct {
  TfLiteEvalTensor tensor;
  int16_t index;
} TfLiteEvalTensorWithIndex;

TfLiteContext ctx{};
static const int MAX_TFL_TENSOR_COUNT = 4;
static TfLiteTensorWithIndex tflTensors[MAX_TFL_TENSOR_COUNT];
static const int MAX_TFL_EVAL_COUNT = 4;
static TfLiteEvalTensorWithIndex tflEvalTensors[MAX_TFL_EVAL_COUNT];
TfLiteRegistration registrations[OP_LAST];

namespace g0 {
const TfArray<2, int> tensor_dimension0 = { 2, { 1,1600 } };
const TfArray<1, float> quant0_scale = { 1, { 47.223529815673828, } };
const TfArray<1, int> quant0_zero = { 1, { -8 } };
const TfLiteAffineQuantization quant0 = { (TfLiteFloatArray*)&quant0_scale, (TfLiteIntArray*)&quant0_zero, 0 };
const MODEL_SECTION(EI_MODEL_SECTION) ALIGN(16) int32_t tensor_data1[6] = { 0, 0, 0, 0, 0, 0, };
const TfArray<1, int> tensor_dimension1 = { 1, { 6 } };
const TfArray<1, float> quant1_scale = { 1, { 0.23240160942077637, } };
const TfArray<1, int> quant1_zero = { 1, { 0 } };
const TfLiteAffineQuantization quant1 = { (TfLiteFloatArray*)&quant1_scale, (TfLiteIntArray*)&quant1_zero, 0 };
const MODEL_SECTION(EI_MODEL_SECTION) ALIGN(16) int8_t tensor_data2[6*10] = { 
  69, 100, -50, 87, -127, 65, 58, 44, -53, 18, 
  77, -19, -114, 30, 11, -35, 13, -20, 78, -69, 
  -101, 124, -107, -107, 115, 124, -74, -5, 12, 8, 
  9, -97, 51, -98, 89, -45, -118, 21, -124, 37, 
  74, -78, 15, -93, -20, 69, 61, 60, 110, 49, 
  -19, 5, -92, -51, 36, -103, 96, 48, -22, 102, 
};
const TfArray<2, int> tensor_dimension2 = { 2, { 6,10 } };
const TfArray<1, float> quant2_scale = { 1, { 0.0048163356259465218, } };
const TfLiteAffineQuantization quant2 = { (TfLiteFloatArray*)&quant2_scale, (TfLiteIntArray*)&g0::quant1_zero, 0 };
const MODEL_SECTION(EI_MODEL_SECTION) ALIGN(16) int32_t tensor_data3[10] = { 0, 0, 0, 0, 0, 0, 0, 0, 0, 0, };
const TfArray<1, int> tensor_dimension3 = { 1, { 10 } };
const TfArray<1, float> quant3_scale = { 1, { 0.20545864105224609, } };
const TfLiteAffineQuantization quant3 = { (TfLiteFloatArray*)&quant3_scale, (TfLiteIntArray*)&g0::quant1_zero, 0 };
const MODEL_SECTION(EI_MODEL_SECTION) ALIGN(16) int8_t tensor_data4[10*20] = { 
  44, -84, -73, 15, 107, 15, 122, -117, -2, -55, 31, 21, 67, 123, 60, -88, 0, -28, -81, 28, 
  -61, -123, 73, 72, 59, -43, -56, -99, -99, 19, -59, -58, 66, 25, 75, 96, -57, 37, -48, -34, 
  -24, -105, -3, 114, -52, -68, -39, 22, -42, -15, 32, 55, -25, -96, -14, -75, 89, -105, -109, -89, 
  64, 14, 102, 4, -72, 84, -64, -46, -28, 78, 108, 53, -79, -98, -4, -48, -28, -57, 109, 91, 
  -49, 65, -104, -47, -91, 76, -38, 29, -102, 67, 95, 61, -20, 53, 26, -104, -51, 108, 83, 61, 
  -95, 76, -75, 54, -34, -127, -7, 84, -127, -52, 83, 64, -56, 67, -27, -74, -41, 66, -74, 4, 
  99, 51, -64, -85, 86, 85, 11, -36, -30, 7, 73, 43, -73, -44, 10, -19, 69, -20, -14, -38, 
  -16, 98, 50, 66, -13, 93, 94, -127, 117, -31, -62, 121, 71, -35, -107, 55, 92, 6, 22, 92, 
  68, 44, 59, 44, 94, 34, -119, -29, -32, 12, 101, 23, -7, -114, -36, 102, -93, 76, -53, -36, 
  48, -77, -17, -3, 85, 108, -22, 10, 82, -102, -66, 52, -82, -60, 59, -21, -21, 95, 1, 82, 
};
const TfArray<2, int> tensor_dimension4 = { 2, { 10,20 } };
const TfArray<1, float> quant4_scale = { 1, { 0.003538784570991993, } };
const TfLiteAffineQuantization quant4 = { (TfLiteFloatArray*)&quant4_scale, (TfLiteIntArray*)&g0::quant1_zero, 0 };
const MODEL_SECTION(EI_MODEL_SECTION) ALIGN(16) int32_t tensor_data5[20] = { 0, 0, 0, 0, 0, 0, 0, 0, 0, 0, 0, 0, 0, 0, 0, 0, 0, 0, 0, 0, };
const TfArray<1, int> tensor_dimension5 = { 1, { 20 } };
const TfArray<1, float> quant5_scale = { 1, { 0.037095427513122559, } };
const TfLiteAffineQuantization quant5 = { (TfLiteFloatArray*)&quant5_scale, (TfLiteIntArray*)&g0::quant1_zero, 0 };
const MODEL_SECTION(EI_MODEL_SECTION) ALIGN(16) int8_t tensor_data6[20*1600] = { 
  0, -11, -17, 63, 22, 37, 22, -49, 25, -61, -2, 27, -68, -50, -17, 67, 19, 55, -37, -37, 66, -20, 63, 13, -70, 48, -37, -37, -53, -69, 18, 23, 46, -63, -72, 33, -47, 55, -7, -49, 34, -7, -57, -23, -66, 63, -27, 67, -50, -55, -14, -71, 30, -17, -64, 49, 72, 57, 75, 45, 29, -31, 8, -54, -12, -54, 1, 24, 64, -10, 18, -65, -47, -20, -16, -42, 53, 35, -10, 63, 21, -3, -13, 23, -15, 9, -77, -9, -58, -71, 26, -18, -39, 64, -8, -73, 72, 40, -58, -30, -5, -77, 15, 39, -20, -31, -30, 3, -42, -37, 60, 22, 2, 49, -39, 70, -35, 25, -76, 24, 35, 1, 16, 70, -76, -14, 47, 4, 60, -11, -66, -45, 70, 21, 61, -41, 3, 74, -19, 3, 37, -2, -51, -48, -29, -16, -17, 36, -45, -40, -33, 44, -20, 44, 23, -28, 57, 17, -76, -2, 27, 57, -43, -32, -27, -33, -56, -55, 47, 63, -42, -16, -20, -24, -13, 56, 42, 38, -50, -55, 8, 26, -68, -52, 5, 27, -36, -73, 43, 0, 70, -51, 12, 75, 39, 31, -49, 56, -69, -5, -25, 45, 68, 23, 22, -48, 51, -41, 27, 55, 70, 44, -14, -27, -24, -13, -22, -37, -20, -41, 27, 46, 32, -65, 66, -54, -21, -39, -74, 76, -19, -68, -33, -26, -67, -53, 64, 14, 59, 63, -32, -48, 36, -46, 56, 60, -42, 2, -33, 69, 24, 49, -12, 32, -72, -39, -4, 27, -37, 24, 7, 64, -38, 14, -7, 61, -7, 58, 56, 68, 40, -31, -12, -8, -13, -74, -66, 30, -16, -41, 67, -44, 11, -28, -46, -4, -53, -29, -28, -22, -15, 77, 13, -36, 61, 26, -10, -14, 8, 58, 2, 40, 17, -75, 37, -31, 70, -74, 27, 29, -25, -76, -10, -24, -1, -1, -6, -44, -1, -69, 28, -33, 0, 14, 15, -67, -14, 18, -4, -24, -30, 20, -68, -31, -8, 59, -12, 66, -67, -60, -66, -57, 26, 22, -30, 25, -49, -15, 18, -34, 56, 71, -57, -76, 22, 2, -8, -37, 41, 1, -16, -22, 41, 70, 32, -7, -51, 23, -34, 64, 14, -37, 38, 47, 2, 19, -74, -43, 24, -17, 36, 53, -32, 26, 63, -65, -17, -47, 45, -36, 34, -31, -58, -7, 13, -68, -17, -75, 20, 36, -19, 28, 19, 40, 9, -67, 48, 9, 0, -24, 14, 65, 13, 9, -24, -76, 75, -44, 76, -75, 50, 54, -48, 59, 60, -32, 66, -4, -52, 39, 70, 54, 69, 10, -63, 14, 67, 63, -37, 10, -42, -22, -12, -49, -60, -13, 50, 23, -51, -36, 70, -20, 30, -73, 60, 9, -55, -37, -41, -2, -58, 76, -5, -52, 55, -59, -55, 13, -64, -9, 37, -30, 41, 33, -53, 57, -44, -21, 25, 15, 72, -2, -57, -15, 51, 15, -72, -3, -24, -14, -11, -26, 66, -24, -6, -31, -48, 74, -47, 43, -53, -17, -62, 9, 61, -15, -27, 60, -48, 19, 74, 39, -8, -26, 12, 10, 7, -62, -41, 3, -47, 25, -54, -6, 8, 42, 10, 8, 15, 74, -43, -31, 3, -69, 15, 66, 11, -62, -22, -69, 8, -9, 52, -31, 34, 65, -53, -38, 22, -33, 40, 33, -74, 50, -26, -23, -38, -75, 59, 64, 45, 3, 29, -40, -5, 75, -61, 38, -74, -73, -49, -12, 7, -21, 28, 6, 70, 31, 43, 53, 29, 42, -67, 44, -36, -40, -64, 69, 28, 30, -30, 41, 8, -35, 2, 19, -7, -18, 40, 49, 26, 64, -4, 31, -73, -28, -73, -4, 62, 29, 39, 71, -59, 57, 9, 8, 21, -2, 3, -29, -38, -72, -28, -36, 22, 30, 62, -47, -34, 9, 58, 22, -35, 73, -57, 21, 61, 23, -55, -14, -8, 70, 8, 9, 48, -73, -10, -77, 19, 51, 16, 75, -64, 12, -7, 41, -62, -33, 49, -31, -30, -28, -36, 19, -15, 17, 72, -35, 60, 67, 25, -5, -29, 67, 42, -6, 53, 15, -47, -74, -22, 77, -31, 66, 0, 67, 9, -68, 2, -62, -1, 32, -23, 34, -46, -4, 15, -46, -42, 26, 45, 31, 66, -49, -66, -63, 22, 72, 56, 41, 62, -18, 0, -2, 57, -53, -26, 31, -29, -1, -71, 39, 10, 16, -67, -34, 4, -16, -11, 53, -45, 73, 24, 47, 21, 0, 73, -10, 34, 23, 55, -54, -33, -25, 4, 19, 46, -43, -61, 26, -64, -3, 3, -36, -49, -75, -38, -25, 33, -63, -62, -46, 54, -25, -19, 2, -53, 47, -51, -52, 71, -40, 15, -12, 53, 10, -50, -19, 65, -43, -40, 66, 18, 36, -64, 17, -4, -27, -38, 33, -60, -1, 14, -64, 2, -5, 39, -18, 11, 9, -64, 2, -27, 31, -9, 68, 75, -25, -23, -62, -59, -27, -58, 50, 66, 54, -69, 25, 50, -5, 47, -40, 74, 2, 24, 77, 16, -7, 48, 43, 48, -64, 41, 45, -28, -4, 66, -41, -70, -69, -65, -58, 48, 9, 13, -14, -60, -6, -13, -15, 4, 46, 9, 54, -32, -45, 28, 1, 9, -14, 28, -52, 10, 28, -45, -6, -36, -29, 48, 49, 5, -57, 2, 19, -57, -71, -4, -72, 5, 45, 20, 43, -2, 57, -22, 34, 6, -47, 24, -16, -12, -44, 12, 36, 46, -43, -18, 35, 23, 17, -76, 66, 2, -41, 10, -72, -33, -35, 53, 35, 39, -63, 51, -36, -20, 68, -50, 27, -30, -18, 38, -15, 45, -4, 23, 40, -75, -55, 76, 42, -6, -19, 52, 23, 24, -72, -53, 66, 53, 4, 40, -36, 26, -51, 69, -49, -12, 36, 43, -46, 48, -48, 65, -57, -6, -63, -73, -66, -72, -35, 18, -5, -25, 9, -6, -18, -57, 62, -5, -68, -67, 49, 0, -26, -75, -42, 35, 3, 70, -57, -38, -53, -73, 31, 13, 56, -58, -16, -16, -68, 9, -70, -38, 70, -72, -64, -27, -43, 23, 23, -40, 54, 70, -45, -53, -64, 44, 21, 18, -27, -6, -51, -13, 68, -34, 65, 70, 28, -14, 5, 68, -30, 39, 35, -74, 32, 25, 55, 25, 3, 56, -75, -49, 18, -19, -75, -25, -12, 36, 1, -48, 21, -47, -1, -74, 61, -75, 50, 11, 2, 37, 67, -51, -6, 60, -2, 44, 25, -31, 28, -24, 52, 39, 52, -28, 3, -49, -18, 29, -70, -73, -75, -25, 62, 60, -68, 70, -69, 17, -13, 16, 8, 4, -9, 25, 28, -72, -4, -11, -15, -11, -33, 69, 77, -40, -37, 13, -57, 63, -60, -53, 56, -77, -51, -28, -59, -13, -25, 35, -17, -44, 6, -12, -70, 69, -67, -44, -13, 53, 18, -73, -28, -48, -67, -34, -20, 67, -39, -65, 46, -56, 0, -25, -68, 63, -10, -38, -17, 57, -64, -56, -12, -2, 51, -52, 71, -45, 66, -10, -68, -62, 77, -72, -76, 24, -3, 14, -39, 72, -58, 45, -66, -59, 18, 49, -21, -51, -7, 13, 43, 38, 47, 14, 24, -46, 12, 0, -59, 23, 27, 21, 62, 33, 63, 40, -8, 65, -75, -23, -68, -16, 56, -57, 69, -31, 56, 29, 7, -56, 56, -56, 39, 51, -23, -72, 66, -19, -56, -26, 43, 2, 13, -68, 54, 6, -46, -25, 61, -51, 15, -25, -7, 24, -6, -77, 2, -64, -10, 53, 33, -10, 33, 32, 27, -44, 40, -59, 27, -29, 52, -39, -54, 7, -10, -16, 46, 28, -77, 15, 67, -18, 62, -22, 36, -53, -25, 48, -30, 7, -23, 42, 17, -39, 72, -58, 22, -62, 44, 32, -26, 27, 6, 28, 57, -73, -74, -13, -13, 69, -45, 36, -23, 33, 4, -38, -11, -74, -12, 33, 3, 11, -16, 76, 27, 54, -50, 19, 63, -34, 54, 47, -21, 19, 44, 41, 59, -77, -42, -61, 28, -71, 28, -62, 31, 46, -33, -8, -1, 35, -38, -25, -47, -68, 24, -39, -62, 30, 29, -55, 30, 50, -22, 0, 61, 23, -28, 12, -66, -19, -11, 28, 5, 19, 30, 65, -74, 50, -37, -42, 27, 1, 32, 4, 11, -2, -3, 77, 10, -8, 9, 10, -20, -62, 55, 24, 65, 6, -26, 72, -75, -76, 71, 6, -51, 60, -76, 33, -55, -73, -11, 65, -42, 2, 51, -16, -40, 20, -22, -26, 27, 68, -67, 51, -77, -17, 43, -70, 49, -70, -47, 57, 15, -25, -67, 28, 41, -9, -49, -11, -67, 34, 29, 0, 53, -67, 15, 38, 18, -41, 24, -9, -37, -11, 59, 19, -15, -59, -29, 41, -8, -45, -27, 56, -66, 40, -75, -43, -64, -11, -25, 49, -9, 18, -70, 2, 49, -56, -36, 49, -74, -38, -42, 29, -55, -53, 4, 23, -11, -74, -63, 42, -45, 30, -15, -26, 52, 7, 54, -32, 31, -57, -46, 17, -73, 30, 31, -27, -30, 75, -68, 40, 3, 49, -51, -57, 30, 35, -43, -73, -12, 41, 33, -39, 3, -10, 58, 49, -30, 12, 61, -59, 65, 39, -29, -21, -40, 69, 68, 45, -73, 15, -50, 23, -3, -30, 47, -34, -73, -51, -7, 48, 67, -45, -25, 54, -57, 68, 72, -56, -7, -39, -40, 54, -31, 0, -61, -15, -13, 31, -15, 3, 47, 37, -65, 47, -75, -3, -71, 8, 32, -10, 34, 58, 17, 70, 35, 69, 55, -3, 23, -69, 73, -5, -5, -21, 21, 33, -9, 62, -65, 27, -6, -23, -13, -20, -22, -22, -72, 32, 6, -39, -19, 7, -76, -66, -33, -41, -5, 9, -63, 50, 47, 4, 76, -11, -77, -36, 66, -54, 13, 
  -75, -5, 62, 10, -22, 13, 24, 23, 33, 70, -49, 32, 10, 14, 47, -41, 59, 38, 77, -46, -13, -8, 63, -14, 39, 37, -14, 55, -18, -56, -12, 71, 66, 74, 52, -24, -61, -7, 20, -35, -32, -42, 74, 54, 44, -20, 56, -53, 6, 0, -70, -9, 3, -29, -10, -77, -72, 61, 64, -61, -14, 52, -31, -13, -19, 1, 57, -76, 42, -20, 69, -43, 46, -5, 11, 62, -24, -43, -5, 68, -10, -77, -39, 0, 35, 6, -15, -56, 15, -18, 24, 24, 68, 18, 4, 43, -36, -63, 13, -68, 16, 73, -1, -11, -53, 36, 56, -49, -14, -14, -22, -67, 75, 23, -22, 67, 20, 16, -57, -53, 19, -72, -24, -40, 35, -7, -2, 29, -63, 71, -27, -22, 48, -23, 72, 47, -48, -24, -12, 48, -73, 11, -8, -34, 3, 47, 47, 36, -30, -45, -35, -27, -35, -29, -29, 54, 47, 70, -53, -36, -45, -62, 42, -35, -63, -25, -58, 13, -67, -19, -15, -48, 32, -26, -13, 50, 40, -25, -42, -46, -59, 18, 27, 24, -17, 59, -6, -14, 47, 73, 60, 32, 55, 66, -11, 16, -44, -66, -66, 66, 55, -28, -64, 7, -44, 8, 41, 67, 37, 52, -43, -14, -1, -8, -58, 4, 23, 26, -5, -55, -64, -65, 30, -34, 25, 63, -20, -18, -33, -63, 76, 54, 60, 40, -48, -44, 4, -5, -10, 1, -71, 43, 15, 76, -8, -13, -4, -61, 23, 62, 30, -45, 6, 18, 77, 26, -27, -6, -60, 42, -77, -26, 66, -50, 45, -26, -74, -14, 67, -66, -44, -22, 45, 38, 73, -67, 49, -1, 25, -8, -51, -45, 12, 23, 22, -26, 31, -75, 73, -62, 14, -29, -21, 19, -19, 0, -19, 5, 40, 5, 66, 2, -27, -5, 9, -17, -43, -24, -70, 25, 16, 52, 64, -67, 69, -26, 56, 73, 12, 8, -21, 66, 20, -69, 60, -7, 16, -29, 50, -12, -36, -28, -10, 73, 47, 68, -29, 9, 57, -52, 62, 53, -9, 33, 17, 27, 14, -57, -58, -70, 75, 36, 57, 28, 59, -29, -24, -74, -60, -18, -68, 23, 71, 41, -32, 76, 23, 68, -72, -30, -44, -2, 40, 29, -15, 46, -77, -71, 48, 9, -65, 54, -36, 72, 42, -16, -7, -29, -49, 52, -38, -27, -28, -52, 51, -14, 75, 57, -25, -63, 19, 16, -47, -15, 4, 51, -1, -29, -30, -49, 70, -41, -58, 74, -76, -35, -7, -45, -60, -41, -18, 51, 65, -67, 4, -49, -32, 50, -1, -36, 50, -27, -43, -29, 66, -71, 21, -15, 49, 55, 44, -19, -10, 65, 37, 35, 44, 46, 6, 55, 17, -6, 38, -67, 40, 51, -19, 40, 49, 49, 21, 19, 9, 75, 0, -64, -28, 45, 29, -63, -62, 63, -15, 75, -35, 38, 54, -47, 3, 71, 31, -23, 17, -71, 32, 1, -60, 47, 10, 75, -24, -16, 35, -37, -47, 3, 44, -16, -62, -29, -58, 15, -5, -21, 0, 75, 57, 76, -49, 27, -57, 11, -69, 70, 72, -6, -4, 23, -49, 75, 25, -38, 3, 9, -28, -66, 28, 45, -61, 60, -4, -49, 23, -40, -63, -38, -63, -57, -39, 35, 33, 39, -36, 65, -67, 59, -13, 8, 31, 5, 46, -41, -65, 28, 32, 46, -9, 73, -17, -24, -25, 23, -42, -24, -9, 20, 30, 16, -57, -4, 60, -1, 71, 27, 66, -18, -29, 34, 52, 69, 68, -48, -21, -16, 72, 54, -42, -8, -24, -75, -26, -54, -66, 3, 45, 37, 23, -59, -71, -51, 20, -12, -52, 57, -69, 18, 64, -2, -50, -7, 39, 20, 53, -13, 63, -1, 28, -16, 65, -49, -35, -2, 65, -26, -16, 12, 10, 50, -71, 71, -33, -25, 44, -77, 70, 3, 14, 68, -75, 32, -1, -55, 63, -56, -34, 0, 42, -29, 59, -71, 62, -25, -2, -41, -11, 11, 63, -72, 62, -68, -19, -69, 28, -14, 48, 23, -16, -34, -39, 8, 51, -5, 71, 32, -63, 75, -59, -27, 25, -52, -20, 30, -12, -41, -13, 53, -66, 68, -3, 29, 63, 65, 30, -34, -11, -62, -43, 8, -8, 35, 2, 19, -6, -52, 14, -52, 59, 66, 58, 74, 35, -41, 27, -41, 3, -10, -57, 5, 33, -64, -34, -22, -46, -55, -26, 7, -2, -16, -20, 63, -14, 42, -3, 24, 35, -36, -5, -44, -23, -63, -37, 77, -67, -42, 75, 1, 73, -11, 77, -25, -47, 25, -9, -60, -20, 22, -54, 49, -49, -77, -73, 43, -31, 56, -71, 72, -7, -39, -53, 77, -49, -25, -18, 73, 8, -33, 45, 47, 74, 65, -73, 50, 31, -74, -24, -59, 69, -33, 32, 31, -40, -47, 33, -75, 7, -54, 46, -60, -2, 33, -13, -60, 11, -53, -18, 25, 69, 28, 12, 50, 30, -49, -76, 15, 38, 34, 72, 12, -56, 72, -57, 61, 39, 51, 5, -61, -57, 39, 45, -31, -22, 35, 23, -17, 24, -53, -19, -28, -57, 35, 44, 20, 35, -30, 58, 13, 69, 24, -30, -48, -16, -32, 68, 71, -21, -52, -56, -33, 25, 24, -16, -44, -16, 7, -67, -41, 65, 36, -47, -62, 69, 13, 34, 44, -55, -60, -49, 49, 0, 9, -63, 32, 40, 29, -21, -28, 24, -15, -77, 20, -71, -65, 38, -46, 74, 42, 14, -26, -15, 6, -60, -39, -8, 8, -63, 2, -38, 65, 21, -54, -47, -67, 50, 54, -36, -4, -15, -23, 6, 49, -28, 21, -17, -67, -49, -25, -64, -2, -37, -40, 0, -44, -49, 1, 28, -27, 31, -42, -5, -51, -9, -77, 11, 38, 57, -1, 53, -52, 10, 76, 30, -70, -16, -18, 30, 70, 6, 68, -28, 69, 3, -57, -22, -56, 19, 17, 73, 17, 54, -75, 46, -47, 59, 63, -23, 72, -49, 26, 50, -42, 67, 64, 7, -75, -27, -57, 27, -21, -27, -23, 73, 35, -42, -58, 49, -32, -45, -37, -7, -27, 15, -36, 12, -51, -8, 37, 12, -43, 64, -40, 40, -18, -62, -59, -33, -73, 76, 56, 18, 38, -17, 48, -11, -74, 19, -44, -34, 32, 53, 24, 36, -36, -51, -17, 18, -19, -43, -4, -18, 50, 63, -9, -44, 29, 64, -25, -23, 13, -32, -74, -42, 25, 2, -42, -36, -27, 23, 55, 40, 40, -72, -62, -45, 76, -64, 48, -28, 25, -67, 56, -20, -21, -23, 1, -18, 8, -5, -24, -61, -57, -4, -14, 27, -30, -48, 11, 30, 1, 73, 45, -55, 32, -12, -44, -69, -39, 63, 42, 12, -51, -32, -66, 16, 55, 66, 71, 69, -30, -73, -14, 54, -30, 72, -13, -70, -40, 9, -33, -69, -75, -12, -19, 74, -33, 7, -40, -25, 4, -40, 55, -37, 10, 26, 34, -3, -35, -20, -7, -52, -59, -16, -68, -28, -50, -11, -50, -26, -10, 73, -11, -32, -29, 21, -3, -16, -37, 38, 24, 7, -68, -51, -26, 73, 33, 40, -32, 65, 49, 41, 66, -41, -26, -57, -29, 58, -9, 26, 18, 10, -19, 6, -46, -10, 39, -50, -52, 13, 0, -53, -66, 43, -6, 18, -68, -8, 30, 14, -39, 23, -35, 31, -29, -1, -57, -43, 51, -68, 18, 32, 48, 23, -47, -39, 29, 44, -11, -2, -7, 77, 6, -66, -43, 16, 28, -42, 5, -47, 46, -26, -11, -63, 22, -53, -69, 35, -41, 68, -69, -29, -54, 47, 32, 44, -64, 73, -77, 37, 39, 53, -46, -67, -46, -68, 60, -18, 70, -3, 5, 5, -77, -33, -59, 5, -9, -30, -68, 29, 69, 48, 14, 73, -27, -54, 47, 23, -33, 28, 43, -9, -66, 13, 9, 26, 61, -1, -40, 46, -14, -50, -2, -5, 68, 20, -38, -69, -35, 64, -65, -29, 57, -15, 27, -55, 65, -26, 74, 19, 43, 3, -50, -41, 65, 72, -22, 32, -59, 24, 29, -23, 34, -25, -26, 11, -61, 23, 25, -20, 34, 68, -55, -31, -71, 46, 14, 35, -63, 47, 39, -21, 52, 27, 60, -54, -16, -65, 36, 56, -65, -43, 67, 29, -34, -69, 45, 30, -41, -36, 20, 2, 19, -59, -39, -32, -68, -55, -12, -29, 46, 46, -31, 62, -63, -69, 59, -1, 9, 74, 61, 22, 0, 54, 50, -67, 53, 46, -41, -11, 54, 14, -47, -56, 36, 23, 60, 11, 27, -62, 12, -14, 66, 52, 52, 41, -14, 46, 14, 25, 37, -40, -37, -44, 56, 15, -43, -39, -66, 64, 31, 17, -39, -75, 45, 39, 73, 2, -20, 68, -76, -49, -60, -45, -12, -48, 69, 33, -37, -54, 48, -5, 2, 65, 48, -27, 43, 50, 59, -31, -22, -49, -13, -59, -11, -67, -67, 15, -70, 31, -69, 3, -53, -42, 42, -47, -37, -46, -47, -68, 18, -18, 15, -1, -18, -13, -37, 39, -4, 19, 1, -47, -42, 45, 30, 56, 33, 58, -31, 17, -7, -19, -62, 16, -21, 10, -59, -73, -33, -31, -6, 18, -37, 50, 10, -9, 11, -58, -35, 74, 53, 43, -5, -16, -31, -14, 17, -33, 11, 33, -2, 22, -53, -28, 3, -40, -76, -4, 11, 18, -41, -2, -8, -13, -32, -44, -72, 2, 42, 42, -37, 16, 69, -11, 9, 9, 13, 26, 77, 4, -44, 52, 57, 28, -29, 37, -27, 40, -56, 38, -20, 58, 50, 58, 5, 36, 27, -28, 45, -32, -40, -2, 67, 58, -15, 59, 22, 25, -12, -66, -75, -32, 22, -23, -21, -20, -15, -67, 16, 57, 21, -41, 11, -68, 73, -10, -72, 17, 44, -47, -40, -37, 61, 
  49, -10, -66, -54, 33, -40, 47, 64, 73, -7, -58, 12, -56, 37, -45, 53, 25, 45, 1, 33, 76, -71, 42, -60, 9, -19, 73, 38, -39, -60, -39, 50, 39, -55, -15, -25, -66, -5, 44, -58, 39, 40, -71, -13, 27, -14, -40, -61, 27, -20, 39, -17, -14, -1, 40, -63, 8, 10, 9, -21, 70, -26, -12, 13, -21, 44, 16, -43, -23, -26, -4, -75, 5, 65, -13, -66, -65, 42, -38, -46, 32, -42, 28, -3, 7, 13, -19, -1, -60, 0, -54, 64, 17, -27, 76, 52, 24, 38, 27, 22, -74, -66, -39, -54, 35, -30, 67, 54, 7, -13, -36, 40, 6, -61, -47, -63, 36, 77, -17, 33, -39, 62, 77, -74, 67, 64, 20, 50, -64, -4, 43, -47, 14, 38, 38, 37, -38, 56, 45, 27, -11, 67, 70, 69, -62, 1, -64, 7, -27, 10, 33, -39, -26, 8, 30, 75, 43, -24, 60, -56, 7, 54, 17, 68, -3, -46, -33, -13, -27, -11, -61, -22, 3, -73, -24, 14, 46, -37, -39, -68, 46, -60, -1, 71, -43, 10, 39, -12, 34, -50, 7, 21, -26, 62, 1, -52, 17, -64, -54, -1, 70, -4, 13, -21, -65, -60, 21, 8, -73, 65, 56, -76, -28, -27, 47, 29, -68, 53, 66, -73, -7, 15, 39, -35, -47, 6, 7, -75, -54, -16, 2, 28, -30, 14, 75, -2, 48, 9, 53, -48, -53, 69, -70, -22, 18, -69, 7, -2, 66, -27, 18, 43, 64, -32, 45, -37, -63, 64, -77, -59, 30, -54, 7, -63, -36, 54, 50, -34, 29, 26, 28, 28, 51, -10, 4, 5, -22, -28, -52, -38, 47, -39, -34, 22, -46, 1, 15, -53, 45, -75, -28, -63, 73, 75, 65, -21, 60, -36, 46, -55, 58, 50, 23, -55, -5, -37, 4, -26, 70, 12, -40, 60, -46, 10, 64, -4, 72, 76, -12, 63, 3, -62, 3, 73, 53, 69, -77, 12, -46, 32, 26, 16, 18, -31, -34, 35, -49, -24, -9, -35, 66, 67, -14, -49, 61, 64, 30, -65, 42, 67, 29, 8, 58, -67, -46, -36, -41, 33, 64, -52, -55, -26, 6, 77, -39, 71, -19, -65, -26, -46, 7, -13, -69, -44, -17, -17, -67, -43, -69, -24, 14, -29, -39, 15, -37, -55, -43, -38, -25, 56, -63, 20, -49, 21, -27, 66, 67, 32, -13, -49, 46, -72, 53, 53, 73, -14, 67, 5, -18, 38, -19, 47, -77, 47, 42, -17, -39, 7, -14, -66, 66, -45, -34, -53, 8, -24, 13, -70, 30, 56, -16, -73, -2, -70, 74, -7, -6, -75, -14, -30, -59, 1, 76, -38, -23, 50, -14, -22, -26, 62, -2, -29, -16, 65, -2, -53, 1, 14, 4, 38, 42, 26, 13, -31, -24, 38, 45, 42, 63, 7, -25, -1, -69, -6, -38, -43, -24, 46, -4, -73, -39, -60, 32, 44, -7, 42, -17, 41, 26, -72, 50, -29, 50, 66, 48, 55, 53, -61, 75, 22, 14, -64, -26, 37, 33, -53, 38, 61, 41, 14, 27, -77, 45, 36, 73, 17, -15, -34, 40, -36, 0, -38, -62, -69, 70, -68, 12, 27, 49, 14, -53, 5, 31, -74, 65, -3, 5, -73, -37, -69, -22, 61, 48, 65, -1, -14, -52, -39, -5, -41, -71, 58, -52, -59, 23, -29, 76, 27, -4, 19, -26, -62, -56, -34, -15, -71, -41, 64, 30, 72, 18, -74, 5, 40, -37, 6, -61, 2, -61, 69, 27, -41, 10, 14, -2, 75, 17, 35, -61, -35, -40, -55, 10, -42, -59, 66, -58, -9, 12, 40, -53, -32, -54, -16, 54, -19, 64, -49, 69, -56, 45, -60, 26, -64, 71, 5, -25, 22, 65, -59, 68, 10, -29, 25, -5, 36, -12, -48, -57, 36, -72, 27, 40, 0, 8, 9, 35, 71, -11, -37, -12, 25, -41, 35, 27, -70, -62, -49, 73, -28, -73, 35, 22, -25, 23, 51, -50, -11, -43, -23, -16, -50, 22, 23, -42, 17, -4, -33, 36, 36, -36, 49, 66, -9, 50, -5, -75, -28, 64, 43, -11, -19, 68, -26, 33, 29, 56, 3, 14, -54, 47, 51, -37, 46, 62, -71, -68, -3, 52, -69, -17, -1, 6, 55, 46, 30, -15, 11, 24, -15, -29, -6, 76, 19, -14, 42, -16, 12, -54, 27, 50, 42, 23, -55, 56, 56, 9, -50, 13, -57, -62, -58, -3, 1, 15, 43, -14, 30, 52, -60, -77, 25, 29, -21, 29, 62, -7, 75, -24, -17, 0, 17, 27, -35, 44, 20, -49, -53, -28, -68, -34, -17, 25, 30, 68, 26, 36, 0, 44, -35, 46, -9, -68, -60, 10, -11, -44, 76, 61, -42, -7, -15, -74, -47, -28, -31, -13, -55, -47, -38, -5, -34, 7, 71, 69, 20, -39, -15, 48, 13, -54, -71, -66, 56, 69, 11, -56, 36, 74, -17, 18, 31, -47, -6, -75, -74, -21, -39, 45, 62, 18, 6, 56, -36, -39, -62, -14, -44, -35, -62, 19, 64, 68, 7, -22, -65, -58, -1, -35, -22, -14, 16, -5, 76, -33, 42, 71, -62, -40, -49, 53, 38, 15, 55, -50, -57, -10, -25, 7, 24, -8, 30, 65, 32, 72, -77, -68, 27, -71, -71, -64, -25, 49, -24, 54, 33, -17, 65, 39, -52, 39, -23, 70, -24, 44, -42, -53, 52, 25, -64, -21, 1, -12, -50, 11, -54, -66, -48, -8, 77, -74, 45, -70, -38, -69, 19, -24, -16, 18, 13, 39, -77, 8, -61, 10, -76, -52, -4, -50, -6, -76, -16, -24, 20, 55, 30, -59, -16, -35, -54, 66, 32, -25, 55, 34, 75, 73, -54, 29, 35, 35, 51, -27, -18, -33, -37, 77, 50, 23, 52, -34, -22, -66, 67, 65, 44, 62, 19, -32, 18, 59, -12, -21, -21, 49, 44, -14, 8, 53, 46, 3, -63, 13, -66, -18, 7, 45, -74, -2, -25, -25, -18, 40, 10, 67, -13, -31, 70, -65, -75, -26, 61, 14, -63, -13, 65, -71, -4, -32, 17, -72, 49, -7, 16, -36, -19, 76, 3, -71, 13, 43, 6, -27, 48, -8, 42, 9, -7, 50, 11, -28, -53, 22, -60, -39, -37, 51, -30, -20, 77, 9, 21, -70, -63, -44, 59, 55, -55, 40, 14, -59, 1, 72, -50, -41, -57, 73, 53, 36, 12, -27, 14, -49, 42, 8, 44, 17, 1, -4, -71, 38, 32, -6, -57, 25, 15, 22, -37, -34, -76, -19, -9, 34, -62, 73, -14, 46, 76, -43, -58, -23, -22, 17, -69, -1, 48, -16, 8, 69, 47, -19, -24, 17, 40, -32, 29, -15, 21, -23, 18, -21, 8, -4, -29, 39, 40, -45, 11, -68, -71, -10, -50, -46, 17, 51, 53, -70, -3, 13, -60, -5, -7, -32, -18, -19, 58, 51, -16, -57, 53, 4, 9, 45, -74, -75, 49, -20, -73, 54, -76, 56, -34, 41, -43, 23, -42, -9, -31, -69, 58, -30, -40, 47, 71, -10, 49, -9, -23, -67, 29, -35, -21, -75, -77, -55, -5, -45, -68, 51, 57, -63, -39, 56, -32, -15, -73, -33, -55, -74, -16, -66, -7, 28, -1, -74, -37, -35, 55, -51, 68, 8, -62, -27, 74, 64, -35, 69, 72, 60, -19, 12, -70, 14, 69, 18, 3, 61, 47, -15, 20, 7, 36, 69, 48, 53, 74, -60, -27, -49, -50, 2, 65, -63, -11, -40, 48, 66, 12, 68, 40, 8, -23, -24, -12, 1, 72, -65, 4, 32, 59, 11, -36, -56, 51, -47, 64, -43, 20, 51, -23, 28, 12, -65, -42, 2, 52, 39, 62, -70, -35, -25, -41, -20, -16, -65, 38, 16, -62, 14, -17, 77, 33, 27, 4, -6, 63, 48, -10, -73, 15, -39, 69, -17, -68, -41, 29, -68, 75, 51, 58, 64, -1, -49, 71, 32, 5, -31, 77, -52, 59, -64, -77, 61, -3, 19, -7, 60, 23, 53, 23, 36, -42, 45, -76, -25, 47, -77, -43, -21, 53, -12, -26, 50, 71, -67, -49, -4, -68, 37, -1, 1, -54, -29, 54, -52, -28, 9, -26, 24, -73, 76, 31, -70, 62, 68, -30, 0, 32, 48, -59, 40, 64, 54, -13, 42, 33, 5, 53, -48, 37, -7, 39, -39, -29, -65, -62, 67, -15, -1, -11, -43, 48, 27, 64, 45, -55, 53, 10, 63, -33, -20, -49, -65, -21, 46, -48, -16, 47, -42, 44, -15, -35, -12, -42, -44, -57, 58, 42, -40, 67, 9, 77, -33, 57, 58, -15, 5, -37, -73, -15, 43, 4, -17, -36, 58, 29, 69, -52, 28, 33, 54, -39, 2, -48, 45, -48, 16, -7, 6, 70, 47, 18, 0, 35, 28, 23, 57, 45, 6, -28, -47, -6, -75, -73, -66, 52, 33, -54, 12, -45, 55, -15, -32, 19, 29, 38, -18, 68, -72, -38, 16, 50, 22, -4, -52, 47, -73, 60, -16, -76, 21, -21, 55, 39, -56, 37, -13, 2, -15, -65, 23, 17, 36, -4, 1, 1, 37, -12, 20, 71, 39, 41, 58, 46, 24, -6, 54, -36, -28, -62, -15, -67, 53, -53, 43, 33, 10, -36, -61, -57, 9, -26, -18, 42, -10, -39, -22, -75, 3, -36, -77, 33, 8, -7, -10, 29, 23, -59, -35, -60, -4, -48, -67, -53, -76, -63, 0, 70, 69, -40, -22, 59, 56, -15, 47, 49, -14, -75, -25, 38, -25, 73, 15, 48, -51, -53, 23, 41, 43, 44, 33, 4, 5, 65, 62, -57, 1, 27, 56, 22, 72, 55, 72, -35, -68, 50, 37, 60, -13, 0, 64, 73, 63, 56, -63, 47, -9, 23, -32, -10, -41, 25, 33, -22, 38, -18, 29, 47, 22, -33, 
  -63, 38, -46, 42, -10, 41, -11, 70, 35, -68, 66, 59, 34, 52, 37, -12, -62, -41, 21, 45, -54, 28, -53, -32, 43, 35, -51, 44, 60, 54, -31, 36, 59, -38, 41, 7, 72, -77, 11, 49, -66, 43, 5, 57, 70, -55, 0, -44, 41, 31, -55, -6, -18, -80, 15, -62, -68, -79, -27, -11, 65, 30, 74, 59, -56, -73, 38, -70, -51, -73, 40, -44, -44, -58, 21, 25, -22, 81, 28, 79, 11, 45, 48, -27, -17, -65, -10, -33, 44, -34, 35, 24, -66, 13, 63, -25, -50, -20, 55, -22, -28, -10, 58, -48, -39, -8, 13, -22, 11, 25, -58, 16, -6, 53, 0, 65, -72, 0, 50, -8, -74, 58, 7, 22, -67, 6, 6, -42, 14, 20, -34, -73, -23, 64, -18, -41, -54, 13, 10, 50, 43, 54, 27, -25, 9, 13, -37, -56, -29, -60, -23, -52, 58, 65, -45, 24, 25, 78, -36, -59, -31, 29, 58, 43, -44, 18, -29, -56, 25, 8, -69, -36, -3, -64, 50, 38, 21, 30, 50, -81, -23, 52, 62, 56, -5, -78, -7, 48, 2, -40, -6, -56, 0, -49, -2, 68, -36, -55, -50, -37, -40, -21, -44, -31, 1, -2, 10, 55, 67, -5, -9, 62, -9, -19, -24, -33, -72, -7, -58, -50, 70, 27, 61, -18, 71, -78, 52, -77, -44, 13, -3, 69, -76, 63, -47, 26, -33, -5, 68, 73, -8, 21, 53, -73, -70, -25, 3, 11, -80, -31, -69, 30, -23, -69, 5, -25, -58, 62, 62, 28, -21, -52, 33, -38, -60, -15, 41, -40, -12, -44, 31, 76, 11, -47, -63, -20, 46, -28, -33, 3, 68, 74, 40, 20, 68, -45, 63, -44, -53, -10, -43, -59, -77, 49, -22, -50, 19, -40, -26, 27, -29, -19, 1, -71, 1, -4, 15, -15, 61, -33, 27, 24, 21, 42, 71, 24, 48, -44, -53, -59, -43, -54, -57, -69, -12, -42, 17, -63, -46, 44, 73, 51, 13, -9, 10, 73, 28, 70, 14, -44, 18, -47, -50, 27, 14, -5, -10, -67, -61, -32, 33, -69, -24, 29, 2, 35, -1, -23, 30, -63, 23, 10, -53, -2, 20, 8, 52, -32, -53, 53, 14, 8, -7, 57, 71, 15, 70, 12, 28, -21, -67, -37, -60, -49, 11, 11, -45, 0, -11, 73, 27, -7, -19, 65, -24, 40, 40, -62, 78, -37, -10, -21, 46, -36, -35, -77, -40, 21, 69, 64, 13, -47, 42, -45, 13, 29, 10, -15, 73, -63, -12, 61, -13, 34, 63, -70, -16, -1, -36, -21, 1, -63, -1, -31, 33, 56, -48, -28, -52, -24, 19, -15, 49, -20, 64, -27, 53, 7, -9, 19, 51, 31, 68, 22, 50, -1, -79, -7, -31, -3, -14, 55, -63, 53, -2, -66, -37, -41, 18, 49, 23, 55, -57, -53, 69, -59, 51, 4, 31, 63, -36, -5, -65, -25, 30, 8, -62, 49, -7, -40, -58, -4, 62, -59, 74, -4, -80, -26, 68, 19, 38, 50, 59, -56, -67, 49, -47, 21, -53, 18, 64, 73, -77, -42, 46, 56, -38, -30, 64, -29, -45, -9, 23, 42, 4, 25, -29, -41, -61, 16, -11, -78, 17, 65, -18, 5, 65, -75, 29, 31, -79, -43, -64, 42, 54, 18, -5, -6, 59, 8, -22, -20, -39, -44, -59, 66, 27, -60, -45, 60, -81, -6, 11, 4, -51, 36, 4, -31, 59, 69, -71, 27, -81, -40, -4, 66, -13, 39, 54, -48, -42, -5, 24, 65, 62, 14, 40, 22, 33, -24, -48, 16, 7, -69, -17, -44, 57, 54, -56, 28, 29, -13, -15, -40, -79, 30, -31, 60, -3, -72, 42, -68, -23, 12, 48, -26, 36, -39, 60, 11, 13, 56, -6, 72, -16, -65, 47, 59, 53, -61, -32, -65, -48, -58, -19, 46, -21, 77, -38, -46, -15, -8, 20, 18, -12, 0, -13, -71, -29, -79, 12, -74, 37, -13, 69, -4, -29, 22, 7, -30, 9, 32, 61, -31, 22, -24, 74, -12, 39, -9, 4, -15, 36, -11, 64, 32, -26, -64, -68, 28, -30, -69, -4, 69, -52, 19, 22, -63, 72, -78, 26, -76, -75, 36, -11, 68, -12, 49, -11, 55, -38, -10, -1, 60, -81, 14, -7, 28, -62, 64, 57, 29, 20, -50, -51, 14, 63, -46, -9, 33, -29, 6, 31, -80, 43, 49, 18, 58, 21, 64, 76, -4, -31, 36, 32, -75, -58, 5, -28, 69, -56, -54, 65, -74, 15, -72, -36, 1, 54, -11, -68, 71, -81, 12, 36, 6, 46, -62, -22, 26, 64, 55, 14, -68, 41, -35, -14, 15, 28, 36, 66, 6, 44, 45, -51, 42, -52, -17, 53, -71, -67, -59, 48, 31, -69, 35, 16, -15, -15, -13, -10, -61, -66, -76, 74, 52, 16, -56, 40, -77, -12, -42, -50, -65, -20, -25, -26, -53, -78, 44, 25, -79, -74, -26, 56, 30, -33, 45, 72, -58, 26, -11, -81, -33, -77, -51, 21, -38, -10, 23, -44, -2, -22, -7, 30, -63, -56, 14, -2, 60, 37, -2, -21, -20, -22, -61, -24, -51, -4, 42, -76, -67, 33, -51, 10, 21, -19, -51, -67, -51, -41, 44, 54, 52, 72, -76, 66, -10, 62, 54, 67, -58, -40, 62, -62, -63, -33, -46, -74, 63, 36, -25, 26, 61, -25, -62, -20, 24, -29, -25, -58, -16, -22, 20, -5, -55, -6, -7, -22, -65, 37, 22, -74, -59, -18, 41, -9, 28, -59, -41, -20, -65, -44, 21, -4, -12, 58, -51, -75, -47, 63, -54, -37, -39, 33, 8, -67, -64, -70, -2, 2, -68, 44, -51, -34, 45, 35, -28, -63, 36, -39, 13, 59, -17, 69, 70, -48, 7, 25, -30, -42, -79, 60, -37, -45, -83, -36, 38, 32, -50, 30, 33, -45, 62, 38, -76, -19, -43, 44, -60, -47, 8, 41, -9, -15, -37, 44, -2, 55, -62, -80, -18, 16, -35, -13, 60, -45, 32, 57, 18, 12, 77, -5, -59, -12, 72, 25, -25, 44, 72, -38, 35, 22, -45, -9, -10, -16, 66, 29, 45, -46, 3, 32, 33, 73, -57, 1, 17, 31, 42, 37, 32, 7, 53, 71, 63, -44, -11, 32, -23, -8, 27, -42, 28, -71, 26, -2, 61, 50, 23, 59, 26, 52, 26, 46, -4, 72, 21, 8, 73, 11, 42, 50, -12, 56, -25, -15, -24, 32, -11, -2, 12, -9, -38, -22, 21, 56, -27, -29, -3, 78, -46, -29, -8, 67, -10, 21, -79, 70, -42, 59, -57, -73, 32, -66, -54, 66, -15, 46, 67, -33, -69, -12, 46, 64, 26, -56, 12, -20, -59, -60, 71, 66, -48, -24, 2, 1, 64, 4, -8, -78, 62, -76, -47, -9, -2, -70, 3, -62, 70, -48, -65, 27, 36, 1, -60, 68, 13, -17, -22, 21, 35, 2, 50, -64, -78, -59, 42, -16, 52, 0, -80, -61, -46, 68, 52, -20, -56, 3, -8, 4, 52, 47, 56, 63, 3, -57, -4, -63, 69, -31, -5, 41, -25, 3, 64, -44, 41, -5, 16, -39, 24, 18, -31, -4, -77, 56, 27, -4, 5, 56, -43, -8, -57, -23, 38, 67, 44, -30, -56, -1, 72, 24, 25, 76, 27, 60, -62, -45, -43, 37, -57, 70, 61, -77, -25, -80, 15, 65, 61, 81, -54, 45, 60, -76, 15, -65, 13, 54, -78, -16, -35, 40, -27, -68, 57, 47, -72, -20, 2, -75, -13, -44, -10, -76, 55, 59, 49, -23, -48, -56, 15, 77, 3, 2, 17, 76, 8, -7, -24, 5, 58, -77, 44, -62, 5, -25, -69, 21, -63, 43, 57, -13, -52, 27, 52, -4, 44, -25, 43, 14, 53, -7, -33, -3, -7, 72, 63, -56, -35, 40, -28, 3, 18, -66, -65, 21, 42, 30, -50, 61, 49, -75, -56, 55, -12, -48, 66, 64, -15, -59, -2, 68, -44, 51, -48, -60, -70, 45, 9, -38, -13, 14, 61, -6, 59, -67, -21, 29, 59, -68, 40, 34, 12, -56, 45, 65, -45, 55, 26, 38, -5, 29, -21, -22, -65, 24, -38, 6, -42, -16, -31, -28, 55, 39, 42, 71, 66, -46, 46, 61, -61, -4, -60, 58, -21, -52, 32, -34, -71, 58, -47, -37, -18, 60, -47, 0, -10, -47, 37, 70, -39, 13, 29, 51, 51, 71, -18, 74, 19, 71, 33, -65, 11, 22, 51, -15, -5, -44, 37, -43, -36, -44, 18, -72, 30, 39, -60, 22, -59, 9, -57, -53, 21, 10, 32, -13, -29, -10, -17, 11, -35, 61, -22, -50, 19, -10, -60, -6, 14, -65, -59, -26, -70, -16, -9, 51, -77, -1, -55, -78, -13, -40, 58, -6, 57, 40, -32, 64, 54, -67, 51, 8, -51, -1, 41, 60, -48, -19, -42, 45, -42, -21, 20, 39, 65, 71, 54, -17, -33, 32, -11, 7, 65, -64, -46, -37, -44, 61, 29, -13, 77, 30, 62, -73, -5, -15, 39, 25, 59, 23, 68, -6, 54, 54, 59, -33, -3, 50, -27, -53, -29, 67, -12, -36, -2, 65, -26, -49, -74, 64, -47, 2, 67, 49, 63, -33, -75, 52, -42, 54, -57, 22, 46, -51, -32, 43, -6, 38, -4, -45, 74, 54, 23, -36, -36, 34, -41, 16, 72, 60, 51, 66, -71, -64, -67, 57, 47, -13, 43, -40, -55, 67, -8, -77, -71, -22, 44, -28, 74, 63, 14, 70, -19, -15, 8, -73, -37, -71, 49, -1, -28, -5, 70, -31, 52, -28, 50, 35, -26, 63, 58, 37, 49, -21, -55, -5, 51, -38, -38, -74, -13, -66, 24, -54, -21, -23, -52, 15, 11, -11, -57, 69, 59, 80, -66, -54, 26, -45, -57, 
  59, 11, 8, -52, -64, -60, 61, -22, -39, 42, -18, 15, -51, -29, -50, 48, 40, 46, -11, -21, -12, 67, -19, -16, -28, 0, 60, 54, -74, -56, 37, -43, 64, -59, -30, -41, -27, -74, 13, 41, 5, 19, -63, -25, 40, -44, 59, 53, -19, 48, 44, 52, -62, -23, -25, 70, 46, 55, 71, 49, -68, -58, 72, 77, 0, 39, -38, 72, -78, -21, -70, 17, 50, 23, 35, 41, -28, -18, -35, -25, 53, -77, 33, -58, 22, -47, 13, -58, 48, -31, -25, 9, 17, 53, 26, 8, 9, -21, -63, -64, -20, -70, 14, -26, 66, -43, -69, -12, -54, 26, -44, 2, -49, -7, 22, -12, -31, -55, -45, -13, 66, -25, -41, -2, -67, 6, 77, -54, -39, 28, -29, -18, 28, -16, -21, -21, 36, 36, -68, 61, 22, 12, 53, 13, 47, -77, 54, 9, -67, -70, -13, 32, -30, -54, 38, 84, 59, -43, 72, -52, -33, 45, -74, -21, -76, -53, 11, -30, 66, -27, -18, -64, -61, 41, 45, 16, -34, 37, -30, 19, -35, 2, 21, 20, 15, -65, -37, -43, 58, -53, 67, -25, 25, -51, -38, 53, -8, -19, -2, -50, -56, 68, 10, -62, -57, -73, -12, -6, -45, 2, 55, 35, 20, 23, 55, 14, -16, -76, 38, 47, 10, -24, 19, -15, -46, 50, -4, 56, -33, -26, -45, -26, 29, -31, 71, -40, -35, 70, -25, -30, 72, 56, -73, -66, 48, -45, 38, -20, 70, -77, 70, -66, 30, -82, 7, 80, 46, -13, 34, 7, -4, 65, -66, 47, 46, 51, -65, 73, -34, 62, 19, -39, -43, 38, -56, -10, 13, -33, 32, 28, 64, 13, 16, -5, 28, -12, -19, 21, 41, -79, 27, 14, -59, -52, 50, -28, -65, 26, -44, -71, 14, -36, -17, 31, -3, -5, -70, 44, -48, -41, -50, -66, -27, -16, -1, 58, 24, 9, 58, -78, -65, 2, 43, 23, -34, 28, -63, -17, 73, -47, -22, 64, -73, 50, -27, -72, -50, 68, -14, 61, 15, -48, -21, -53, 70, -16, -16, -44, 53, 50, -39, -80, -81, -79, 71, -37, 56, -68, -44, -51, -76, -25, -50, -34, -10, 59, -76, -43, 1, -63, -44, -29, -57, -72, -13, -1, -20, 61, 25, -49, 10, 21, -14, 5, -69, 28, -3, -4, -13, 6, 18, -59, 72, -42, -56, 19, -25, 25, 43, -17, 66, 35, -6, 34, -35, 5, 14, 40, -69, -66, 36, 8, 19, -3, -61, -6, 41, -43, -27, 0, 0, 39, 12, 59, 68, -71, 70, 52, 10, -61, -38, -12, -38, 38, -13, 37, 25, -42, 3, 68, -9, 28, -4, -78, -75, 52, -43, -55, -10, 2, -54, -42, -69, -21, 56, 72, 9, 31, 22, 5, 55, 38, 47, -61, -52, 11, 11, -33, 40, -52, -12, -52, 19, -44, 56, -32, -79, -74, -30, -28, 21, -31, 30, -42, 2, -45, 16, -71, -2, -77, 43, -80, 68, -6, 71, -21, -67, 19, -37, 45, 43, -34, -27, -71, -21, -49, 63, 58, -68, 63, -54, 53, 33, -13, -74, 13, -10, -42, -11, 40, 14, 15, 63, -39, 66, 61, -65, 39, 62, 13, -39, -37, -25, 47, 14, 15, -32, 30, 75, -26, -47, 45, -41, -52, -33, -3, -36, -43, -75, -58, 3, 71, -43, 13, 55, -47, -34, -66, 50, -66, -59, 21, 53, 2, -42, -72, 41, 67, -77, 29, -37, -80, -22, 35, 56, -59, 58, -55, 7, 37, -59, -70, -74, 36, -46, -76, 35, -73, 23, -28, -37, 11, 73, -41, -78, 55, -52, 58, 4, 37, -74, 51, -72, 5, 19, 16, -74, -11, -2, -45, 31, -17, -47, 29, 62, 41, 32, 62, 78, -57, -36, 24, -62, 57, 16, 45, 27, 39, -58, -22, 54, 67, -11, 60, 21, -22, -74, -10, 76, 35, -37, 40, 0, -52, -68, -40, 17, -26, -79, 57, 65, -29, 64, 61, -21, 42, -73, -64, 34, 24, -74, -22, -70, 15, -36, 23, 29, -28, -35, -57, -73, -79, -60, 48, -73, -72, -13, 41, 22, -30, 55, 68, -39, -71, 45, 76, -66, -9, 60, 45, 55, -62, -23, 35, 26, -59, 25, 67, 8, -66, 49, -30, 8, -76, -43, 23, -22, 54, 66, -59, 56, -29, -42, -59, 13, -45, -57, 59, -30, -84, 61, -56, 57, 8, 74, 12, 45, -57, 22, 59, -55, -70, 24, -8, 77, -37, 11, 58, -74, -76, 3, 10, 70, -24, -43, 3, 7, -39, -18, -44, -64, -79, 28, 35, -17, 18, 67, -26, 10, -58, -2, -64, -73, 9, -52, 80, -17, -53, -13, 20, 75, -25, 2, -35, 74, 1, -35, 53, 54, 45, -8, -20, -1, 40, 59, -68, 2, 61, -51, -54, 42, 8, 34, 12, -72, 64, -67, 51, 23, -45, -27, 56, 5, -28, -36, 13, -23, -49, 43, -40, -33, 42, -4, 45, 14, -6, -9, -77, -19, 42, -65, 37, -46, 47, -78, 27, -66, 51, -23, 11, 44, 50, 48, 19, -12, -51, -30, 73, 56, -66, -17, 15, -49, 43, 62, 7, 77, 47, 57, -7, -7, -28, -32, 8, -15, -41, 49, -69, 76, -67, 62, -16, -15, 35, -19, -51, 8, 70, 19, 75, -22, -75, -17, 59, -72, -9, 48, -75, -59, -11, -22, -80, 35, -30, 38, -55, -1, -6, 1, -3, -8, 23, 20, -14, 19, -42, 60, -48, -48, -60, -72, 0, 65, -13, 5, 33, -32, -13, 68, 62, 31, -58, -42, 32, 75, -22, -20, 35, 45, 39, -72, -80, 46, 17, -22, 28, -36, 55, 37, 22, 55, 9, -4, 27, -53, -58, 60, -48, 33, -16, 62, -28, -70, 59, -24, -28, -17, -38, 66, -4, 32, 23, -23, -31, 49, -6, 4, 69, 67, -7, -61, 66, 38, 36, -70, 52, 14, 33, 61, 8, 51, 11, 15, 24, -71, 9, 35, 66, -61, -48, -62, -31, -6, 63, -58, -42, -52, -51, 20, 44, -33, -26, -39, -25, -15, -29, -67, 63, 3, 12, -79, 67, -29, -4, 52, 34, -55, 0, -49, 75, -61, -55, 60, 53, 63, 72, -79, -58, 21, 27, 9, 37, -29, 14, -37, -27, 34, -59, -9, 60, -26, -70, 33, 9, 23, -77, -54, -35, -71, 61, 51, 39, -47, -65, -28, 33, 53, -79, 9, -35, -7, -59, 15, 51, -54, -24, -71, 67, -52, -55, -47, -67, -52, 55, -22, -23, -5, -41, -35, 42, -38, 60, 22, -35, -27, 25, -10, -74, 30, -53, -5, -41, 42, 11, 19, 6, 26, -71, 18, 19, 53, 24, 0, 54, 14, 39, -64, -42, 69, 26, -3, -57, 66, -55, -6, -1, 1, -51, -32, -20, -52, 7, 28, -15, -13, -36, 71, -20, 59, -34, 7, -29, -69, -13, 58, 1, 49, -64, -30, -18, 76, 22, 48, 59, -66, 13, -30, 18, -14, 11, -69, -50, 1, -12, 68, -56, 5, 0, -21, -53, -43, 31, -58, 0, -64, -33, 63, 2, 51, -16, -81, 57, -4, 67, -9, -32, -4, -36, 51, -2, -65, -44, -36, -6, 6, -44, 14, 6, 62, -34, -32, 82, 35, -52, -34, -22, 10, 2, 17, 29, 66, -35, -34, -52, 61, 50, -12, -34, -45, 25, -20, 47, 50, 11, -31, -26, -37, 53, 46, -29, 23, -37, -72, -6, -22, -65, 18, 35, 51, 53, -50, -22, 30, -69, -54, 50, -67, -59, 71, 55, 58, 35, -18, -72, 61, -74, 71, -21, -19, -44, 13, 1, 78, 57, -21, 70, -78, -41, -20, -67, -24, 12, 6, 18, -56, 35, 39, 49, 55, 69, -3, 75, -45, -61, 68, -8, 33, 51, -64, 25, -53, -28, 6, 68, 56, 47, -65, -53, 16, 68, -14, -62, 0, -5, -35, -7, -71, 56, 67, -5, -17, 68, -68, 70, 2, -66, 17, 5, 21, -61, -44, 52, 50, 63, 5, 71, -33, 67, 1, -16, 55, -43, -72, -45, -70, -11, -44, 68, -9, 39, -45, -33, -21, -44, 73, 62, -47, 24, -3, -14, 25, -71, -53, 56, 71, 31, -54, 46, -18, 60, -19, -20, -16, 6, 71, -39, -15, 13, -72, 73, -66, 65, 62, -2, -32, -57, -41, -6, 2, -11, 41, 32, -2, -19, -62, 74, 53, 36, 10, 31, -42, -53, 49, 57, -14, -66, -19, 25, -60, -37, 68, 75, -39, 57, -75, -21, -39, 50, -68, -64, 4, 12, -54, 71, -58, 62, 65, -53, 45, -61, -73, 52, 57, 38, -78, -56, 50, -56, -71, 32, 59, -16, 12, 0, -37, 58, -38, -51, -50, 34, -56, -49, -7, 38, -63, 55, -1, 3, 42, 69, 41, -35, -69, 52, -55, 79, -38, 34, -25, -47, 9, -44, -19, 32, -10, -7, 62, -19, -21, -30, 63, -25, 40, 2, 15, -13, 26, -73, 57, -35, -23, -62, -74, 72, -57, -43, -20, -63, -44, 46, 48, 35, 73, 15, -30, -49, 30, 6, -55, -36, 46, -72, 32, 12, 66, -39, -28, -3, 67, -53, -6, -9, -19, 42, 44, 29, 56, 64, -19, 15, -61, 27, -11, 77, 60, -31, 53, -47, 8, 57, 27, 9, 32, -23, 5, -19, -8, -73, 42, -66, 22, -16, 14, 61, 28, 41, 8, -44, -43, 27, 19, 5, 18, -36, 65, -77, -29, -7, 43, -64, -54, 61, -14, -57, 18, 68, -28, 0, 68, 20, -50, 47, -67, -60, -39, -46, 20, 36, 61, -66, 68, -13, -14, -70, -52, 28, 11, 0, -50, 27, -5, 17, 71, 23, 29, 72, -52, -24, -71, -47, 65, 1, -33, -8, 1, -52, -27, 41, 11, -53, 63, 54, -26, -56, -15, 57, 4, -16, 28, -45, 
  -29, 53, 13, -1, -27, -62, 6, 74, -30, 15, -68, -28, -78, 40, 5, 5, -70, 21, -26, 7, -61, -65, -9, -40, 55, -21, 25, -11, -38, 80, -23, 0, 57, -47, 15, -69, 50, -46, 29, 65, 50, 28, -49, -21, 11, -72, -66, -43, -4, 46, 63, -10, 23, -33, 32, 44, 23, -11, 47, 6, 17, -70, 44, -53, -22, -1, -31, 64, 64, 33, 69, -37, 49, -58, -73, -47, -11, -10, 49, 7, -62, 26, -42, 61, -9, -60, 20, -7, 72, -15, 13, 8, -48, 61, 6, -1, -9, 24, -5, 49, -13, 22, 60, -46, 14, 11, 78, -47, 25, 43, -6, 0, 24, 44, 50, 18, 36, -61, 19, -49, -79, 41, -57, 15, 2, 72, -9, -22, -36, -68, 2, 25, -51, -28, 13, 65, 32, -60, 61, 75, 41, -2, 6, -37, 13, -42, 64, 72, 67, -37, 56, 17, 24, -71, 55, 0, -24, 58, -26, 1, 45, -75, 35, -60, 51, -76, 72, -44, 41, 6, -3, 71, -64, 0, -62, 27, -60, -22, 72, 38, 65, 25, -76, -60, -13, -43, 4, -30, 77, -67, -43, 81, 39, 7, 17, -45, 70, -6, 53, 2, -10, 27, 53, 57, -69, -62, -65, -19, 15, 50, 29, -24, -30, -31, 46, -66, -50, 64, 18, -64, -48, 71, -33, -35, 60, 25, -72, -17, -55, 58, -12, 54, 33, -35, -67, 8, 19, -17, -47, -30, 56, -70, 17, 17, 28, 27, 66, 25, -35, 7, 32, -24, 30, -30, -1, -72, 10, -73, 42, -2, -60, 39, -30, -35, -10, 76, -71, 72, 32, 5, -2, -63, 62, -40, 5, 42, -18, 10, 71, -34, -53, 39, -69, 27, 23, -10, -51, -63, -2, 14, 22, 16, -58, -7, -11, 61, -63, 72, -67, -51, -64, -78, 64, 10, -26, -47, -77, -33, -52, -22, 75, 74, -2, 11, -49, 62, -24, 55, -17, 21, 36, -62, 51, 66, 58, 76, -10, -60, -5, 27, 25, -18, 45, 28, 51, 22, -2, -65, 42, -71, -8, 33, 6, -65, -59, -25, 76, -29, 68, 45, -23, 24, 34, 68, 0, -49, -17, -65, -79, 59, -14, -34, -7, -62, 40, -18, -1, -11, -22, 12, 28, 67, -45, 46, 62, -48, 67, -6, -20, -14, -52, -69, -80, -22, -68, -78, 42, -3, 27, 36, 66, 14, 36, -66, -16, 46, 40, -69, -69, 41, 68, -68, 27, 8, -48, -10, -32, -4, 17, -21, 79, -72, 13, -69, -8, 42, -26, 55, -1, 52, 63, -51, 31, -35, -66, -2, 77, -3, 7, -50, -20, -72, 53, 61, -33, -64, -59, -70, 63, 25, -10, 62, -26, -74, -41, 37, -8, -13, -34, 65, -5, -28, -48, 63, 44, -36, -33, -19, -69, 4, -3, -41, -81, -34, -43, 24, 68, -10, -66, -75, 34, 65, -33, -24, -14, -65, -78, -57, 30, 0, -49, 42, 30, 29, 58, 77, -3, -33, 9, -72, -64, 14, 68, -51, -16, -33, -68, -18, -74, 58, -73, -72, -65, 9, 59, -51, 0, 52, -47, 25, -71, -54, 74, 8, -50, 9, -36, 50, 16, -33, 27, -7, 58, 29, -72, -12, -72, -92, 44, -30, 38, 79, 57, -36, 21, 39, -80, -38, 26, -3, -80, -59, -25, -9, -42, 29, -71, -41, -45, 35, 52, 0, -65, -30, -53, 31, -27, -28, -22, 17, 34, -43, -5, -74, -37, -24, 61, 2, 49, 12, 14, -77, -62, 45, 74, -73, 51, -74, 61, 28, 60, 15, -20, -78, -67, 5, -30, -17, 33, 3, -16, -52, -15, 59, 46, -6, 23, 70, 0, -32, 15, 17, 2, 34, -36, 62, 9, 1, -41, -63, 70, 49, 30, -27, 24, -20, 34, -67, 23, 46, -64, 79, -1, -45, -27, 72, 71, -52, 58, 74, -2, 74, 29, -15, 69, 25, 22, 82, -36, 11, 15, 6, 25, 3, 61, -76, -74, 43, -11, -3, 83, -75, -25, 19, -64, -71, -10, -46, -5, -68, -72, 46, 23, -20, 0, -60, -59, 26, -2, -31, 37, -38, -72, 39, 13, -2, -1, -1, 64, -69, -42, -25, 50, -64, 15, 68, -51, 43, -42, -78, 42, -23, -62, 34, 75, -7, -50, -29, -59, -33, 20, 73, 50, 0, 24, 61, -34, -74, 14, 30, 16, 35, 39, 41, -1, 0, -59, -14, -33, 6, -33, 13, -62, -76, -39, -37, -52, 51, 29, 50, 81, -29, 45, -51, 62, 41, 72, 28, 55, 51, 31, -57, -74, 32, -33, 52, 74, -25, -37, 75, 22, 7, 67, -45, 16, -31, 11, -23, 23, 11, -53, 63, 13, 12, -29, 53, -1, 71, 9, -44, 28, -48, 42, -36, -6, -69, 69, -66, 52, 19, 41, -21, 48, 26, -31, -65, 56, -67, 9, 54, 36, -40, -40, -78, -36, 1, 51, 4, 76, -56, -70, 19, 79, 46, -64, 4, -28, -67, 73, -32, -37, 35, 49, 78, -10, 81, 35, -22, 58, 43, -8, 43, 31, -17, -16, -78, 27, 62, -4, -22, 80, -36, 72, 57, -53, 26, 74, 48, 62, 40, -61, 17, 72, -63, -49, -3, 27, -18, 24, 57, -58, 26, 46, -43, 70, -69, -56, 43, 28, 85, 1, -11, 20, -36, 0, 5, -66, -69, 57, 15, -62, 45, 34, 72, -33, 71, 24, -34, 40, -49, -1, 19, -2, 51, 6, 55, -27, -29, -31, -65, -5, -62, 77, 52, -26, -27, -14, 30, -2, -45, -1, -16, -18, 6, -68, 49, 66, 27, -74, 19, -17, -68, -58, -45, -68, -47, -3, 6, 71, 60, -70, 71, 70, 66, 71, -12, -39, -11, 48, -7, 11, 40, 43, 50, -25, -9, -42, 49, 69, -10, -42, -61, -14, -71, 12, -48, -57, 38, -70, -26, 33, 50, 66, 22, 19, 3, 4, 62, 41, -12, -72, -9, 40, -23, -37, 33, -41, 7, 43, 15, -50, 52, -73, -67, -53, -29, 22, 40, -55, 24, -26, 29, -33, -53, 34, 22, -3, 30, 59, 37, -65, -35, 21, 23, 54, 58, 43, 51, 52, -10, 25, -54, 42, 3, 25, -2, 54, -4, 66, 35, -73, 47, 53, -28, -28, 68, -56, -7, -42, 76, 55, -55, -75, -21, -10, 40, 73, 5, 32, 35, 69, 18, 8, -15, 27, -23, 66, -73, -44, -41, 30, 57, 69, -69, -54, 68, -41, 65, 0, 11, -71, 71, 35, -78, -9, -5, -44, -23, -4, 49, -42, 49, 35, 34, -25, 26, 67, -33, 68, -77, -74, -20, 28, -40, 26, 13, 26, 15, 52, -51, -18, -59, 10, 63, 53, 2, 61, -50, -47, -57, 35, 12, 14, -64, 0, -53, 74, 35, -61, -37, 58, 69, -34, -55, -6, 22, -37, -66, -61, -3, -27, 14, 29, -52, 52, 86, 73, 1, 32, 20, 6, -50, 53, -47, -24, -73, -31, 37, -20, 0, -28, 25, 25, 25, -80, -30, -61, -57, 27, 72, -48, -3, -77, 35, 30, -42, -50, 2, -60, 0, -16, -33, -10, -8, 30, -45, -75, -38, -55, -56, 38, 67, -13, 8, -1, 76, 56, 43, -36, 25, 35, -62, -74, 23, -66, -7, -57, 45, -56, 24, 63, -33, -13, 7, -24, -55, -56, 57, 12, 63, 13, 48, 62, -53, -68, 13, -18, -31, -30, 24, -25, -41, -69, -8, -76, 70, -18, -49, 15, 58, 81, 41, -4, 20, 55, -31, 68, 75, -3, 33, -58, 47, 35, 64, 20, 35, 45, -33, 0, 1, -12, -46, 35, 63, 18, -6, -27, -8, -74, -18, -43, -30, 11, -14, -60, 20, 83, 25, -15, -52, 10, 20, 65, 67, 34, 17, 4, -71, 21, -25, 2, 76, 69, -32, 57, -16, -42, -17, 55, -22, 23, -44, 48, 31, -47, 80, -54, -47, 53, -24, 17, 16, 58, -2, 48, 23, -30, 5, 70, -38, -57, -57, -65, 7, 40, 61, 1, 63, -49, 65, -29, -53, -60, 16, -2, 13, -10, 59, -37, 80, 55, -61, -29, -43, 48, 16, -23, 10, 12, 46, 8, 30, 57, 62, -68, -13, -61, 86, 77, 43, -17, -39, -37, 11, -2, -48, 70, -40, 39, -30, 8, 10, -2, -57, -9, 13, -25, 73, 40, 24, -6, 27, -7, 10, 12, 58, 12, -60, 87, -19, -73, 43, 33, 40, -5, 53, -30, 14, 11, -18, 10, 12, -33, -54, 57, -50, -55, -59, 61, 6, -65, -29, -30, -61, -53, 11, 66, -19, 28, 56, 86, 3, 63, 43, -59, 49, 28, 21, -57, -21, -19, 6, -61, 47, -17, 45, -1, 97, -62, -6, 68, -74, -25, 21, -34, -48, 10, -38, -21, -41, 78, -20, -19, 23, 42, -35, -33, -7, -61, -48, -73, 74, 3, -59, 39, 17, -24, -34, 13, -14, 5, 21, 4, 52, 36, 32, 61, -69, 22, -28, -27, 55, -69, 14, -40, 76, -51, -41, 22, 30, -38, -24, 8, -75, -35, -11, 54, 37, -19, 0, 66, 24, 74, -62, 50, 67, -44, 51, -50, 9, -69, -42, 50, 94, -31, 50, 7, 4, 46, 67, -49, 8, 59, -70, 72, 38, 1, -25, 58, 8, -71, 30, 20, -75, 63, -53, -50, 60, 15, -52, -4, -62, 68, 28, -1, -48, -60, -45, -50, -22, -1, -2, -43, -2, 21, -59, 13, -70, 68, 29, 64, 42, 78, -75, 35, 30, -71, -51, 5, 43, -5, -25, -50, 15, -68, 45, -50, 57, -41, -65, -60, 1, -43, 55, 2, -3, -33, -41, 41, -33, 15, -45, 14, 15, -46, -54, -55, -10, -48, 69, -42, 51, 71, 6, 69, -37, -39, 28, -67, -37, -22, -78, 17, -45, -43, 2, 59, -20, -79, -65, 75, 13, -6, -28, -24, 78, -24, 25, 64, -52, 
  34, -25, -31, -45, -51, -79, -29, 51, -31, 3, 1, -2, -3, 48, 27, -9, -34, -43, 72, 56, -40, 11, -38, 46, -34, -11, 80, -67, 58, 23, 48, -68, -3, -13, -63, 41, -73, 28, -65, 73, -12, 13, -2, 7, -42, -62, 71, -38, -11, -20, -54, 60, -70, 44, 21, -12, 3, 60, 45, -24, -51, 11, 51, -43, 33, 17, -72, 45, -57, -45, 9, 64, -26, 32, 26, 49, 32, 64, 30, -30, 54, 44, 0, 19, -47, -26, 44, 16, -39, -36, -51, 51, -34, 67, -28, -70, -39, -50, -72, -11, -49, -48, 0, -25, 70, -16, -7, -48, -45, -7, -7, 45, 47, -79, 15, -21, 39, -34, -68, -30, -44, 13, -60, 4, -32, -65, -3, 37, -25, -68, 29, -76, -10, 33, 48, 57, -66, 30, 57, 80, 26, 41, -27, -73, -60, 4, 50, -71, 56, 45, -56, 60, -9, 61, -27, -67, 10, -35, 54, -35, 69, 23, -19, -58, 44, -36, -34, 39, 51, 11, -73, 58, 45, 73, 38, -60, -78, -35, 25, -20, 50, -30, 63, 0, -37, -74, 44, -60, -62, -72, 47, -43, 47, -25, -65, -25, 43, 63, -19, -5, -49, -46, -18, -37, -11, 66, 81, 10, 4, 67, -15, 30, 58, -39, -76, -41, 1, -8, -33, 28, 6, 73, -1, -12, 16, -64, 18, 72, 73, -34, -28, -5, 41, -44, -44, 52, -4, -76, -3, -59, -38, -18, -5, -55, -66, 30, 27, 61, 63, -81, -55, -24, 4, 53, -1, -40, 61, 30, 68, 15, 68, 56, -80, 63, 49, 24, -53, -42, -2, 50, -47, -47, -59, -28, 49, 8, -38, -58, -64, 56, 54, -38, 32, -63, -52, -11, 0, -75, -34, -64, 7, -11, -22, -68, -74, -26, 45, -23, -73, 63, -50, 24, -74, -75, -6, 21, -23, 19, -53, -80, -35, 43, -60, -45, 27, 26, 25, -53, -21, -79, -14, -66, 59, 70, -39, -44, 62, -59, -80, 35, 34, -29, 18, -55, -39, -80, 19, 57, -31, -66, -4, -21, 50, 18, 73, -32, -5, 41, 10, 45, 54, 22, 49, 72, -37, 11, 32, -10, -20, 45, -36, -33, -67, 34, -70, 72, -14, 7, 60, 37, -39, 7, 32, 12, -47, -32, -52, -45, 52, 34, -72, -47, -23, -59, 20, -44, 32, 13, -37, -60, -52, 36, 8, 8, 4, 39, 39, 23, -55, 56, 5, 4, -61, -78, 60, 15, 70, 68, 14, -34, 75, 53, -26, 23, 53, 33, -63, 43, 29, -81, 37, 25, 54, -48, -81, 41, -54, -13, -38, -9, 8, 32, -50, 42, -40, -19, -60, 6, 65, -6, -47, 59, -51, -68, 42, -16, 19, 41, -78, 64, -33, 33, -4, 6, -30, -48, 68, -63, -66, -49, 52, 3, 29, -59, 4, 5, -14, -7, -41, -77, -13, -2, -68, 58, 59, 19, -53, -6, 29, 68, -33, -55, 5, 31, 44, -3, 50, 50, -39, 5, 56, 23, 71, -9, -71, 33, -5, -16, -1, -72, -42, -7, 37, 6, 57, -13, -5, 8, -53, 59, -51, 49, -50, -12, 5, -40, 15, -22, 72, 51, -47, 36, -30, 1, 70, 63, 61, -39, -32, -4, -57, 51, -53, 42, -31, -1, 10, -45, 57, -10, 26, -47, 26, 29, -30, -9, 2, 16, 60, 18, 14, 8, -43, -8, -27, -19, -60, -43, 39, 51, 24, -38, 18, 11, 40, 72, 12, 8, 51, -77, 65, 62, -67, -17, -52, -53, 55, -17, 23, 37, 8, -15, -62, 10, 54, -46, 59, -49, 44, 58, 69, -65, 54, -46, 72, -53, 25, 56, 39, -30, 70, 27, -63, -38, -64, -27, -58, 5, -37, -35, 31, -61, 15, -10, -79, -63, 28, -63, 79, 47, -70, 66, -15, 47, 34, -4, 45, 33, -37, -16, -31, -12, -37, 50, 38, 39, -62, 38, 27, -37, -65, -31, 41, -48, -80, -33, -15, -2, 33, -31, 61, 29, 66, -69, -35, 30, -25, 29, 6, 42, -50, 59, 72, -75, 17, -40, 38, 29, -45, -73, 29, 36, -66, -61, 62, -11, -76, -6, 48, 10, 7, 10, -34, -50, 32, -5, -65, -34, -66, 65, -59, 13, 43, -73, -79, 59, -23, 44, 36, -69, 43, 57, 21, 72, 24, 63, -30, -9, 31, -49, -47, 24, -54, 5, 27, 20, -20, -16, 1, 8, -61, 61, -66, -36, -52, -66, 14, 60, 59, 65, -56, 46, -37, -76, -19, -60, -23, 36, -19, -11, -2, -9, -26, -52, -27, -30, -53, 35, 64, 45, -74, 53, 0, -67, -73, -4, -64, -36, 6, -24, 7, 73, 46, -2, 1, 40, -33, 78, 63, -57, -17, -24, 64, -8, -74, 23, 16, -67, 80, -23, -11, 18, 0, -50, -66, -65, -66, 59, 65, -58, -68, 46, -6, 52, 47, 12, 51, 17, -80, -54, 8, -33, 45, 12, -39, 57, 1, -17, -66, -38, -41, -55, -58, -35, 68, 67, -73, -18, -18, 25, 47, 58, 4, 5, -63, 15, -17, -62, 5, 3, 15, -15, 53, -3, -34, 61, -49, -6, 63, 8, 46, -36, 2, 62, -69, 69, 33, -5, -48, -4, 38, 10, 21, -65, 59, -4, -32, 57, -51, 63, -55, -43, -64, 37, -57, 58, -24, -53, 40, -55, 65, 66, -27, -48, 40, -46, 44, 0, 49, -45, -75, 24, -49, -44, 8, 40, -75, -15, 34, 3, 57, -29, -55, 36, -45, -11, -27, 36, -48, 9, -23, -57, 58, -41, 61, 21, -6, -1, -80, 14, 35, 7, 39, -3, 32, -40, -43, 26, -68, -60, 3, 68, 50, 17, 64, 21, 57, 36, 7, -8, -36, -62, 65, 34, 53, -21, -13, 64, -29, -20, -9, 7, -31, -49, 1, -50, -45, 17, -31, 38, -18, 21, -34, -20, 13, -52, 51, -42, 5, -69, 64, 49, -25, 34, -64, 21, -51, 46, -34, 42, 42, 6, -50, -47, -71, 53, -70, 25, 29, -73, -14, 50, -23, -38, -70, -48, 23, 55, -60, -35, 16, 71, 36, -34, -79, -77, -48, -20, 68, 13, 71, -71, -54, 10, -50, 24, -66, 73, 2, 9, 6, -77, -28, -78, -5, -30, 70, -73, 2, 14, -69, -25, 39, 65, -38, -62, -79, 60, -37, -58, -65, 14, 5, -25, -22, 40, -34, 44, 5, -12, -1, 40, 74, -10, 20, -34, -66, -31, -23, 32, 80, -71, 62, -27, -26, 10, 56, -14, 14, -8, 24, 32, -20, -70, -22, -23, -61, 41, -28, 0, 41, -14, -36, -27, 47, -17, -59, 31, 54, -30, -71, 52, -38, 70, -76, -30, 12, 1, 61, 36, 52, 8, -43, 49, 23, -77, 47, -12, 8, -31, -11, 17, -76, 38, -81, 29, -22, -25, -74, -1, -49, -5, -69, 35, -25, -25, 8, 26, 56, -60, -41, -23, -24, -48, 62, -39, -15, -38, -63, 34, 29, -49, -14, 79, 16, 25, 59, 51, 15, -77, 14, 64, 65, -39, 52, -12, -11, 20, -46, -54, 57, -27, -52, -38, -36, 28, 11, 36, 12, -27, -70, -55, -40, 20, 9, 81, 49, -37, -48, 29, -44, 58, 41, -42, -35, 69, 59, 23, -55, 57, -21, -23, -60, -12, -59, 56, 3, -56, -42, 64, -50, -26, 30, -52, -9, 4, -7, 61, 24, 49, 25, 59, 55, -52, -13, 1, -61, -54, 4, 34, -31, 27, 18, -61, -62, -51, 33, 68, 53, -32, 59, 13, 31, -1, 39, -20, 64, 0, -41, 19, 10, -43, 9, 39, 5, -16, 54, -51, 18, -9, 72, 19, 4, -13, -67, -48, -4, -11, 60, 0, -30, -33, -64, -65, -28, -72, 65, -22, 51, 12, 32, 69, 55, -28, -63, 70, -10, -44, 64, 68, 29, 37, -14, -47, 64, -42, -61, -9, 19, -6, 57, 12, -70, -47, -22, -72, 5, 54, -58, 14, -40, 55, 4, 16, -10, 51, -10, -4, -52, 71, 44, -5, -74, 24, 68, -76, 44, -69, -32, 54, 45, -15, 21, 36, -73, 44, 29, 46, -44, 31, -70, -75, 42, -31, -51, 10, -72, -8, -46, -33, 62, 63, -40, 55, -6, -2, 51, -81, 7, 51, -69, -35, 19, 0, 62, -36, 8, -32, -55, -61, -79, 46, 64, -14, 76, -39, -29, 35, -17, -16, -32, -51, 57, 6, 46, -7, 37, -38, 5, -60, 61, 6, -79, -53, 5, 1, 22, -43, 69, -48, -32, -62, -40, 1, -60, -61, -20, -38, 4, -71, 27, -45, 36, -64, -78, -4, -76, -66, -39, 66, -65, -43, -14, -69, -11, 46, -37, 77, 13, 34, 34, 17, -73, 57, 66, -41, 53, 0, -60, -20, -63, -17, 0, -17, -14, -42, 69, 34, 59, 71, 42, 58, -40, -32, -1, -73, 26, -47, -22, 51, 15, 44, -63, 20, -54, -24, -37, 40, -42, -18, -28, 3, -49, -30, 69, 68, 68, -38, -37, 70, -63, 1, -62, 50, -41, 2, 54, -23, 62, -63, -33, -38, -26, -65, -42, -29, 52, 15, 15, 37, -73, -55, -47, 19, 61, -62, -50, 70, -26, 18, 23, 61, -62, -8, 57, -62, -44, 4, -38, 39, 62, 52, 69, -1, 17, 31, -33, -57, -13, 11, -17, -59, -16, 23, 25, 66, 43, 72, -22, 0, -21, -48, 51, -64, 55, 4, -18, 35, -12, 15, -61, -7, 13, 59, 0, -64, -46, -31, 15, -46, 62, -26, 4, -13, 21, 30, 14, 28, -8, -33, -27, -69, 47, 64, -50, -1, -70, -71, -9, 67, -68, 10, 7, -29, -76, -17, 27, 49, -59, 17, 48, -58, -74, 56, 10, 47, 67, 9, -15, -49, 43, -1, 23, -27, -33, 55, -78, 40, 3, -78, 56, 24, -54, -22, -53, 75, 12, -18, 38, 55, 
  54, -76, 14, 56, 62, 18, 17, 28, -27, 60, -18, 66, -30, 37, -24, -83, -34, -44, -57, 61, 58, -53, -45, -5, -20, 69, -22, 12, -77, -5, 41, 61, 20, -62, -42, -81, -19, 17, 48, -30, -15, 18, 77, 65, 21, 1, 39, -76, -40, 43, -67, -27, -21, 7, -28, -52, -66, 49, 49, -85, -60, -15, 64, -68, 41, 24, 1, -41, -46, 72, -50, 10, -15, 27, -3, 7, -37, 56, -13, 25, 67, -83, 24, -28, 8, -78, 28, 30, 50, -31, -21, -70, 2, -29, -37, -47, -18, -61, -17, 65, -41, 40, -7, -71, -9, -31, -36, -76, 61, -10, -19, -74, 19, 37, 43, -38, 40, -18, -33, 26, -24, 16, -9, -71, 19, 47, -32, -76, -9, -10, 21, -8, -35, 7, -55, 42, -14, -21, 4, -8, -19, 65, 61, 49, 30, 46, -27, -57, 34, 10, 36, -36, 7, 40, 45, 21, -39, 32, -2, -37, -4, -62, -6, -17, -31, -32, -81, 25, -71, -22, 46, -26, -37, 32, -58, 30, -37, -70, -62, -14, -24, 56, -28, -46, -54, 8, 38, 57, 68, 23, -69, -33, 39, 63, -55, 9, 50, 43, -45, 24, -38, -11, -38, 19, -18, 89, -7, -59, -24, -10, -36, -46, -92, -10, 7, 24, 75, -80, -8, 59, -27, 39, 16, 39, 19, -31, -48, -12, -77, 26, 20, -52, -75, 56, 4, 21, 23, 62, 73, 31, 44, 15, -52, -15, 19, -23, -76, 0, -72, 58, -10, 57, -29, 58, 55, -80, -30, 63, -81, 46, -66, 23, 45, -35, -65, -20, 70, 21, 14, -35, 28, -1, -36, -42, 20, -79, -90, 41, -29, -66, -1, 55, 42, -31, 66, 37, -29, -42, 48, -9, 29, 63, -85, 6, -33, 2, 17, 45, -72, 1, -41, -60, 74, -51, 59, 13, -16, 44, 2, -59, -27, 20, 61, 71, -75, -77, 72, 29, -52, 9, 55, 50, -9, -51, -85, -75, -56, -58, 15, -62, 36, -44, -12, 66, 48, 31, 3, 37, 0, 45, 47, -45, 24, 34, 16, -12, 17, -6, -5, 0, 34, -51, 68, 17, -81, -33, -85, -16, -36, -24, 46, 52, 64, -22, -14, 47, -85, 30, -16, 36, 24, -17, 7, -69, -60, -76, 32, 5, -25, -56, 5, -12, -86, -89, 11, -69, 6, -47, -40, -36, 63, -20, 11, -80, 57, -37, 24, -42, 18, -62, -22, 48, -89, 4, 38, -14, 10, -81, -24, 44, 24, 46, 36, -13, -84, 5, 21, 37, 0, -54, -70, -71, 69, -30, -2, -2, -45, 85, -49, -12, -97, 28, -26, -17, -15, -75, -24, -33, -50, 9, -38, 10, -15, -41, 29, 34, -39, -13, -71, 52, -21, -6, -78, -1, -80, -11, 9, -49, -3, -30, 65, 60, 7, 14, -69, 28, 49, -80, 4, 52, -5, -35, -22, -27, 98, 63, -70, 68, -15, 43, -61, 8, -5, -44, -50, -20, -29, -34, -28, -39, 20, 4, 30, -13, 33, 9, -18, 66, -21, -21, 35, 42, 24, 23, -53, 58, -15, -39, 82, -71, -57, 34, 24, -68, 25, 24, 46, -77, -28, -77, -73, -7, -13, 44, -43, 13, 14, -36, -35, -18, 15, 16, 34, -34, 27, -26, -19, -27, 23, 6, 9, 53, -70, 68, -25, 32, -26, -61, -35, 49, 25, -43, 19, 29, 90, 20, -27, 27, -39, 40, 63, 58, -56, -78, -18, -17, 4, 50, 4, 29, -46, -33, -27, -39, -32, -52, 63, 59, -57, 7, -8, 41, 43, 57, 64, 72, -9, 23, 79, -44, 7, 46, 2, 1, 22, 32, 42, 2, -71, 32, 67, 8, -18, -16, -23, 8, -94, 63, -52, -82, 0, -60, -37, 52, 61, 11, -50, -10, 25, -57, 9, -41, 37, 76, 40, -4, 59, -43, 70, 71, 73, 70, -46, 52, 70, 57, 11, 44, -78, -33, 76, 33, -61, 59, -48, 39, 28, -54, -49, -60, 21, 53, 18, 19, 28, 75, 6, -9, 53, -43, -39, -36, 10, 20, 33, -27, 21, 1, -63, -83, 31, 64, -54, 15, 52, -5, 0, 37, 61, -55, -67, 0, -3, -43, 10, -6, -26, -30, 25, 38, 9, 34, -42, 66, -66, 22, -17, -8, 16, 50, 47, 3, -1, -31, 69, -32, -79, 35, 72, -8, 49, 12, -28, -52, -61, -53, 48, 9, 42, 86, -30, -54, -11, -16, 67, -46, -52, 71, -6, 5, -64, -38, 13, 40, -3, 72, -24, 4, 60, -11, 28, 45, 59, 46, -60, 43, 43, 39, 53, -18, -8, 87, 8, -72, 40, 61, -40, -52, -55, 39, 17, 59, -45, 23, -5, -39, -34, -40, -71, -32, -68, -2, -58, -47, 34, 16, 35, 47, 20, -4, 72, -42, -16, -8, 10, -81, 34, 0, 72, -13, -52, 32, -71, -3, -72, 52, 72, -30, 39, -41, 8, 12, -29, -97, -2, 45, -54, -22, 25, -57, -50, -46, 18, -65, -8, -66, 14, 40, -84, 32, 29, -28, -39, -72, 29, -56, 2, 20, 68, 41, -37, -18, 2, -5, -100, -66, -2, 59, -37, -7, 43, -48, 33, 10, 2, 62, 32, -65, 7, -81, -28, -15, 45, 18, -35, 58, 51, 59, 81, 49, 2, 37, 19, 41, 15, 25, -12, -21, -51, 31, -76, 41, 9, 14, 44, -83, 25, -1, -38, 57, -19, -73, -91, -92, 25, 50, 0, 55, -57, 12, -70, 14, -60, 62, -55, 35, 53, -26, -95, 26, -2, 35, 74, -47, 18, -25, 35, 61, 6, 80, -22, -44, -78, -67, -90, -62, -2, -53, -79, -9, 61, 39, -10, -55, -42, -53, 36, -48, 62, -14, -97, 29, 53, 4, -65, 17, -73, -4, 47, -2, -18, 36, -49, 17, -45, -59, -11, 16, -11, 19, 61, -8, 67, -63, -63, -4, 22, 18, 6, 9, 20, -88, 3, -66, 11, -28, 7, 38, -32, 72, -58, -22, 34, -50, 109, -49, -77, 3, 49, 16, -21, -22, 64, -29, 50, 41, 79, 2, -63, 16, 57, -57, 17, -26, -75, 56, -51, 23, 51, -53, -66, 11, 52, -35, -36, -56, -34, 42, -16, -72, -29, 19, -24, 37, -10, -62, 33, 47, -57, 8, -6, -71, 24, -12, 8, 10, -46, -1, -60, -29, 10, -38, 37, 53, -18, 33, 54, -23, 58, -74, 12, 0, -34, 27, -71, -18, 65, 15, 24, -37, 61, -25, -47, 1, -57, -35, 0, 37, -19, 31, 16, -53, -53, 22, 42, 36, -56, 76, -71, 32, 54, -99, 64, -37, 23, -71, -76, -16, 40, -72, 14, -43, -4, -19, -34, -58, -18, -1, 51, -75, -24, -55, -63, 51, -9, -39, -34, -4, 45, -45, 64, -79, 79, -36, -70, -59, -44, -57, 67, -3, -19, 40, -65, -10, -2, -10, 13, 56, 81, -14, 52, -63, -7, -42, -59, 20, 34, 6, 10, -12, -26, 40, -28, -71, -45, -94, 27, -18, 53, 58, -57, -54, 43, -22, -76, -51, 2, -14, -31, 28, 22, -79, 6, -10, 69, 47, 26, 40, 4, 36, 28, 67, -58, 62, 28, 38, 80, -23, 33, 53, 42, -88, 43, 34, -7, 10, 33, -50, -48, 73, -62, 9, -3, -57, 59, -16, 16, -60, -37, 25, 53, 19, 71, 47, -31, 69, 47, -52, 22, 15, -18, -21, 30, 48, -39, 67, -7, 26, 67, 0, 58, 47, -74, -59, 59, -51, 22, 35, 18, -44, -7, 46, 49, -68, 66, -19, -55, -16, 71, -31, 30, -30, 40, -58, 61, 17, 18, -31, 46, 74, -63, -34, 27, -10, -36, -91, -43, 24, -39, -58, 23, 62, -10, -11, 64, -33, -52, 69, 58, -63, -85, -64, 44, -20, -22, -56, 24, -63, -34, 23, 42, 62, -6, -63, 42, 12, -3, 19, 44, -34, 67, 55, 11, 5, -60, -49, 9, 37, -71, 7, 19, -78, -16, 63, 57, -25, -33, 12, -65, 3, -72, -71, -19, 31, -74, 56, 43, -54, -78, 22, -40, -49, 25, 61, -3, -46, 3, -16, -18, -4, -13, 55, 3, 41, -76, -18, 9, -44, -43, 68, 62, 16, 23, -62, -50, -47, 57, -57, -1, -56, -10, -77, -60, -10, 77, 55, -50, -61, -44, 50, 34, 21, 7, 27, 77, -61, -62, -82, -42, -17, -24, 23, 3, 9, -28, -3, -6, -58, 41, -42, 82, -82, -76, 33, -54, 1, 14, 5, -31, -54, -25, 4, 21, -49, -62, 38, 71, -45, -83, 59, -2, -72, -33, 7, 60, -27, -19, -7, -4, -10, -39, -46, -19, 6, 14, -14, 48, -12, -9, -78, 66, -21, -41, -63, -63, 55, 75, -11, 6, 10, -19, 36, 42, -35, -54, 24, 12, -79, -25, -5, -19, -33, 73, 28, 37, -11, -42, -77, -19, -84, 1, -76, -32, -12, 37, -65, -5, 28, -61, -31, -62, -2, 27, -66, 67, -4, -72, -76, -15, -77, 34, 12, -34, -14, 16, 69, -41, 58, -2, -51, 74, -89, 16, 71, -39, -7, 21, -15, -64, -53, 22, -72, -4, 42, -84, -95, 56, -35, -51, -11, 84, 68, -68, 0, -13, 59, -48, -20, -23, 17, -63, -93, -78, -32, -23, 10, -3, -35, 31, 22, -24, -64, 5, -42, -7, -50, -58, -101, 19, -97, 69, -67, 80, 44, -49, 40, -37, 48, -42, -7, 70, -53, -84, 42, 49, -96, -40, -32, 32, -6, 14, 23, 40, -60, -33, 17, 74, -15, -26, -33, -46, 20, 36, 71, -63, -7, -59, -49, 70, 47, -58, 39, 46, -69, 62, 23, 11, -12, -22, 44, 32, 13, -54, -35, 62, -24, -10, 2, 52, -87, -63, 28, -14, 43, -21, -28, -20, 23, 53, 33, 42, -64, 26, -20, -20, -10, 2, -58, 13, -35, 
  40, 73, 46, -31, -68, 50, -9, -47, -8, -14, 17, 51, 51, -39, -4, -6, 35, -34, 78, -2, 65, 54, 68, 29, 47, 47, 67, -2, 71, -78, 28, -47, -11, -5, -61, -42, -71, 67, -51, 5, -38, -42, -58, -25, -59, 11, -34, 15, -39, 21, -66, -97, 72, -46, 39, 34, 12, 34, 3, -26, 58, -30, 69, -7, 7, -74, 68, 37, 44, -36, -33, -25, 14, -64, -13, -66, -48, -47, -40, 87, -35, -40, -59, -45, 61, 19, -4, 25, 45, 40, 10, -70, -63, -30, 67, 16, 66, 22, 33, -60, -54, -44, -36, 32, 8, 53, -10, 12, 27, -20, -22, 70, 14, 37, 57, 54, 24, -45, 63, -22, 51, 59, 13, -20, 47, -83, 27, 93, -72, 58, -70, 43, -78, -19, -54, -4, -56, 66, 27, 71, 71, -17, 64, -25, -61, 13, 29, -66, -72, -42, 67, 41, -42, -54, -31, 51, -70, -83, 57, 2, 41, 9, 9, -79, -24, -68, -66, 21, 15, 14, 69, -3, 17, 48, 79, -18, 59, -22, -82, 15, -72, -23, -56, -27, -3, 31, -54, -17, -64, 29, 51, 47, 1, 45, -68, 23, -13, -29, -70, 58, 51, 24, -23, -5, 24, -32, 16, -56, 62, 34, 66, -63, -55, -27, 61, 19, 66, -75, -70, 59, 58, 30, 12, -17, -39, -66, -56, -90, 48, -47, 27, -8, -39, -49, 30, 1, -18, -13, 38, 58, -7, 5, 64, -25, 55, -48, 4, 33, 61, 27, 28, -36, 64, 65, -43, 40, -67, 35, 59, 18, 33, 65, -13, -34, 47, 19, -32, -40, -77, -21, 78, 12, 8, 25, 44, 4, -56, 49, -72, -18, -49, 55, -21, -44, 74, 43, 17, -3, -60, -70, 30, -11, 74, 72, 5, 45, 30, -28, -56, 86, 23, -4, 22, -5, -40, -34, -80, 20, -33, -49, -40, -57, 25, 32, -47, -1, -69, -67, -28, -70, 60, -21, 58, -13, -6, 25, -61, 10, 15, -70, 34, 1, 36, 11, -69, -10, 34, -4, -77, -50, 71, -23, -55, -43, 30, 14, -29, 42, -7, 21, 39, 68, 25, -6, 47, 8, -71, -49, -46, -75, 53, 14, -37, 20, 15, 32, 86, -24, -11, 66, -83, -25, -6, 16, -31, 68, 43, 48, -55, -91, 33, -73, 99, -31, 56, -63, 53, -29, 58, -35, 33, -78, 60, -45, -20, -36, 43, -78, 35, 75, -36, 82, -27, -43, -72, 14, 66, -71, 61, -56, 19, -62, -60, 62, 32, -38, -65, -56, 17, -22, 31, 5, -35, 76, 15, 70, -55, 10, 11, 27, 90, -46, 37, -61, 54, 17, 60, -17, -65, 62, 61, -60, -16, -21, -21, -11, 29, 59, -30, 70, -86, -35, 18, -1, -26, -19, 55, 54, -17, -34, -58, -86, 30, -24, -37, -60, 43, -37, 22, -60, -27, 24, -47, -14, 55, -73, -79, -57, 9, 50, 33, 2, 9, 32, -59, 10, -8, -19, -72, 31, 3, -70, -70, 67, 9, -72, -4, 41, -13, -19, -42, -37, -62, 11, -11, 49, 66, -110, -41, 26, 67, 46, -53, -23, 55, 35, -9, -51, -25, 57, 18, 30, 4, -38, 49, -62, 23, 3, 18, 84, 22, 23, -2, -4, -43, 54, 60, -77, -19, -84, -76, -41, 10, 2, 4, -4, -84, 14, 40, 74, 24, -60, 4, -14, -24, -67, -8, -59, -70, -8, -23, -51, -78, -70, 34, 55, -62, 43, 42, 72, -31, 18, -9, 65, 38, -3, -13, -55, -16, -41, 75, 76, -64, -46, 63, -58, -28, -59, -52, -30, -11, -92, -51, -16, -81, 6, 75, -68, 60, -5, 76, 21, 31, 3, -12, 32, 13, -46, 48, 62, 23, -60, 40, 60, 74, 65, -67, -63, 7, 10, -35, -21, 34, -67, -37, 0, 50, -14, -80, -15, -20, -37, 44, -6, -6, -20, 17, 71, -9, -31, 52, -19, -35, -29, 41, 76, 73, 65, -25, 20, 7, -31, 53, -21, 93, -30, -29, 87, 47, -25, 39, -7, -11, 74, 2, 64, -43, 43, -54, 61, -11, -21, -33, 70, -58, -33, 46, 4, 29, -74, -69, 16, 4, 3, -63, 2, -47, -88, 53, -63, -44, 64, -11, 71, -24, 69, -69, 13, 44, -77, -78, -60, -36, -62, 37, 80, 52, 39, -78, -22, -28, -67, -37, -13, 11, 17, -34, 75, 63, 53, 42, -52, -63, 60, -52, 76, 12, 68, -73, -46, 18, 36, 54, -52, 42, 57, -4, -52, -76, 25, -18, -49, 41, -62, -73, 55, 19, -77, -36, 77, 80, -30, 21, 0, -22, 36, 37, -15, 42, -60, 24, -52, -18, 41, -35, -68, 61, -66, -3, 28, 35, 76, -61, 44, -42, -16, -55, 4, -7, -23, -79, -42, -41, -82, 11, 19, 75, -68, -6, -34, -62, -28, 79, -50, -31, -27, -76, -37, -4, 38, 27, 9, -25, -63, 31, -58, -25, 7, -65, 49, -10, -75, -2, -58, -18, 55, 31, -72, -19, -65, 43, -23, -72, -55, -22, 27, 81, -49, -79, -35, 8, -41, -12, -67, -42, -56, 75, -41, -62, 9, 76, -38, 17, 0, 31, 28, -72, -4, 39, -15, -32, 57, 17, -17, 59, 67, 21, -59, -19, 17, -17, 62, 4, 41, 3, -50, -32, -7, 52, 59, -57, 5, 8, -38, 6, 25, -37, -37, -4, -15, -2, -67, -51, 51, 11, -25, -72, 20, -35, -67, -19, -43, -45, 28, -29, 64, -26, 3, -7, -77, 1, 28, 48, -42, -49, -64, 70, 36, -51, -16, -2, 1, 12, 63, 9, -41, 22, 75, 57, 56, 55, 62, -43, -22, 29, -74, 63, 55, -27, -15, -35, 55, 2, 13, 5, 0, 41, -42, 81, -102, 25, 20, -35, 8, 30, 20, 36, -18, -1, 68, 22, -1, 19, -69, 77, -38, 45, -64, 11, 23, 61, -29, 31, 43, -13, -21, -3, 0, -33, -68, -67, -97, 54, -83, -81, 68, -30, 18, 34, 72, -63, -64, -43, 15, 18, 21, -26, 22, -76, -32, -3, 23, 29, 74, -19, 25, -53, 72, 46, 56, -43, -62, -16, -74, 46, 43, 33, 81, -75, 58, -44, 73, -70, -37, -52, 28, 71, -38, -69, 38, 40, 0, -36, 56, -23, 66, 77, -30, -70, 11, -8, -25, 66, 52, -20, -84, -23, 73, -40, 64, 67, 27, 35, 24, -60, -28, 21, 71, -46, 28, 58, 25, 33, -6, 15, 36, -24, -49, 65, 14, -44, -27, -2, 70, 33, 74, 68, -42, -7, 80, 54, -51, 11, -47, 33, -3, 9, 79, 35, 58, -68, 33, 33, -83, 22, 57, 46, -30, -56, 55, -28, 48, 32, 75, -47, 51, 73, 39, 26, 4, -13, 19, 1, 10, -18, -57, 60, -28, -51, 79, 22, -17, 8, 2, 37, -41, -68, -48, -47, 65, 70, -2, 25, 2, 32, 22, 22, 59, -19, 63, -36, -114, -16, 24, -59, 74, -7, 33, -54, -22, -36, -8, -58, -32, -55, -77, 61, -34, 38, -36, 51, -12, 4, 52, 64, 60, -10, -74, -65, -64, 28, -38, -57, -42, -34, 62, -75, -75, 54, -75, 23, 72, 15, -71, -38, -69, 45, -16, 21, 27, 40, -35, -25, 1, 63, 36, -43, -39, 14, 51, 12, -61, 56, 48, 23, -49, -25, 4, 67, -33, -20, -48, 13, 48, -4, -42, -14, 0, 20, 70, -70, -3, -24, 28, 36, 42, 79, -2, 42, 8, 2, -16, 32, 56, -45, -67, -39, -62, -71, 86, -29, 46, -64, -21, -21, 40, 25, 54, -17, 23, -1, -63, 50, -1, -63, 78, 17, 12, -41, -40, 0, 26, 51, 6, 66, 37, -44, -78, -5, 30, -2, -26, -6, 50, 59, 37, 38, -69, -71, 19, 14, -52, 18, -28, 68, 9, 58, 35, -53, 55, -24, 4, -43, 1, 69, -54, -34, 4, -76, -53, -18, 28, -24, 80, -17, -53, -32, 24, -2, -55, -57, 77, -55, 14, -32, 26, -19, 15, -51, 3, 21, -42, 15, -59, 56, 58, 5, 36, 19, 43, 36, 48, -19, 34, -66, -3, -16, 7, -39, 55, -37, 14, 63, -61, 5, -60, -29, -22, 56, 53, -66, 37, 60, -61, -69, 30, 68, 35, 56, -68, 13, -10, 42, -3, -10, -26, 75, -14, 61, -35, 20, -52, -51, -11, 39, 70, 16, 63, -65, 67, -72, -21, 43, -26, -50, -71, -76, -14, -5, -59, 82, -39, 29, 56, 48, -54, -56, -68, -13, 45, -33, -67, 12, -36, -23, 30, -64, 69, 73, 10, -36, 15, 38, -22, -73, 74, -73, -51, -57, 48, -12, 20, -68, 19, -67, -5, 59, 41, 47, -22, -15, -5, -12, 38, -35, 60, -47, -5, -72, -17, 64, -69, -14, 48, -47, -38, 81, 39, -47, -14, 0, -35, 28, 42, 74, -20, 47, -66, 27, 72, -24, -17, -29, 40, -55, 67, 20, -37, -49, -28, 57, 5, 54, -24, -45, 41, 35, 33, -26, -71, 59, -8, 46, 8, 52, -46, -36, 75, -26, -55, -35, -29, 37, 2, -39, 33, 41, -20, -44, -8, 67, 47, -54, -45, 36, -56, 46, -28, 82, 0, 38, -31, 49, 58, 46, -27, -17, -15, 10, 50, 73, 40, 69, -37, -53, 15, 66, 17, -88, -48, 42, -26, -30, 11, -6, 42, -27, -47, 74, 50, 34, -55, 11, -57, -20, -19, -28, -61, -27, 55, 40, 14, 75, 25, -40, 34, 68, -63, 17, 74, -62, -6, -25, -39, -26, 57, -24, -6, -18, -14, 32, -18, 49, 24, -51, 0, -62, -12, 22, -7, -74, -5, 37, -42, -71, 45, -66, -29, 60, 48, -32, 45, 45, -12, -39, -51, -25, -4, -32, -72, 14, -80, 76, 44, -32, -77, -56, -41, -25, -88, 
  -69, 32, -66, 10, -41, 43, -71, -1, -41, -77, -72, -69, -87, -16, -52, 36, -5, 45, 56, -26, -9, 46, 14, 71, 77, 52, -2, 5, -13, 40, -36, -44, -57, 3, 56, 46, 57, 55, -13, 11, 16, 33, -47, 1, -43, -70, 48, 11, 67, -58, 37, 98, -70, -76, -47, 14, 40, 9, -77, 8, -82, -32, -60, 38, 1, -12, -70, 2, -49, 29, -50, 51, 64, 2, -21, -76, 59, -10, -78, 32, 37, 63, -64, -26, -51, 56, -54, -41, 35, 15, 54, 15, -32, 4, 6, 50, 1, -72, -55, -17, 49, -62, -67, -27, 11, -3, -84, -56, 18, 42, 31, -60, -27, -36, 69, 71, 62, 40, 50, 38, 65, -75, -43, 42, -56, 50, 48, -43, -31, 34, -34, -18, -26, -24, -66, 35, 68, -1, 8, -108, 46, -35, 21, -21, 9, 25, 73, 20, -69, -10, -77, -70, -38, -59, 63, -98, -73, 56, -78, -32, -11, -77, 35, 62, 9, -79, -31, -39, -3, -46, 14, 21, 41, -5, -87, -63, 15, -54, 61, 17, -69, -4, 40, 57, 37, -53, 75, 16, -26, 19, -15, -57, -38, 69, 19, -43, -27, -27, -75, -13, 41, 20, -46, -58, 22, 69, 31, -74, 66, 3, 9, 15, 10, 60, 16, -19, 45, 68, 54, -25, 9, 48, -92, -89, -46, -45, 3, -2, 4, 26, -63, -9, -17, 18, -31, -33, 65, -49, -44, -81, -24, 17, 46, -28, 36, 19, -19, -17, 26, 77, -18, 3, -10, -13, 21, -87, -46, 69, 77, -28, 70, 70, 43, -38, 65, -29, 1, 32, -18, 33, -42, -37, 76, 51, 30, -33, 26, 23, 64, 62, -70, 3, 1, -28, 15, -35, -69, 75, -3, -2, 26, -6, 6, 37, -26, -67, -50, -56, -35, -90, 69, -58, 36, -49, 32, -3, -48, -47, -13, 28, -3, 25, 37, 50, 2, -51, -3, -28, -55, -24, -32, -14, -22, 33, 42, 2, 19, 5, 44, 36, -33, -53, 9, -26, 26, 75, -31, -17, 31, 40, 32, -50, -23, 22, -35, 31, 39, -36, -52, -50, -15, -35, 76, -48, 31, -5, -30, 49, 20, 38, 23, -7, 18, -53, 29, -19, 55, 71, 57, -61, -28, -54, -34, -69, -6, 30, 0, -46, 62, 65, 36, -27, -95, 25, 61, 7, -29, 66, -21, -33, 23, 30, -61, 18, 36, -25, -27, -26, -61, 109, -70, 37, 68, 27, -62, 9, 31, 40, 39, 5, -22, -54, 50, 0, 13, 27, 69, -71, -37, 75, -18, -71, -56, -73, 35, 24, -11, -27, 24, -4, -15, 10, -42, -71, 0, -40, 63, 77, 54, 60, 46, -46, -36, 66, -40, -5, 5, 94, -19, -23, -26, 64, 52, 29, 49, 56, 43, 42, -11, 43, -72, -31, -1, 9, 44, 55, -47, 5, -70, -75, 42, -41, -40, -62, 17, 25, 60, -14, 4, -36, -47, 19, 49, -60, -43, -56, -21, -6, -69, 5, 57, 68, -53, 19, -89, 72, 81, 2, 72, 69, -50, -56, -54, -7, -35, -15, -8, 59, -49, -20, -38, 15, -70, 5, -29, 34, 39, -33, 10, 22, -32, -25, 9, 15, 59, 81, -30, 51, -39, 55, -63, 49, -23, 36, -65, -10, 64, 37, -19, 78, -64, 28, -4, 17, 29, -56, 49, -38, 43, 1, -21, 77, 8, -40, 68, 62, 55, -53, 44, 80, 16, -41, 5, -15, 10, 31, 9, -5, -8, 61, -49, -10, -43, -64, -77, -55, -73, 63, 18, 31, 75, -45, -68, -51, -25, -60, -68, 38, -31, -64, -69, 94, 19, -22, -35, -55, 41, -15, 16, 11, -4, 61, 17, 55, -4, 38, -34, 4, 35, -46, -44, -53, 62, 46, 3, -42, -34, 12, -47, -9, 40, -32, 3, -4, -12, -9, -52, -48, -69, 2, -21, 13, -40, -28, -70, 89, 12, 78, -2, 61, -30, 35, 79, -3, -2, -78, -46, 7, -2, -13, -6, 103, 20, -42, -44, 11, 75, -71, 31, 51, 6, 10, 30, -24, 57, 76, 13, 81, -43, 48, -83, -56, 30, -33, -45, 22, -50, 23, 11, 76, 70, -13, 11, 83, -76, 58, -25, 11, 19, -57, -54, 21, 9, 55, 51, 21, 11, 72, 1, 54, 45, -4, -44, 76, -54, 41, 31, -18, 41, -2, 74, 71, 16, -17, -47, 62, 76, 45, 27, 69, 33, 60, -24, -18, 71, -64, -19, 59, 78, 3, -29, 70, 75, -43, 19, 84, 1, 23, 74, 6, -5, -74, 69, 1, -16, 49, 67, -44, 76, 49, -23, -54, 42, -35, 48, 43, 15, -57, -59, -5, 64, -29, 82, -5, 46, -42, -48, 37, 49, 70, 11, 22, -29, 58, -54, -54, 57, 74, 11, 0, 66, 82, -63, -26, -18, -29, 58, -68, -65, -67, 59, 44, -20, 78, -21, -26, 68, 51, -18, -70, -63, -68, -39, -3, -31, 2, -35, 54, -56, 12, -27, -37, 22, 22, -6, 15, 14, 1, 0, -47, 30, -8, -74, 61, 66, -26, -44, 54, 28, 3, -8, -17, -65, -17, 2, -45, 1, 17, -66, 1, -36, 9, -10, -11, -49, 45, 74, -6, 4, -18, -46, 67, 1, 66, -65, -48, -48, 36, -55, 28, 48, 92, 53, 14, 50, 33, -52, 33, 59, 14, -68, 2, -26, -64, -50, 78, 15, -57, -35, 11, -67, 34, 24, 42, -24, -66, 49, 64, -59, -75, 19, 85, 69, -35, -21, -47, -2, 2, 10, -35, -34, -41, -7, 57, 74, -63, 47, 3, 50, 67, -45, -41, 61, 66, 43, -49, -49, 43, 9, -9, -8, 65, -46, -24, 50, -22, -61, 16, 32, 36, -6, 16, 55, -10, -30, -6, 8, 26, -44, 34, 77, 25, -6, -93, 32, -2, -31, 62, 51, -72, -4, -10, -35, 1, 6, 49, -70, -22, 63, -94, 11, 50, -22, 51, 50, 43, 73, -69, 35, 27, -10, 45, -73, 38, 74, 20, 41, -36, 62, -32, -23, -56, 6, -44, -30, 10, -48, 41, 39, 96, 45, -4, 1, 7, -47, 9, -55, 45, 39, 72, 57, 54, -35, -22, -50, -44, 14, -55, -44, -52, -28, -14, -7, -44, 7, 40, -25, 30, -59, 16, 11, -39, 9, -54, 48, -13, 7, -20, 50, -79, -37, -21, 51, 25, 13, 34, -31, 26, 48, -77, 53, 29, 50, 69, -65, -10, 67, 34, 56, -45, -14, -24, 34, -46, -48, -82, -8, 37, -73, -25, 45, -53, -21, -71, 65, -6, 11, 96, 44, 30, -10, 35, 20, 68, -30, -14, 43, 7, -42, 57, 58, 60, 0, 61, 51, 6, -13, 62, 24, 71, -74, -59, -38, 22, 0, -56, 40, 3, -68, -16, 53, 56, -8, 56, -43, -18, 0, 19, -56, -79, -54, -66, -27, -57, -58, 25, 30, -39, 33, -63, 65, 52, 28, -32, 37, -70, 61, -23, -30, -19, -46, -6, 46, 51, 64, 20, -64, -81, 52, -80, 20, -40, 46, 28, 80, -6, 4, -6, -10, -56, 0, 31, -6, -44, -67, -46, 65, 61, 36, 19, -35, 3, -22, 64, 13, 27, 22, -63, 75, 15, -20, 55, -11, 67, -3, 15, 76, 50, 42, 77, 51, 13, 96, 24, 9, -38, 61, 41, 35, 51, -52, 38, 75, 52, 32, -22, -12, -51, -18, -76, -37, -37, 15, -8, 78, -29, 9, -29, 44, -64, 55, 104, -24, 9, 65, 47, -38, 4, -38, -18, -36, -34, 25, -53, -6, -71, 41, 3, 27, -47, 10, -2, -45, -16, 31, -52, 4, 20, -8, -75, -11, -71, 14, 22, 34, 18, 19, 76, -36, -20, -60, -1, -66, -31, 8, -10, -42, -4, 8, 61, 34, -9, -4, 44, 72, -42, 14, -33, -48, 59, 13, -43, 7, -67, 49, 84, 52, -97, 85, 20, -66, 36, 6, 72, 13, 57, 66, -20, -36, -74, 15, 88, -82, 25, -9, 71, -43, 13, -73, -55, 64, -41, -74, 46, 36, -16, 41, 18, 17, -13, 35, -41, 80, -58, 80, 51, -14, -17, 32, -16, -16, -5, -3, 11, -46, -89, 107, -70, 63, -17, -40, 75, 17, -29, 44, -71, 15, 70, -13, 65, 49, 10, -19, 81, 27, -63, -55, -3, 44, -55, -21, -48, -67, 36, -38, 79, -38, 34, -35, -35, 31, -23, -22, -1, -12, 61, 13, 64, -57, -37, 71, 23, 20, 40, -11, -1, -75, -15, 22, -33, -83, -68, -51, 34, -6, -6, 72, -37, -78, -46, 66, -29, 46, 14, -21, -2, 69, -2, -59, 15, 70, -16, 64, 67, 50, -72, 65, 56, -80, 77, -71, 70, 9, -6, 32, 4, 1, 61, -68, -53, -35, 9, 16, -45, -24, 70, -35, 16, 70, -72, 66, -17, -45, 54, 47, 19, -52, -7, 52, 71, 50, 64, 53, -71, -66, -19, -12, -7, 62, -8, 51, -47, -2, 45, 8, 3, 58, -20, -3, 70, -20, -41, 75, -69, 54, -44, -25, 55, -8, -8, -21, -39, 52, -61, -26, -21, -4, 37, 22, 26, 57, 30, -44, 77, -72, 28, 89, -28, 53, -63, 57, -25, 3, 24, -23, -77, -73, 27, 7, 46, 49, -77, 68, 36, -52, 8, 34, -11, 6, -13, 61, -6, 60, 0, 31, -16, 44, -63, 76, 81, -33, 66, 61, -44, 5, -74, -29, -18, 60, 40, 52, -59, 26, 25, 3, 51, -3, -16, 13, 26, -21, -47, 32, 28, -64, 73, -23, -64, -7, 14, 50, -14, -45, -46, 58, -10, 73, -53, 26, 7, -56, -47, 46, 21, 46, -71, 101, 41, 54, 36, -40, -57, -4, 43, -16, 74, -10, 57, -64, 19, -77, -58, -43, 26, 59, -65, 35, 84, 63, -77, 42, -78, 34, -18, 59, -77, 52, -62, 87, -51, 
  60, 8, 42, -61, -54, -31, 44, 12, 0, 27, -65, 23, 6, -40, 53, -38, 10, 2, 35, 47, -55, 36, -71, 60, 66, -13, -45, -23, 41, 71, -55, -53, -55, -11, 88, 92, -13, -60, -61, 21, 30, -9, -6, -20, -37, 72, 22, -69, 54, 35, -19, -22, -6, -5, 54, 68, -52, -32, 5, -4, 8, 43, 56, 52, 29, -64, -64, 58, 44, 21, 59, 9, -18, -30, -15, 76, 12, -33, 41, 74, -22, -60, 25, -22, -23, 52, -27, 20, -27, -38, -14, 82, 29, -27, -14, 2, -44, 22, -65, 53, 74, 48, 35, 32, 38, -35, -9, -66, 49, 16, -26, -1, 37, 37, -68, 28, -12, 67, -29, -44, -29, -63, -57, -58, 54, 46, -59, 13, 46, -60, 53, -6, -44, -70, 23, 24, -8, -68, 60, 32, -43, -48, -29, 18, -8, -74, -5, -2, 46, -29, -3, 41, 38, 68, -52, -60, -41, 16, 3, -4, 77, -63, 59, 59, 5, 10, 18, -46, -1, 9, 37, -41, -45, -62, 81, 58, 38, 0, 28, 98, 35, -65, 32, -61, -9, 49, -81, 21, 68, 13, -28, -80, 54, -68, 9, 55, -9, -37, -74, -12, 26, 61, 13, -67, -32, 46, 43, 35, 29, -15, 5, -32, 61, 32, 17, -45, -48, 74, 6, -50, -16, 0, 1, -64, -11, 22, 69, 21, -31, 63, -26, -55, -1, 49, -85, 17, 18, -44, 36, 9, -19, 41, -38, -7, 53, 2, -49, 38, -37, 80, 13, -43, -81, 79, 7, 60, 6, 1, -20, 6, -67, -45, 0, 48, 46, 34, -38, 10, -56, -36, 86, 64, -63, 6, 52, 17, 9, 40, 61, -7, 9, 48, -36, 25, 13, -42, 19, 73, 60, 28, -53, 5, -31, -62, -68, 58, 43, 78, 17, 34, -42, 66, 15, 57, -29, 33, 55, -34, 10, 28, 55, -35, -29, 17, 15, -11, -51, 32, 24, 11, 19, 42, -22, 49, 49, 45, -61, 4, -53, 59, -96, 39, -73, -52, -4, 48, -48, -40, 45, 79, -20, -21, -54, -72, 15, 5, 24, 75, 48, 62, 1, 59, 0, -74, 79, 19, -30, 25, 3, 12, 39, -36, -101, 74, -55, -28, -35, -32, -65, -68, 8, -13, 2, 20, 13, 44, 19, -59, -48, 49, 28, -68, 61, 77, 49, -37, -43, -9, -27, 83, 4, 50, -76, 14, -66, 64, -16, 15, 28, 44, -1, -49, 12, -43, -17, -53, 1, 34, -31, -50, -82, -51, -70, -75, 63, -2, 65, 19, 74, -70, 36, 60, -77, -40, -9, 66, -50, 26, 52, -32, 32, 6, 65, -28, 48, -28, -23, 73, -5, 18, 39, 4, -99, 43, 63, 51, 46, 53, 66, 47, -5, 85, -49, 79, -52, -24, 37, -67, 0, 22, 8, 21, -14, 65, -14, -72, 52, -51, -41, -62, 20, -3, 76, -40, 44, 34, 31, -79, 9, 74, 26, 46, -40, 39, -40, 48, 40, 36, -55, -1, 39, 72, -65, 39, -40, -61, 49, 51, 1, -48, 2, 40, -72, 71, 29, -32, -41, -50, 14, -49, 44, -81, -23, 10, 8, -21, -47, 34, 31, 35, -53, -65, 46, 10, -19, -34, 20, -37, 8, 60, 33, 14, 42, -50, 43, 1, -36, 69, 10, -81, -55, -8, 66, 44, 4, -49, -4, -36, 39, 35, -23, -61, 26, 16, -8, -40, -10, 52, 1, -99, 2, -49, -7, -63, -22, -24, 8, 34, 69, 58, -53, -24, -45, -69, 29, -10, -47, 13, -94, 17, 67, 50, -9, 14, 53, 43, 51, 8, 30, -72, 10, -81, -21, -19, 46, 36, -45, 72, -61, 8, 27, 13, -98, 31, 47, -66, -19, -74, 74, 37, 11, 43, -59, 50, 48, -48, -6, 38, -18, 23, -50, 56, -33, -41, -45, 10, -1, 50, -34, 26, 42, -31, -23, -40, -97, -2, 58, 56, 29, 0, -12, -81, -54, 31, 57, 5, 52, -72, 27, -50, -55, 20, 55, 5, 45, 23, -66, 62, 42, 58, -59, -12, -12, 6, -16, -5, 8, -38, 20, 16, -114, -77, -44, -34, -36, -51, 67, -71, -19, -16, -6, 49, 9, -85, -54, 50, -68, 5, 14, 14, 47, 58, -21, 38, -15, 77, -19, -15, -1, -77, -41, -63, 11, -53, 54, 33, -36, -37, -34, 65, -61, -55, -42, 3, -61, 66, -49, -19, -7, -65, 42, 24, 4, -13, -31, 52, 44, -50, -19, 39, -34, -55, -15, 45, -26, -30, -27, -34, 21, -55, -82, 12, 28, 28, 23, -57, -1, -8, -57, 42, -51, 6, 55, -44, -22, -60, 40, -46, 17, 41, 57, -41, 1, -41, -74, -47, -7, -62, 20, 34, -43, -24, 51, 66, 28, -16, -13, 7, -5, 7, -79, 40, 31, -31, -8, 86, -15, 43, 41, -49, -15, -68, 1, -22, 36, -57, 58, 45, -63, -44, 39, 50, 57, 14, -31, 67, -31, -40, 15, -44, 17, -38, -79, 23, -2, -36, 30, -44, -78, 56, 44, 17, 37, -12, 3, -72, -24, 70, 57, -30, -47, -10, -40, 90, 22, 37, -71, 73, 69, -34, 46, -41, 0, -68, 0, 40, 68, -23, -36, 93, -45, 21, -60, -44, 2, 65, -40, 16, 2, -23, -22, 33, -61, -51, 65, -2, 23, -1, 7, 33, 23, 55, 8, -24, -94, 51, -33, 8, 30, 38, -58, -54, 35, -35, 2, -28, 3, -63, -67, 64, 50, -61, -70, -75, 70, 22, -2, 44, -67, -12, 12, -72, -49, 11, -72, 27, 9, -27, -1, 37, 43, -11, 72, 13, -66, -8, -68, -65, 9, -49, -36, 10, -79, -35, -22, 62, 24, 32, -2, -55, 39, 10, -72, 72, -70, 54, -35, 39, 42, 55, -31, 19, -38, 42, 80, -49, -80, -19, -33, 25, -4, 76, -12, -10, -83, 12, 15, 16, 16, -49, -7, 6, -13, 26, -24, 54, -16, 53, 46, -42, 29, -71, -28, 16, -49, 49, -58, 26, -35, 41, -75, -64, -66, -78, -14, 23, 47, 33, -19, -15, -32, 73, 77, -4, -59, -47, -69, 24, -13, -22, -4, 2, 14, 13, 56, -27, -85, 26, -62, 27, -16, -48, 12, -4, -56, -54, -63, 8, -13, 56, 58, 76, -36, 12, 18, -50, -10, -11, 43, -56, 48, 19, -2, -40, -86, -21, -3, -25, -1, 31, -9, 78, -70, -10, -1, -16, 50, -5, -60, 9, -83, 57, 32, 46, -42, -1, 7, -51, -36, 51, 51, -6, -75, -3, 3, -29, 10, -57, -14, 79, 24, -65, -43, 1, 18, -63, -83, -23, -21, 59, -1, 46, 38, -45, 68, 63, -103, -40, 2, 63, -9, -51, 31, 21, 61, 34, -28, -44, -50, -66, -28, 90, -19, 4, 25, -60, -18, -55, -58, 35, -47, 0, -70, 77, -64, -42, 8, 3, -89, -57, 87, 74, 48, 42, -30, 8, -50, 39, 51, 42, -40, -13, -40, 107, 22, -12, -29, -40, 20, 80, -76, 62, 8, -74, 60, -45, -44, -46, -22, -7, -97, -33, -41, 15, 49, -25, 33, -55, 0, 12, 67, 45, -82, 27, -64, 105, -26, 25, -5, -14, -48, 69, 76, -65, 71, 72, 23, 19, 37, 44, -40, -50, -34, -28, 11, 74, -28, 50, 25, -40, 74, -60, 67, 39, 25, 31, -30, -39, -19, 0, 83, 55, -5, -5, -67, 6, 40, -52, 73, 7, -38, 34, 47, 24, -60, -29, -27, 53, -48, -52, -33, 48, 73, 67, 29, 72, 5, -47, 20, 69, -89, 60, 74, 52, -26, 53, -39, 11, 61, -57, 16, -2, 7, 25, 69, 63, 59, -6, 40, 37, 17, 46, -64, 16, 40, -68, -17, -23, 7, 73, -42, -56, -13, 70, -28, -2, 11, 82, 79, 58, -59, 3, -65, -26, -60, 15, -38, 2, -45, -6, -23, -50, 47, 23, 4, 10, 36, 28, -62, -12, -24, -40, 12, -34, -102, 57, 35, -43, -69, -26, 16, 22, -18, 69, 36, -33, 1, 4, 44, 14, 14, 67, -63, -5, -58, -18, 62, -6, -14, 3, -66, -65, -11, 90, -17, -1, -49, 105, 11, -2, -38, 31, 35, -21, 78, 55, -35, 51, 61, -14, -10, 21, -46, 84, -45, 20, -75, 46, -35, 38, -13, -68, -62, -67, 15, -10, 38, -62, 25, 10, 42, 54, -71, 40, 48, 20, -64, -3, -27, -43, -22, 30, 45, 12, 20, -29, -66, 29, 48, 67, -6, -56, 33, 57, 69, -31, -10, -49, 36, 63, -65, 105, -17, 14, -84, 12, 45, -28, 50, -29, 77, 49, -47, 33, 29, -25, 89, 41, 6, -25, -22, -17, -81, -66, 48, -14, 7, 52, -42, 24, -12, 6, 77, 63, 19, 55, -46, 60, -24, -24, 3, -17, 13, 64, -51, -41, 51, 3, -28, 46, -41, 56, -70, 27, 59, -29, 22, 20, 68, -21, -69, 31, 14, -47, 63, 66, -21, 40, 44, -28, -44, -25, 66, 55, 18, 57, 18, 90, 27, -13, 32, 54, -37, -41, 8, 70, -64, -6, -75, -23, 22, -51, -39, 31, -77, -5, 12, 80, -13, -6, -63, -41, 42, 54, 55, 23, -8, 7, -70, -32, 36, -8, 22, 59, -48, -17, 4, 34, -24, 44, 14, 20, -13, -16, -31, 95, -38, -20, -28, 43, -46, -46, -18, 35, 72, -34, -72, 51, 40, 70, 21, -50, 24, -60, 18, 81, -35, 20, -13, -1, 64, -26, 27, -59, 72, -38, 48, -19, 52, -12, 4, 75, -77, -62, -1, -12, 15, 61, -57, 24, -15, -69, -94, 43, -5, -14, 61, -8, -47, 81, 23, 35, -32, -29, 63, 68, 62, -15, 35, -21, 33, 71, 7, -2, 60, 80, 3, -45, 64, -30, -68, 34, -13, 34, -37, -27, -32, 23, -48, 13, 
  -15, 21, 65, -28, -63, -73, 72, -35, 52, -22, 71, 67, 45, 74, -30, 41, -37, -32, 65, -3, -21, -21, 69, -2, 19, 26, 53, 34, 73, 34, -7, -10, -1, -36, 16, -22, -57, 15, 15, 36, 29, 51, 71, -15, -45, -20, 17, 42, -71, -11, -62, 47, 20, 21, 66, 40, 34, -18, 13, -64, 54, 45, -1, -15, 50, 41, 45, -24, -19, -22, -64, -2, -48, -51, 66, 20, 29, 66, 35, 19, 30, 65, -69, -46, -76, -73, -54, 32, -14, 45, 43, -61, -79, -54, 16, 28, 29, 46, -18, -26, -13, -9, 53, 49, 43, 25, 12, 75, -4, -61, -15, 22, 27, 20, -74, -55, -74, 1, 44, 23, 72, 64, 10, -14, -9, -17, -39, -52, 72, 53, -52, 41, 28, -20, -72, 12, -61, 54, -33, 47, -10, 13, -9, 38, 46, -73, -3, -36, -56, -43, 49, -48, -13, 2, -6, 33, 34, 80, -2, -11, 65, -26, 1, 35, -71, 29, -35, -51, 45, 10, 31, 13, 60, -32, 70, 7, 67, 72, -20, 59, -31, 62, 32, 50, -57, 21, 6, 38, 65, 56, -61, -17, -14, -80, -34, 57, 41, 43, -75, -43, -19, -65, 72, -43, -60, 38, -43, -54, -7, -9, -33, -11, -65, 10, -20, -48, -25, -29, -2, 65, 1, 61, -30, -23, 29, 0, 19, -41, 20, -80, -62, -55, 22, -6, 27, 5, 17, 48, -5, 0, 18, -64, -53, 27, -9, -18, -6, 27, -7, 20, 49, -35, 7, -21, -66, -35, 38, 29, 67, -14, -34, -25, 8, -66, -16, -37, 12, 26, -27, 54, -74, -6, 67, -6, -39, -7, 39, -46, 44, 29, 31, -8, 56, -12, 25, -31, -66, -10, 36, -12, -14, -14, -62, -61, -55, -18, 45, 69, 18, 37, -2, -29, -1, 80, 60, 71, -22, -32, 64, 24, 26, 72, 6, -14, -63, 53, 2, 46, -42, 68, -33, 26, 38, 27, 15, 53, 71, 22, -76, -41, -52, 10, 53, -56, -20, -46, -14, 33, 49, -29, -26, 35, -33, -12, 30, 70, -32, 21, 63, 18, 49, 33, -20, 48, -33, -3, 39, 24, 4, -7, -27, -62, 27, -25, 8, 10, -15, 22, -29, -23, 19, 69, -29, 35, 69, 18, -19, -13, 69, -32, -25, -39, -16, 18, -32, -26, 1, 33, -69, -50, -76, -81, 69, 64, 69, 47, 12, -76, 38, -41, 68, 36, -24, 6, -63, -28, 2, -25, -61, 32, -34, -60, 67, 70, -7, -41, 60, -30, 69, 33, 13, 51, 14, 34, 8, -64, 1, 68, -30, -82, 79, -49, 4, -25, -14, -62, 46, 68, 43, 6, 50, 62, -39, 29, 5, -61, 54, -16, -1, 2, 39, 1, -34, 0, 35, -49, 8, 59, 53, 51, -33, 67, -38, -61, -64, 64, 16, -58, 27, -62, 7, -76, -74, 69, 61, -79, -80, -20, -59, 46, 69, 2, -40, 2, 69, -63, -42, 55, -49, 13, 36, -34, 49, -28, 63, -5, -51, 34, 58, 62, 43, 1, -39, -50, -43, -68, -23, -61, -56, -50, -8, 57, -80, -72, 10, -76, 36, 33, 17, 39, -80, -63, 76, -41, -33, 21, 17, -44, 26, -11, -72, -20, 2, 18, -73, 18, -81, 45, -56, -64, -32, 33, -36, -52, 61, -33, -53, -52, -57, -64, 0, 49, 49, -79, 71, -32, 64, -43, -57, -79, 44, -14, -16, -6, -7, -37, -13, -2, -25, -11, -70, -40, 28, 8, 44, 56, 25, 10, 5, -15, -7, -35, 28, -80, -13, 60, -65, -12, -41, -62, -2, 49, 15, -79, 11, 62, 2, -29, -22, 6, -17, 8, -66, 18, -15, -4, -15, 24, 15, -59, 59, 56, 5, 22, -31, -9, 71, -50, 64, 6, -1, 17, -44, -60, -66, 13, -37, -37, -69, 39, 40, -9, -11, 62, 76, -83, -73, -60, 43, -39, 21, -64, -76, 26, 46, 57, -67, 65, 17, 57, 46, -70, -78, 6, 62, 35, -81, -79, -79, 39, 27, -44, -53, -38, -29, -25, -41, 34, -53, 38, -69, -58, 48, 37, 2, -39, -5, 32, 64, 43, -38, 28, 41, -79, -41, 30, 59, 37, 55, -47, -71, 69, 66, 13, 72, 53, 13, -46, 22, -73, 66, -25, 11, -73, 15, -11, -63, -20, -73, 71, -14, 62, 51, -58, -63, -6, 12, -24, -38, 15, -9, -9, -54, 26, -30, 10, -59, -29, -10, -71, -9, -69, 70, 58, -9, -50, -51, 23, -14, 23, -68, 24, 8, -22, 0, 66, -59, -12, 13, 8, 36, 57, -32, 72, -78, -64, -24, 10, -4, 62, -43, -43, 57, -47, -80, 82, -31, 10, -19, 31, 41, -21, 2, -44, 67, -80, -5, -72, -10, -12, 35, 85, -33, -11, -43, -13, -39, -25, -29, -19, 38, 25, -8, -28, -64, -68, 36, 46, 70, 47, 8, -50, -19, 72, -65, 35, -64, 21, -34, -75, 49, 67, 43, -4, -65, -21, -1, -53, 35, 22, -80, -48, -43, 11, -26, -43, -41, -40, -49, -5, 65, 20, -80, -4, 63, 52, 51, -65, 21, -32, 36, -40, -16, 36, -14, 61, 52, -42, -19, 10, 69, 53, -9, -71, -30, 8, -8, 62, -32, -60, 66, 30, -18, 75, 18, -66, 62, -12, -59, -70, -13, -77, -81, -50, -50, -61, 46, -71, -65, 77, 19, 50, -22, -47, -1, -29, 56, -48, 15, -79, -62, 23, 21, -2, -59, 18, -37, 58, 15, -55, 19, -56, -47, -75, 58, -15, 32, 3, -18, 36, -18, 72, -65, 26, 67, 23, -77, -62, -27, -29, 31, -45, 5, 74, 59, -3, 18, 1, -20, 49, 26, 20, -54, 38, -47, -54, 30, 20, 54, -7, 23, -20, -28, 30, 13, 72, -25, -73, -43, 67, 50, 61, -21, -72, 17, -67, 67, 8, 19, 7, -78, 0, 42, -69, 57, -49, -28, 63, 11, -65, -67, 68, -26, -46, 51, -19, 48, -29, 29, -47, -19, -62, 21, 15, -71, -40, -10, 51, 71, -17, -43, 54, 39, -17, -39, 70, -28, 16, 68, 0, 50, -24, -13, -2, 14, 3, -50, 44, -33, 65, -19, -40, 21, 55, 45, -68, 23, 69, -54, -37, -81, 1, 9, 52, -60, 18, 22, 39, 20, -26, 42, 72, -17, -56, 59, 44, -29, 11, -59, -24, 31, 26, -79, 24, 14, 50, 26, 38, 26, 11, -39, 19, 39, -68, -8, -18, 28, 39, 31, -73, -53, 58, 14, 55, 63, 3, -50, -56, 70, 47, -81, 23, -45, -77, 16, 61, 22, 41, -59, 6, 7, 56, 13, -45, -16, 11, -78, -59, -50, 51, 66, -7, 18, 32, -55, 64, 22, -76, 55, -10, -18, 78, -72, 59, -22, 63, 30, 7, -64, -75, 32, -49, 18, -67, 36, -8, -68, 37, 67, -72, -65, 1, 4, 27, -3, 34, 6, -5, 45, 9, 48, -13, -12, 38, 59, -74, -18, 60, 53, -34, -26, -16, 47, -10, 41, 19, 61, -70, -62, -33, -75, 9, -10, -65, 42, -61, 34, 64, -27, -50, -46, -41, 60, 73, -18, -47, 33, 34, -64, 48, -16, -8, -5, 11, 36, 37, -34, -19, 50, 27, 68, -45, -31, 33, 67, -67, 3, -28, 71, 46, 8, 58, -32, 55, 4, 9, 46, -8, -13, -37, 58, -49, -7, -69, -58, 14, 55, 59, 70, -57, -4, 24, -38, 21, 1, 27, -20, -81, -25, -57, 35, 49, -23, -71, -46, -38, -53, 29, -73, -24, 61, -8, -37, 18, 22, 48, 41, 11, 21, -71, 55, -26, -60, -59, -33, -19, 36, -33, -46, 61, 32, 4, -78, -20, 16, -50, 23, -80, 23, 63, 2, 53, 50, 42, 27, 63, -51, -29, -47, 46, -50, 68, -17, -74, -42, -30, 21, -21, -7, 64, 49, -80, 36, 42, -77, -45, 35, -73, -57, -33, 61, -7, -19, -49, -34, 37, 10, 4, -54, 16, 8, 42, -16, -52, 52, -23, -21, 48, 37, 24, 7, 43, 4, 27, 19, -36, -33, -32, -37, 20, -5, 35, -2, 70, 18, -2, 12, -30, -33, 72, -30, 57, 41, -77, -4, 26, 49, 7, -34, 29, -68, 30, -2, 64, 63, 47, 65, -15, 44, 57, -7, 31, 49, 53, 49, -3, -20, -63, 62, 36, 4, 36, -30, -43, -65, -55, 31, 33, -67, 68, 19, 48, -30, -34, 4, 83, -46, -5, -57, -55, -81, -1, -24, -73, -82, -24, 41, 81, 31, -60, -75, 84, 12, 56, 54, 3, 27, 0, -24, 18, -39, -15, 12, -5, 24, -2, 52, 59, 72, 5, 72, -60, -38, -27, -78, -59, -35, -44, -71, -46, -59, -76, -37, 20, 59, 46, 25, 36, 19, 32, -64, -12, -22, -43, -51, -32, -39, 40, 40, 59, -54, -53, -24, 0, -67, 68, -80, 49, 47, -51, 53, -47, 20, 27, 57, 43, -48, -58, -35, -46, -50, -53, 24, -4, 58, -67, -69, -59, 15, 25, -54, 67, 36, -66, -6, 46, -33, 36, 21, -59, 24, -50, 56, 71, -68, -23, 35, -13, 28, 59, -78, -10, 58, -20, -57, -29, 27, -20, 45, 37, 74, 28, -48, -26, 68, -47, 49, 15, 2, 34, 9, 57, -23, 33, 1, 57, -80, 59, 4, 72, -44, -13, 29, -46, -64, 21, 59, -26, -25, -4, -39, 30, -51, 21, -29, 24, -43, -52, -53, 3, 18, -72, 30, 23, -17, 44, -61, 27, -7, -42, -74, -77, -67, -26, 66, 28, -67, 51, 44, -12, 62, -68, -26, 60, -45, -70, -1, -72, -5, -73, 54, -75, -5, -1, -65, -78, -3, 71, 65, -20, -81, 20, 42, -43, 39, -20, -6, -74, -8, 56, -26, -69, 44, -41, -49, 52, 59, -32, -39, 65, 
