/*
 * Copyright (c) 2026 EdgeImpulse Inc.
 *
 * Generated by Edge Impulse and licensed under the applicable Edge Impulse
 * Terms of Service. Community and Professional Terms of Service
 * (https://edgeimpulse.com/legal/terms-of-service) or Enterprise Terms of
 * Service (https://edgeimpulse.com/legal/enterprise-terms-of-service),
 * according to your product plan subscription (the “License”).
 *
 * This software, documentation and other associated files (collectively referred
 * to as the “Software”) is a single SDK variation generated by the Edge Impulse
 * platform and requires an active paid Edge Impulse subscription to use this
 * Software for any purpose.
 *
 * You may NOT use this Software unless you have an active Edge Impulse subscription
 * that meets the eligibility requirements for the applicable License, subject to
 * your full and continued compliance with the terms and conditions of the License,
 * including without limitation any usage restrictions under the applicable License.
 *
 * If you do not have an active Edge Impulse product plan subscription, or if use
 * of this Software exceeds the usage limitations of your Edge Impulse product plan
 * subscription, you are not permitted to use this Software and must immediately
 * delete and erase all copies of this Software within your control or possession.
 * Edge Impulse reserves all rights and remedies available to enforce its rights.
 *
 * Unless required by applicable law or agreed to in writing, the Software is
 * distributed on an "AS IS" BASIS, WITHOUT WARRANTIES OR CONDITIONS OF ANY KIND,
 * either express or implied. See the License for the specific language governing
 * permissions, disclaimers and limitations under the License.
 */
// Generated on: 02.07.2026 14:17:59

#include <stdio.h>
#include <stdlib.h>
#include "edge-impulse-sdk/tensorflow/lite/c/builtin_op_data.h"
#include "edge-impulse-sdk/tensorflow/lite/c/common.h"
#include "edge-impulse-sdk/tensorflow/lite/micro/micro_mutable_op_resolver.h"
#include "edge-impulse-sdk/porting/ei_classifier_porting.h"

#if EI_CLASSIFIER_PRINT_STATE
#if defined(__cplusplus) && EI_C_LINKAGE == 1
extern "C" {
    extern void ei_printf(const char *format, ...);
}
#else
extern void ei_printf(const char *format, ...);
#endif
#endif

#define STRINGIZE(x) #x
#define STRINGIZE_VALUE_OF(x) STRINGIZE(x)

#if defined (__GNUC__)  /* GNU compiler */
#define ALIGN(X) __attribute__((aligned(X)))
#define DEFINE_SECTION(x) __attribute__((section(x)))
#elif defined (_MSC_VER)
#define ALIGN(X) __declspec(align(X))
#elif defined (__TASKING__) /* TASKING Compiler */
#define ALIGN(X) __align(X)
#define DEFINE_SECTION(x) __attribute__((section(x)))
#elif defined (__ARMCC_VERSION) /* Arm Compiler */
#define ALIGN(X) __ALIGNED(x)
#define DEFINE_SECTION(x) __attribute__((section(x)))
#elif defined (__ICCARM__) /* IAR Compiler */
#define ALIGN(x) __attribute__((aligned(x)))
#define DEFINE_SECTION(x) __attribute__((section(x)))
#elif defined (__clang__) /* LLVM/Clang Compiler */
#define ALIGN(X) __ALIGNED(x)
#define DEFINE_SECTION(x) __attribute__((section(x)))
#endif

#if defined(EI_MODEL_SECTION) && (defined(__GNUC__) || defined(__clang__))
#define MODEL_SECTION(X) __attribute__((section(STRINGIZE_VALUE_OF(X))))
#else
#define MODEL_SECTION(X)
#endif

#ifndef EI_MAX_SCRATCH_BUFFER_COUNT
#ifndef CONFIG_IDF_TARGET_ESP32S3
#define EI_MAX_SCRATCH_BUFFER_COUNT 4
#else
#define EI_MAX_SCRATCH_BUFFER_COUNT 4
#endif // CONFIG_IDF_TARGET_ESP32S3
#endif // EI_MAX_SCRATCH_BUFFER_COUNT

#ifndef EI_MAX_OVERFLOW_BUFFER_COUNT
#define EI_MAX_OVERFLOW_BUFFER_COUNT 10
#endif // EI_MAX_OVERFLOW_BUFFER_COUNT

using namespace tflite;
using namespace tflite::ops;
using namespace tflite::ops::micro;

namespace {

#if defined(EI_CLASSIFIER_ALLOCATION_STATIC_HIMAX) || defined(EI_CLASSIFIER_ALLOCATION_STATIC_HIMAX_GNU)
constexpr int kTensorArenaSize = 2960;
#else
constexpr int kTensorArenaSize = 1936;
#endif

#if defined(EI_CLASSIFIER_ALLOCATION_STATIC)
#if defined (EI_TENSOR_ARENA_LOCATION)
uint8_t tensor_arena[kTensorArenaSize] ALIGN(16) DEFINE_SECTION(STRINGIZE_VALUE_OF(EI_TENSOR_ARENA_LOCATION));
#else
uint8_t tensor_arena[kTensorArenaSize] ALIGN(16);
#endif
#elif defined(EI_CLASSIFIER_ALLOCATION_STATIC_HIMAX)
#pragma Bss(".tensor_arena")
uint8_t tensor_arena[kTensorArenaSize] ALIGN(16);
#pragma Bss()
#elif defined(EI_CLASSIFIER_ALLOCATION_STATIC_HIMAX_GNU)
uint8_t tensor_arena[kTensorArenaSize] ALIGN(16) __attribute__((section(".tensor_arena")));
#else
#define EI_CLASSIFIER_ALLOCATION_HEAP 1
uint8_t* tensor_arena = NULL;
#endif

static uint8_t* tensor_boundary;
static uint8_t* current_location;

template <int SZ, class T> struct TfArray {
  int sz; T elem[SZ];
};

enum used_operators_e {
  OP_FULLY_CONNECTED, OP_SOFTMAX,  OP_LAST
};

struct TensorInfo_t { // subset of TfLiteTensor used for initialization from constant memory
  TfLiteAllocationType allocation_type;
  TfLiteType type;
  void* data;
  TfLiteIntArray* dims;
  size_t bytes;
  TfLiteQuantization quantization;
};

typedef struct {
  TfLiteTensor tensor;
  int16_t index;
} TfLiteTensorWithIndex;

typedef struct {
  TfLiteEvalTensor tensor;
  int16_t index;
} TfLiteEvalTensorWithIndex;

TfLiteContext ctx{};
static const int MAX_TFL_TENSOR_COUNT = 4;
static TfLiteTensorWithIndex tflTensors[MAX_TFL_TENSOR_COUNT];
static const int MAX_TFL_EVAL_COUNT = 4;
static TfLiteEvalTensorWithIndex tflEvalTensors[MAX_TFL_EVAL_COUNT];
TfLiteRegistration registrations[OP_LAST];

namespace g0 {
const TfArray<2, int> tensor_dimension0 = { 2, { 1,1600 } };
const TfArray<1, float> quant0_scale = { 1, { 43.298038482666016, } };
const TfArray<1, int> quant0_zero = { 1, { -5 } };
const TfLiteAffineQuantization quant0 = { (TfLiteFloatArray*)&quant0_scale, (TfLiteIntArray*)&quant0_zero, 0 };
const MODEL_SECTION(EI_MODEL_SECTION) ALIGN(16) int32_t tensor_data1[5] = { -2, 0, 2, -1, 0, };
const TfArray<1, int> tensor_dimension1 = { 1, { 5 } };
const TfArray<1, float> quant1_scale = { 1, { 0.048253513872623444, } };
const TfArray<1, int> quant1_zero = { 1, { 0 } };
const TfLiteAffineQuantization quant1 = { (TfLiteFloatArray*)&quant1_scale, (TfLiteIntArray*)&quant1_zero, 0 };
const MODEL_SECTION(EI_MODEL_SECTION) ALIGN(16) int8_t tensor_data2[5*10] = { 
  73, -23, -81, 55, -105, 13, 63, -105, 62, 28, 
  71, 109, -1, 10, -104, 114, -36, 60, 95, 58, 
  -104, -23, -43, -97, -96, 97, 125, 15, 48, 50, 
  15, 127, -120, 89, -58, -25, -47, -76, -23, -56, 
  74, -99, -108, 39, -126, 34, 74, -121, -5, 73, 
};
const TfArray<2, int> tensor_dimension2 = { 2, { 5,10 } };
const TfArray<1, float> quant2_scale = { 1, { 0.0048812655732035637, } };
const TfLiteAffineQuantization quant2 = { (TfLiteFloatArray*)&quant2_scale, (TfLiteIntArray*)&g0::quant1_zero, 0 };
const MODEL_SECTION(EI_MODEL_SECTION) ALIGN(16) int32_t tensor_data3[10] = { 0, 0, 0, 0, 0, 0, 0, 0, 0, 0, };
const TfArray<1, int> tensor_dimension3 = { 1, { 10 } };
const TfArray<1, float> quant3_scale = { 1, { 0.11701921373605728, } };
const TfLiteAffineQuantization quant3 = { (TfLiteFloatArray*)&quant3_scale, (TfLiteIntArray*)&g0::quant1_zero, 0 };
const MODEL_SECTION(EI_MODEL_SECTION) ALIGN(16) int8_t tensor_data4[10*20] = { 
  43, -84, -73, 13, 108, 16, 123, -115, -8, -57, 25, 20, 68, 122, 59, -90, 0, -29, -76, 26, 
  -62, -124, 74, 72, 58, -45, -57, -105, -101, 19, -57, -58, 68, 24, 76, 97, -55, 37, -49, -34, 
  -27, -105, -3, 113, -55, -65, -39, 19, -48, -15, 34, 54, -24, -95, -15, -76, 90, -106, -110, -88, 
  63, 14, 102, 2, -69, 82, -63, -51, -31, 79, 109, 53, -79, -103, -5, -48, -27, -59, 115, 91, 
  -54, 65, -105, -48, -96, 75, -39, 23, -107, 62, 98, 61, -22, 49, 22, -103, -56, 108, 77, 63, 
  -96, 76, -75, 54, -32, -127, -8, 83, -126, -52, 84, 65, -56, 67, -26, -74, -41, 67, -74, 4, 
  100, 51, -64, -84, 91, 86, 12, -34, -31, 3, 68, 45, -78, -45, 9, -19, 66, -19, -15, -38, 
  -17, 98, 51, 66, -15, 93, 94, -121, 123, -33, -64, 122, 72, -30, -108, 54, 92, 6, 13, 91, 
  67, 44, 59, 44, 95, 36, -118, -29, -31, 12, 102, 23, -6, -114, -38, 103, -95, 76, -51, -36, 
  44, -78, -17, -5, 82, 109, -22, 5, 78, -105, -67, 53, -81, -63, 62, -21, -25, 96, 0, 83, 
};
const TfArray<2, int> tensor_dimension4 = { 2, { 10,20 } };
const TfArray<1, float> quant4_scale = { 1, { 0.0035265295300632715, } };
const TfLiteAffineQuantization quant4 = { (TfLiteFloatArray*)&quant4_scale, (TfLiteIntArray*)&g0::quant1_zero, 0 };
const MODEL_SECTION(EI_MODEL_SECTION) ALIGN(16) int32_t tensor_data5[20] = { 0, 0, 0, 0, 0, 0, 0, 0, 0, 0, 0, 0, 0, 0, 0, 0, 0, 0, 0, 0, };
const TfArray<1, int> tensor_dimension5 = { 1, { 20 } };
const TfArray<1, float> quant5_scale = { 1, { 0.024612117558717728, } };
const TfLiteAffineQuantization quant5 = { (TfLiteFloatArray*)&quant5_scale, (TfLiteIntArray*)&g0::quant1_zero, 0 };
const MODEL_SECTION(EI_MODEL_SECTION) ALIGN(16) int8_t tensor_data6[20*1600] = { 
  1, -12, -17, 91, 32, 50, 21, -73, 29, -85, -8, 43, -90, -73, -18, 87, 28, 80, -45, -48, 93, -28, 80, 22, -100, 65, -57, -47, -70, -99, 30, 25, 64, -84, -94, 46, -63, 74, -20, -64, 43, -4, -84, -27, -89, 82, -35, 82, -67, -73, -13, -97, 44, -22, -99, 72, 97, 88, 100, 66, 41, -47, 11, -84, -14, -71, 6, 33, 91, -13, 14, -85, -71, -25, -26, -55, 74, 46, -17, 77, 33, -1, -15, 34, -18, 13, -113, -10, -78, -90, 32, -22, -52, 87, -17, -109, 105, 59, -73, -38, -5, -101, 12, 55, -26, -37, -45, 8, -58, -51, 73, 21, 6, 70, -47, 101, -45, 41, -112, 34, 52, 7, 19, 100, -105, -19, 53, -3, 88, -13, -86, -57, 99, 32, 77, -55, 5, 109, -29, 7, 51, -1, -84, -75, -37, -19, -19, 53, -60, -53, -55, 61, -28, 68, 30, -33, 80, 25, -119, -12, 41, 82, -54, -39, -34, -46, -86, -77, 61, 92, -60, -14, -27, -31, -32, 69, 60, 56, -64, -72, 13, 32, -104, -72, 2, 42, -51, -95, 61, 2, 84, -78, 17, 105, 60, 49, -64, 75, -106, -7, -39, 68, 94, 37, 33, -64, 58, -64, 41, 80, 103, 69, -17, -41, -44, -19, -35, -45, -27, -52, 40, 66, 34, -95, 94, -71, -23, -45, -100, 100, -30, -93, -46, -30, -91, -69, 94, 22, 72, 82, -43, -63, 56, -55, 80, 79, -65, 3, -50, 102, 34, 71, -10, 45, -108, -59, -3, 41, -43, 40, 13, 83, -56, 21, -11, 92, -6, 80, 85, 95, 47, -47, -14, -8, -10, -97, -88, 36, -30, -58, 88, -56, 20, -42, -53, -6, -80, -44, -38, -29, -13, 114, 20, -52, 74, 36, -20, -20, 19, 73, 16, 53, 17, -106, 53, -41, 105, -93, 39, 34, -44, -105, -21, -29, 5, -6, 5, -65, -8, -98, 44, -43, 8, 30, 24, -98, -24, 25, -10, -29, -36, 17, -81, -50, -19, 81, -12, 94, -84, -73, -88, -84, 33, 30, -45, 38, -66, -36, 34, -54, 67, 98, -75, -102, 38, 14, -9, -56, 55, 1, -24, -25, 61, 80, 54, -19, -83, 34, -44, 91, 27, -41, 54, 63, 2, 27, -102, -51, 42, -38, 57, 63, -61, 36, 92, -87, -17, -56, 65, -53, 43, -42, -81, 3, 28, -109, -17, -114, 8, 52, -23, 41, 32, 62, 16, -94, 67, 15, 3, -23, 29, 78, 25, 2, -52, -101, 108, -59, 111, -95, 72, 74, -66, 83, 92, -34, 99, -14, -65, 45, 79, 80, 98, 15, -80, 26, 95, 85, -50, 16, -54, -24, -9, -76, -77, -28, 50, 39, -68, -48, 104, -23, 43, -101, 82, 14, -73, -44, -50, -10, -75, 96, -26, -64, 80, -79, -67, 21, -87, -10, 53, -40, 63, 53, -67, 74, -55, -38, 14, 29, 105, 0, -70, -18, 71, 23, -94, -2, -25, -17, -9, -39, 97, -43, -26, -33, -61, 105, -55, 62, -72, -22, -83, 13, 92, -12, -31, 81, -62, 17, 88, 65, -6, -32, 26, 17, 12, -84, -63, 2, -62, 39, -67, -10, 16, 50, 2, 22, 24, 104, -49, -45, 5, -93, 12, 90, 20, -80, -23, -98, 17, -18, 64, -29, 51, 92, -64, -55, 31, -44, 55, 47, -94, 74, -28, -32, -47, -109, 77, 102, 66, 7, 49, -55, -6, 103, -85, 51, -93, -95, -62, -18, 14, -31, 41, 21, 100, 45, 66, 72, 40, 58, -91, 60, -42, -49, -82, 94, 43, 44, -35, 68, 16, -46, 11, 26, -9, -27, 56, 67, 43, 93, -1, 41, -97, -35, -92, 3, 92, 44, 60, 96, -81, 74, 7, 11, 33, 1, 9, -42, -46, -94, -28, -42, 35, 45, 92, -63, -45, 11, 73, 31, -42, 105, -75, 28, 92, 37, -65, -16, -8, 100, 14, 16, 66, -102, -25, -107, 21, 74, 24, 103, -80, 22, 3, 60, -82, -43, 69, -42, -42, -42, -61, 27, -26, 27, 102, -50, 90, 98, 43, -6, -35, 96, 60, -8, 74, 18, -72, -101, -31, 110, -38, 90, 8, 97, 21, -95, 7, -82, 2, 45, -31, 45, -69, -2, 19, -60, -55, 34, 71, 47, 99, -70, -86, -84, 35, 100, 78, 56, 78, -22, -1, -2, 82, -77, -28, 47, -34, -5, -94, 57, 18, 22, -91, -46, -5, -18, -15, 73, -53, 95, 40, 69, 32, -5, 105, -11, 53, 33, 78, -74, -54, -26, 4, 28, 74, -68, -78, 39, -87, -9, 8, -47, -63, -102, -50, -34, 40, -78, -89, -58, 85, -44, -21, 8, -74, 61, -64, -69, 104, -54, 23, -17, 65, 22, -78, -21, 102, -71, -50, 97, 24, 46, -84, 25, -1, -37, -50, 45, -89, 7, 14, -83, 15, -20, 60, -18, 16, 11, -84, 4, -33, 42, -10, 91, 95, -24, -33, -79, -71, -50, -74, 76, 93, 73, -91, 36, 74, -8, 68, -59, 90, 13, 28, 113, 33, -22, 72, 66, 70, -89, 60, 63, -32, -5, 94, -62, -103, -86, -89, -74, 77, 0, 25, -10, -76, -7, -15, -18, 12, 65, 16, 69, -49, -50, 41, 5, 21, -34, 46, -63, 23, 40, -58, -5, -42, -39, 68, 65, 3, -71, 14, 29, -72, -113, 2, -91, 21, 63, 31, 62, 4, 78, -27, 46, 4, -59, 47, -17, -10, -76, 24, 57, 77, -59, -20, 50, 39, 24, -103, 92, -2, -48, 20, -95, -38, -64, 81, 52, 66, -86, 76, -48, -20, 94, -67, 35, -47, -16, 62, -12, 69, -18, 39, 59, -94, -74, 107, 58, -2, -26, 73, 31, 26, -93, -65, 102, 79, -4, 64, -48, 43, -68, 99, -66, -9, 51, 62, -66, 60, -60, 102, -71, -3, -95, -92, -93, -97, -46, 27, -5, -26, 14, -7, -28, -81, 93, -3, -84, -88, 60, 10, -38, -105, -55, 52, 7, 107, -77, -50, -75, -103, 48, 23, 85, -74, -27, -12, -99, 10, -94, -49, 99, -92, -87, -35, -61, 28, 38, -52, 81, 102, -67, -62, -96, 60, 33, 28, -35, 0, -70, -16, 92, -49, 95, 97, 45, -14, 2, 105, -54, 56, 53, -98, 47, 43, 76, 36, 2, 72, -97, -73, 32, -21, -108, -24, -31, 55, 7, -67, 29, -56, -2, -101, 84, -110, 77, 15, 8, 56, 89, -60, -25, 92, 3, 62, 36, -34, 40, -32, 71, 50, 79, -38, 6, -65, -28, 50, -113, -88, -98, -33, 88, 92, -93, 99, -96, 22, -6, 22, 15, 8, -17, 43, 23, -83, 0, -14, -20, -6, -44, 96, 108, -53, -47, 14, -74, 88, -89, -66, 64, -90, -66, -36, -80, -11, -34, 51, -21, -61, 16, -19, -97, 97, -101, -56, -30, 91, 28, -100, -37, -58, -93, -45, -26, 90, -47, -94, 63, -77, -10, -30, -104, 105, -11, -51, -22, 88, -87, -76, -17, -4, 77, -73, 97, -60, 78, -11, -102, -65, 105, -99, -105, 43, -5, 21, -54, 99, -75, 62, -88, -82, 11, 72, -37, -50, -15, 20, 61, 61, 66, 22, 32, -68, 24, -8, -79, 32, 21, 32, 79, 64, 77, 58, -9, 100, -101, -29, -96, -24, 87, -83, 99, -45, 65, 43, 3, -60, 62, -76, 55, 79, -30, -96, 87, -31, -71, -34, 62, 2, 5, -92, 69, 21, -81, -31, 87, -63, 21, -32, -14, 29, -2, -106, 6, -88, -28, 76, 41, -8, 29, 49, 40, -53, 59, -78, 32, -49, 76, -58, -71, 12, -30, -20, 59, 42, -122, 21, 93, -17, 85, -28, 43, -82, -32, 64, -41, 14, -52, 59, 19, -51, 85, -78, 31, -76, 62, 46, -43, 29, 12, 37, 79, -96, -121, -15, -21, 97, -75, 52, -31, 56, 8, -50, -23, -108, -10, 44, 6, 19, -39, 107, 34, 78, -82, 28, 88, -38, 74, 67, -36, 18, 65, 50, 81, -101, -75, -83, 38, -95, 26, -84, 44, 73, -45, -8, -8, 37, -48, -42, -65, -90, 14, -54, -85, 46, 28, -73, 44, 79, -31, 2, 78, 22, -32, 7, -91, -22, -33, 39, 9, 32, 28, 92, -101, 77, -54, -55, 31, -9, 47, -3, 15, 2, -22, 106, 17, -4, -1, 13, -28, -77, 73, 36, 85, 3, -35, 96, -103, -100, 80, 7, -66, 90, -117, 48, -76, -93, -18, 92, -62, -1, 71, -24, -55, 33, -50, -36, 43, 103, -103, 73, -107, -16, 56, -94, 62, -100, -65, 74, 22, -28, -113, 38, 63, -5, -77, -14, -92, 53, 37, 2, 69, -97, 18, 43, 25, -49, 15, -11, -44, -6, 72, 29, -21, -76, -43, 58, -14, -71, -39, 68, -92, 62, -123, -58, -82, -5, -40, 70, -11, 31, -98, 6, 64, -81, -48, 66, -102, -46, -77, 39, -72, -64, 3, 33, -16, -96, -90, 60, -65, 41, -21, -36, 72, 15, 57, -43, 49, -68, -64, 25, -101, 47, 44, -33, -43, 99, -91, 54, 4, 73, -87, -76, 49, 58, -58, -98, -17, 62, 44, -50, 3, -20, 84, 65, -41, 19, 69, -78, 95, 65, -38, -27, -56, 102, 94, 65, -100, 16, -64, 29, -3, -38, 50, -43, -96, -61, -7, 69, 93, -57, -35, 77, -80, 85, 102, -81, -8, -50, -70, 78, -37, 10, -80, -16, -16, 49, -20, 6, 64, 44, -88, 61, -99, -2, -112, 16, 49, -3, 51, 82, 24, 103, 48, 99, 75, -11, 29, -99, 104, -5, -21, -25, 33, 56, -7, 86, -91, 44, -11, -29, -19, -34, -34, -32, -97, 45, -5, -51, -22, 19, -98, -89, -46, -52, -8, 16, -88, 56, 64, -6, 107, -15, -120, -46, 97, -64, 25, 
  -104, -7, 86, 12, -32, 17, 33, 31, 47, 97, -67, 44, 14, 20, 65, -56, 81, 52, 106, -64, -18, -11, 87, -21, 53, 51, -18, 76, -26, -77, -16, 99, 90, 102, 71, -34, -85, -10, 27, -49, -45, -59, 103, 73, 60, -27, 80, -73, 8, 0, -97, -13, 3, -40, -15, -108, -102, 83, 88, -85, -19, 73, -41, -17, -27, 1, 79, -106, 57, -28, 95, -61, 62, -7, 16, 86, -34, -59, -6, 95, -15, -106, -55, -1, 48, 8, -22, -78, 19, -25, 33, 32, 94, 24, 7, 60, -50, -87, 17, -94, 22, 101, -2, -15, -74, 49, 78, -68, -20, -19, -30, -92, 104, 31, -30, 92, 27, 22, -79, -74, 26, -99, -33, -56, 48, -10, -2, 41, -88, 98, -37, -31, 65, -32, 98, 64, -67, -34, -16, 68, -102, 15, -10, -46, 3, 65, 65, 50, -42, -62, -50, -38, -50, -41, -40, 76, 64, 96, -72, -49, -63, -86, 57, -49, -87, -34, -80, 17, -93, -27, -21, -66, 43, -36, -17, 70, 55, -34, -58, -64, -82, 25, 36, 32, -24, 81, -8, -20, 63, 101, 83, 44, 76, 91, -16, 21, -61, -91, -92, 91, 75, -39, -88, 12, -62, 10, 57, 93, 50, 72, -60, -20, -2, -10, -81, 5, 32, 35, -7, -75, -89, -89, 42, -46, 34, 87, -28, -26, -46, -87, 104, 75, 83, 55, -66, -60, 5, -7, -12, 2, -99, 59, 21, 104, -12, -18, -6, -85, 32, 85, 40, -62, 7, 25, 108, 36, -37, -9, -83, 58, -106, -36, 92, -70, 63, -36, -105, -19, 92, -90, -60, -30, 61, 53, 101, -93, 67, -3, 34, -11, -70, -62, 17, 33, 31, -35, 44, -105, 101, -86, 18, -40, -30, 26, -27, -1, -28, 7, 56, 7, 91, 4, -36, -9, 12, -23, -61, -34, -97, 35, 20, 71, 87, -94, 95, -35, 77, 102, 19, 10, -29, 91, 27, -96, 82, -10, 21, -40, 69, -17, -50, -38, -14, 103, 67, 93, -40, 12, 78, -73, 85, 73, -13, 44, 22, 37, 19, -78, -81, -95, 105, 49, 78, 38, 81, -41, -33, -103, -84, -26, -95, 31, 97, 57, -45, 105, 32, 92, -99, -41, -61, -4, 54, 40, -22, 64, -107, -99, 66, 13, -90, 76, -49, 97, 58, -22, -11, -41, -68, 72, -53, -37, -41, -72, 70, -19, 103, 80, -34, -89, 26, 22, -66, -22, 5, 70, -3, -41, -43, -68, 97, -57, -81, 103, -105, -50, -11, -63, -84, -57, -25, 71, 89, -93, 4, -68, -44, 68, -1, -50, 69, -40, -61, -40, 91, -99, 29, -21, 67, 75, 59, -28, -13, 89, 51, 49, 61, 61, 8, 76, 23, -9, 52, -93, 55, 70, -26, 54, 68, 68, 29, 27, 12, 101, -1, -88, -39, 62, 40, -87, -85, 87, -21, 104, -48, 52, 74, -65, 4, 97, 42, -31, 23, -98, 43, 1, -83, 64, 14, 103, -34, -23, 48, -51, -66, 4, 61, -22, -86, -40, -81, 20, -8, -29, 1, 104, 79, 105, -68, 36, -79, 16, -96, 97, 99, -8, -7, 31, -68, 104, 34, -53, 6, 12, -40, -91, 38, 62, -85, 82, -6, -68, 31, -55, -88, -53, -89, -79, -52, 48, 46, 54, -50, 89, -93, 82, -18, 11, 42, 6, 63, -58, -89, 38, 45, 63, -13, 101, -24, -33, -35, 32, -58, -33, -13, 27, 40, 21, -79, -5, 85, -1, 98, 38, 90, -25, -40, 47, 71, 95, 94, -66, -29, -22, 99, 74, -55, -11, -34, -102, -36, -75, -92, 5, 62, 51, 31, -81, -98, -71, 28, -17, -70, 79, -96, 25, 91, -3, -70, -10, 53, 27, 72, -18, 87, -2, 39, -23, 91, -67, -49, -3, 91, -35, -22, 17, 13, 68, -99, 98, -46, -36, 60, -107, 97, 4, 18, 93, -103, 44, -2, -75, 87, -77, -47, 0, 58, -40, 80, -99, 86, -33, -4, -57, -14, 16, 86, -100, 84, -95, -27, -95, 37, -20, 65, 31, -23, -46, -55, 11, 72, -6, 98, 44, -88, 103, -82, -37, 34, -73, -29, 40, -17, -55, -19, 73, -89, 94, -5, 40, 87, 90, 40, -47, -15, -86, -60, 10, -12, 51, 2, 25, -8, -72, 19, -72, 82, 91, 80, 103, 49, -57, 37, -57, 4, -12, -80, 7, 46, -88, -47, -30, -64, -76, -37, 10, -4, -22, -28, 86, -20, 59, -5, 32, 48, -49, -7, -60, -32, -87, -51, 106, -92, -58, 103, 1, 101, -15, 105, -36, -64, 34, -14, -83, -28, 30, -75, 68, -67, -107, -100, 59, -43, 78, -99, 100, -9, -54, -74, 106, -69, -36, -25, 101, 12, -46, 63, 64, 101, 90, -101, 69, 42, -103, -35, -82, 94, -46, 44, 43, -56, -66, 45, -105, 10, -74, 62, -83, -3, 45, -19, -83, 15, -74, -25, 34, 94, 39, 16, 68, 42, -67, -106, 20, 52, 46, 99, 17, -78, 99, -80, 84, 54, 70, 7, -85, -79, 55, 62, -42, -31, 47, 31, -23, 33, -74, -27, -39, -79, 47, 60, 26, 48, -41, 80, 18, 95, 33, -42, -67, -23, -44, 94, 98, -29, -73, -78, -47, 34, 34, -23, -59, -23, 9, -94, -56, 89, 49, -65, -87, 95, 17, 46, 61, -75, -83, -69, 70, -1, 12, -88, 44, 55, 40, -29, -39, 32, -21, -108, 26, -95, -89, 51, -62, 102, 57, 18, -35, -21, 8, -83, -54, -12, 11, -87, 2, -50, 90, 29, -72, -66, -93, 68, 74, -49, -5, -21, -32, 8, 67, -40, 29, -21, -92, -69, -33, -89, -3, -52, -55, 0, -61, -68, 1, 38, -38, 41, -59, -5, -69, -13, -105, 15, 53, 79, -1, 74, -72, 14, 105, 40, -97, -23, -25, 44, 97, 8, 95, -39, 95, 3, -78, -30, -78, 26, 23, 101, 23, 75, -104, 66, -62, 82, 88, -32, 99, -68, 35, 69, -59, 92, 88, 9, -104, -39, -80, 39, -27, -37, -31, 101, 49, -59, -81, 67, -44, -63, -52, -11, -38, 20, -50, 18, -68, -11, 52, 16, -58, 88, -56, 53, -26, -87, -82, -46, -101, 104, 77, 26, 55, -23, 66, -15, -101, 26, -61, -48, 45, 72, 33, 49, -51, -71, -25, 25, -24, -59, -6, -25, 70, 86, -12, -62, 40, 88, -35, -32, 18, -44, -103, -58, 38, 3, -58, -50, -36, 32, 76, 55, 55, -99, -85, -63, 104, -90, 66, -38, 37, -92, 78, -28, -28, -32, 1, -26, 11, -8, -32, -84, -79, -6, -19, 38, -41, -66, 15, 41, 2, 101, 62, -78, 43, -18, -61, -96, -54, 86, 58, 17, -69, -44, -91, 22, 77, 90, 98, 94, -42, -101, -19, 74, -42, 98, -19, -96, -54, 13, -46, -95, -103, -17, -27, 102, -46, 9, -56, -36, 4, -57, 75, -52, 15, 36, 46, -4, -48, -28, -10, -73, -82, -23, -95, -40, -70, -16, -69, -36, -13, 101, -16, -43, -39, 29, -4, -24, -52, 52, 33, 9, -94, -72, -36, 100, 46, 54, -45, 91, 68, 56, 91, -58, -37, -79, -41, 79, -13, 35, 24, 14, -26, 7, -64, -14, 54, -70, -72, 18, -1, -74, -92, 60, -9, 25, -94, -12, 41, 18, -55, 31, -48, 43, -41, -2, -79, -60, 70, -94, 25, 42, 66, 31, -65, -56, 39, 59, -15, -3, -9, 106, 8, -91, -59, 22, 38, -59, 6, -65, 64, -38, -16, -88, 31, -74, -95, 47, -57, 94, -95, -41, -75, 64, 44, 62, -88, 99, -107, 50, 54, 73, -63, -94, -63, -95, 82, -25, 96, -4, 6, 7, -106, -48, -83, 5, -13, -42, -94, 40, 96, 66, 19, 100, -38, -75, 65, 32, -45, 37, 58, -14, -92, 17, 13, 36, 84, -2, -55, 63, -20, -70, -3, -6, 94, 25, -55, -96, -48, 87, -91, -40, 79, -21, 38, -77, 90, -36, 102, 26, 60, 2, -71, -58, 89, 98, -32, 43, -81, 33, 40, -31, 47, -34, -36, 16, -84, 29, 33, -29, 46, 93, -77, -44, -98, 63, 19, 48, -88, 65, 54, -27, 72, 37, 82, -77, -24, -91, 48, 77, -90, -60, 93, 40, -47, -96, 62, 43, -56, -52, 26, 1, 25, -81, -55, -45, -94, -76, -17, -40, 63, 63, -44, 88, -87, -98, 81, -2, 11, 101, 84, 30, 0, 74, 69, -92, 73, 64, -57, -14, 75, 18, -65, -77, 48, 31, 82, 15, 37, -86, 17, -20, 91, 72, 72, 58, -19, 63, 20, 34, 50, -56, -52, -61, 76, 20, -60, -54, -91, 89, 43, 27, -54, -104, 62, 53, 98, 2, -28, 93, -106, -68, -83, -63, -17, -66, 95, 48, -51, -76, 66, -8, 2, 89, 66, -38, 59, 69, 81, -43, -31, -68, -18, -79, -15, -94, -93, 20, -97, 43, -97, 3, -73, -59, 58, -66, -52, -66, -65, -93, 25, -25, 21, -2, -25, -18, -52, 54, -5, 26, 1, -66, -59, 63, 41, 78, 45, 79, -43, 23, -10, -27, -87, 21, -28, 13, -82, -101, -46, -43, -8, 26, -52, 68, 12, -14, 14, -81, -49, 102, 74, 59, -7, -23, -44, -19, 23, -44, 15, 44, -4, 29, -75, -40, 3, -56, -104, -6, 15, 24, -57, -3, -11, -16, -44, -62, -100, 2, 57, 58, -53, 22, 96, -16, 12, 11, 17, 34, 106, 7, -61, 71, 77, 38, -41, 51, -38, 54, -77, 52, -28, 80, 68, 80, 6, 51, 37, -39, 61, -45, -56, -3, 92, 79, -20, 81, 31, 34, -16, -91, -105, -43, 31, -33, -31, -28, -21, -93, 22, 78, 29, -57, 15, -94, 100, -13, -101, 25, 60, -66, -55, -51, 83, 
  68, -14, -91, -75, 46, -56, 65, 89, 101, -9, -80, 17, -77, 51, -62, 74, 34, 62, 1, 45, 105, -99, 58, -83, 13, -27, 101, 52, -54, -82, -53, 70, 54, -76, -20, -35, -91, -7, 61, -81, 54, 55, -98, -18, 38, -20, -55, -85, 37, -27, 54, -24, -19, -2, 55, -86, 11, 14, 12, -29, 97, -36, -17, 18, -29, 61, 22, -59, -32, -35, -5, -103, 8, 89, -18, -91, -89, 57, -52, -63, 44, -57, 38, -4, 9, 18, -27, -2, -83, 0, -74, 88, 24, -37, 105, 72, 33, 53, 37, 31, -102, -91, -54, -75, 48, -41, 93, 75, 9, -18, -50, 55, 8, -84, -66, -87, 50, 107, -24, 45, -54, 85, 106, -102, 93, 88, 28, 70, -88, -6, 59, -64, 20, 52, 53, 51, -52, 78, 62, 37, -15, 92, 97, 95, -86, 2, -88, 10, -38, 13, 45, -54, -36, 11, 42, 103, 60, -34, 83, -78, 9, 75, 23, 94, -5, -63, -45, -18, -38, -16, -84, -31, 4, -101, -34, 19, 63, -51, -53, -94, 64, -84, -2, 98, -59, 14, 55, -17, 48, -69, 9, 29, -36, 85, 1, -72, 23, -88, -75, -1, 97, -5, 18, -29, -89, -83, 29, 11, -101, 89, 77, -105, -38, -38, 65, 40, -94, 73, 91, -101, -10, 21, 53, -48, -65, 8, 9, -103, -74, -23, 3, 39, -42, 19, 104, -2, 66, 13, 73, -67, -73, 96, -97, -30, 25, -96, 10, -3, 91, -37, 24, 59, 89, -44, 62, -50, -88, 88, -106, -81, 41, -74, 10, -87, -49, 75, 69, -47, 40, 36, 39, 39, 70, -14, 5, 6, -30, -38, -72, -52, 64, -54, -47, 31, -64, 1, 21, -73, 62, -103, -39, -88, 101, 104, 90, -29, 82, -50, 63, -75, 80, 69, 31, -75, -8, -51, 5, -36, 97, 17, -56, 83, -64, 14, 89, -5, 100, 105, -16, 87, 4, -86, 4, 101, 74, 95, -106, 17, -63, 44, 36, 22, 24, -43, -46, 48, -67, -33, -12, -49, 91, 93, -20, -67, 85, 89, 41, -90, 58, 92, 40, 11, 81, -92, -64, -49, -56, 46, 88, -72, -76, -36, 8, 106, -53, 98, -27, -90, -36, -64, 10, -19, -95, -61, -23, -23, -92, -59, -96, -33, 19, -40, -53, 21, -50, -77, -59, -53, -35, 78, -86, 27, -68, 29, -38, 92, 92, 44, -17, -68, 63, -100, 73, 74, 101, -19, 92, 7, -25, 53, -26, 64, -106, 65, 58, -23, -54, 10, -19, -91, 91, -62, -46, -73, 11, -33, 18, -97, 41, 77, -22, -101, -3, -97, 103, -10, -8, -104, -19, -41, -82, 1, 104, -52, -32, 69, -19, -31, -35, 85, -3, -40, -22, 90, -3, -73, 1, 20, 6, 52, 58, 35, 18, -43, -34, 53, 62, 58, 87, 9, -34, -1, -95, -9, -52, -60, -33, 63, -6, -100, -54, -83, 44, 61, -9, 58, -23, 56, 35, -99, 69, -41, 69, 91, 66, 77, 74, -85, 103, 30, 19, -88, -36, 51, 46, -73, 52, 84, 57, 20, 38, -106, 62, 50, 101, 24, -21, -47, 55, -50, 0, -53, -85, -95, 97, -93, 16, 38, 68, 20, -74, 6, 43, -102, 90, -4, 7, -101, -51, -95, -31, 84, 66, 89, -2, -19, -72, -53, -7, -57, -98, 80, -71, -81, 32, -40, 106, 38, -6, 26, -35, -86, -77, -48, -20, -99, -57, 88, 41, 100, 25, -102, 7, 56, -51, 8, -85, 3, -84, 95, 37, -56, 14, 19, -3, 104, 23, 48, -85, -48, -55, -75, 14, -58, -82, 91, -80, -13, 16, 56, -73, -44, -75, -22, 75, -26, 88, -68, 96, -77, 62, -83, 35, -88, 98, 7, -35, 30, 89, -82, 94, 14, -40, 35, -7, 50, -17, -67, -79, 50, -100, 38, 55, 1, 11, 12, 48, 98, -15, -51, -16, 34, -56, 49, 37, -97, -85, -67, 101, -38, -101, 49, 30, -35, 32, 71, -69, -16, -59, -31, -23, -68, 30, 32, -58, 23, -5, -45, 49, 49, -50, 68, 91, -12, 69, -7, -104, -39, 88, 59, -16, -26, 94, -36, 46, 40, 78, 4, 19, -74, 64, 71, -51, 63, 86, -99, -95, -4, 72, -96, -24, -2, 8, 76, 63, 41, -21, 15, 33, -20, -40, -9, 105, 26, -20, 59, -22, 17, -75, 37, 69, 59, 32, -76, 77, 77, 13, -69, 18, -79, -86, -80, -4, 2, 20, 60, -19, 41, 72, -83, -107, 35, 40, -30, 40, 86, -10, 103, -34, -23, 0, 23, 37, -49, 61, 27, -68, -73, -39, -94, -47, -23, 35, 41, 95, 36, 50, -1, 61, -48, 64, -12, -94, -83, 14, -15, -60, 105, 84, -59, -9, -21, -102, -65, -39, -43, -18, -77, -66, -53, -7, -48, 9, 99, 95, 28, -54, -21, 66, 19, -75, -98, -92, 78, 95, 16, -78, 50, 102, -24, 25, 42, -64, -8, -103, -103, -29, -54, 62, 85, 24, 9, 78, -49, -53, -85, -19, -60, -48, -86, 27, 88, 94, 10, -30, -90, -80, -2, -48, -31, -19, 23, -7, 106, -46, 58, 98, -85, -55, -67, 73, 52, 21, 76, -69, -78, -14, -34, 9, 33, -11, 41, 89, 44, 99, -107, -94, 37, -98, -98, -89, -34, 67, -34, 74, 45, -23, 90, 54, -72, 54, -32, 97, -33, 61, -57, -74, 72, 35, -89, -29, 2, -17, -69, 15, -74, -91, -66, -11, 107, -103, 62, -96, -53, -95, 26, -34, -22, 25, 18, 53, -106, 11, -85, 14, -105, -72, -5, -69, -9, -105, -22, -34, 27, 76, 41, -81, -22, -48, -75, 91, 45, -34, 75, 46, 104, 100, -75, 40, 48, 49, 71, -37, -25, -46, -51, 106, 69, 32, 72, -47, -31, -91, 92, 90, 61, 85, 27, -44, 25, 82, -17, -29, -29, 67, 60, -20, 11, 74, 64, 4, -87, 18, -91, -25, 10, 62, -102, -3, -34, -35, -25, 55, 14, 93, -18, -43, 97, -89, -103, -37, 85, 19, -87, -19, 90, -98, -5, -44, 24, -99, 68, -10, 22, -50, -26, 106, 4, -98, 19, 59, 8, -38, 66, -12, 58, 13, -9, 69, 15, -39, -74, 31, -83, -53, -52, 70, -42, -27, 106, 12, 29, -97, -87, -61, 82, 75, -76, 56, 20, -82, 1, 99, -69, -57, -79, 101, 74, 49, 16, -37, 19, -68, 57, 10, 61, 24, 1, -6, -99, 52, 44, -9, -78, 34, 20, 31, -51, -47, -106, -26, -13, 47, -86, 101, -19, 64, 105, -60, -80, -32, -30, 24, -95, -1, 66, -22, 11, 95, 65, -26, -33, 24, 55, -44, 40, -21, 29, -32, 24, -29, 11, -5, -41, 54, 56, -62, 15, -94, -98, -14, -69, -63, 23, 71, 73, -97, -4, 18, -84, -7, -10, -45, -25, -27, 81, 70, -22, -78, 74, 5, 12, 62, -103, -104, 68, -28, -100, 74, -105, 77, -48, 56, -59, 32, -58, -13, -42, -96, 80, -41, -55, 64, 98, -14, 67, -13, -32, -93, 40, -48, -29, -103, -106, -76, -7, -62, -94, 70, 79, -87, -54, 78, -44, -20, -100, -46, -76, -103, -22, -92, -10, 38, -1, -102, -51, -48, 76, -71, 94, 11, -86, -38, 102, 88, -49, 96, 99, 83, -26, 16, -97, 19, 95, 25, 4, 85, 65, -21, 28, 10, 50, 96, 67, 73, 103, -82, -38, -67, -70, 3, 90, -88, -15, -56, 66, 91, 17, 95, 56, 11, -32, -33, -17, 1, 99, -90, 6, 44, 82, 16, -50, -78, 71, -65, 89, -59, 28, 70, -32, 38, 16, -90, -59, 3, 71, 54, 86, -97, -48, -34, -57, -27, -22, -90, 52, 22, -85, 19, -23, 107, 46, 38, 6, -9, 87, 66, -14, -101, 21, -53, 96, -24, -94, -57, 40, -94, 104, 71, 80, 89, -2, -68, 99, 45, 7, -43, 106, -72, 81, -88, -107, 84, -4, 26, -10, 82, 32, 73, 31, 50, -58, 63, -105, -35, 65, -107, -60, -29, 73, -16, -36, 69, 98, -92, -68, -5, -95, 52, -2, 2, -75, -40, 74, -72, -39, 12, -35, 33, -100, 105, 43, -97, 85, 93, -41, 0, 45, 66, -81, 55, 88, 74, -18, 58, 46, 7, 73, -67, 52, -9, 54, -53, -40, -90, -86, 92, -21, -1, -15, -59, 66, 37, 88, 62, -76, 74, 13, 87, -45, -28, -67, -90, -30, 64, -66, -22, 65, -58, 61, -21, -48, -17, -57, -61, -78, 81, 59, -55, 93, 12, 107, -45, 79, 80, -21, 6, -52, -102, -20, 59, 6, -23, -50, 80, 40, 96, -71, 38, 45, 75, -54, 3, -67, 63, -66, 22, -9, 8, 96, 65, 24, 0, 49, 39, 32, 79, 62, 9, -38, -65, -8, -103, -101, -91, 71, 46, -74, 16, -62, 76, -21, -44, 26, 40, 53, -25, 94, -100, -53, 23, 69, 31, -6, -71, 65, -101, 83, -22, -105, 28, -29, 76, 54, -77, 50, -17, 3, -20, -89, 32, 23, 50, -6, 2, 1, 52, -17, 28, 98, 54, 57, 80, 63, 34, -9, 75, -50, -39, -86, -21, -92, 74, -74, 60, 46, 14, -50, -85, -78, 13, -36, -25, 58, -13, -54, -30, -104, 4, -50, -106, 46, 11, -10, -13, 41, 32, -82, -49, -82, -6, -67, -93, -73, -106, -86, 0, 96, 95, -56, -30, 82, 78, -21, 65, 68, -19, -103, -34, 52, -34, 101, 21, 67, -71, -73, 32, 56, 59, 61, 46, 6, 7, 89, 85, -78, 1, 37, 78, 30, 100, 75, 100, -48, -94, 69, 52, 83, -18, 0, 89, 101, 86, 77, -87, 65, -12, 32, -44, -14, -57, 35, 45, -30, 53, -25, 40, 65, 30, -45, 
  -92, 51, -62, 57, -13, 60, -14, 97, 57, -95, 90, 82, 47, 70, 38, -19, -85, -55, 29, 62, -73, 42, -74, -44, 60, 49, -71, 60, 84, 73, -53, 48, 85, -51, 58, 9, 99, -102, 14, 66, -91, 59, 6, 79, 97, -78, -8, -63, 59, 45, -74, -9, -24, -109, 21, -88, -92, -109, -38, -15, 91, 40, 98, 80, -74, -99, 55, -96, -70, -100, 57, -61, -60, -80, 27, 34, -30, 109, 42, 107, 18, 65, 69, -37, -24, -89, -11, -45, 64, -48, 47, 34, -91, 16, 93, -36, -67, -25, 78, -29, -38, -14, 86, -65, -49, -11, 17, -29, 15, 32, -81, 21, -7, 73, 2, 90, -99, 0, 74, -10, -98, 80, 8, 34, -92, 7, 7, -59, 22, 30, -44, -99, -31, 88, -21, -56, -71, 18, 12, 74, 61, 72, 34, -36, 15, 20, -48, -75, -39, -83, -30, -71, 82, 89, -64, 39, 34, 105, -51, -83, -40, 43, 83, 60, -60, 24, -42, -78, 32, 10, -97, -43, -4, -92, 69, 51, 33, 43, 72, -109, -30, 72, 87, 78, -6, -108, -12, 71, 3, -58, -8, -80, 1, -68, 0, 96, -48, -76, -65, -50, -54, -29, -62, -37, 2, -6, 14, 74, 94, -5, -11, 87, -11, -28, -30, -45, -100, -10, -83, -65, 97, 35, 84, -27, 101, -105, 74, -106, -59, 18, -4, 96, -106, 86, -67, 33, -45, -9, 95, 99, -8, 31, 75, -98, -96, -34, 7, 16, -109, -43, -96, 40, -31, -98, 7, -37, -77, 87, 88, 40, -26, -72, 45, -51, -83, -21, 56, -57, -17, -63, 42, 103, 19, -63, -86, -26, 65, -40, -44, 5, 94, 102, 54, 25, 93, -63, 85, -63, -69, -12, -58, -80, -104, 69, -28, -69, 28, -55, -37, 35, -41, -26, 0, -99, 5, -4, 22, -20, 86, -44, 40, 34, 31, 59, 98, 38, 66, -56, -73, -83, -58, -73, -77, -94, -15, -58, 26, -86, -62, 60, 101, 75, 17, -3, 12, 99, 42, 98, 21, -60, 26, -64, -67, 38, 20, -7, -13, -87, -85, -31, 46, -98, -28, 42, 3, 49, 0, -32, 43, -87, 33, 13, -72, 5, 26, 25, 73, -46, -70, 74, 20, 11, -8, 78, 98, 21, 95, 16, 41, -19, -93, -37, -83, -68, 19, 18, -61, 2, -14, 100, 38, -10, -28, 88, -31, 67, 54, -73, 109, -51, -11, -28, 64, -49, -46, -106, -55, 29, 94, 88, 20, -49, 58, -50, 20, 39, 17, -20, 101, -87, -13, 84, -16, 47, 84, -97, -25, 13, -50, -17, 7, -90, 2, -42, 48, 78, -64, -38, -70, -33, 29, -22, 65, -13, 89, -25, 79, 8, -9, 28, 73, 44, 95, 31, 70, -2, -108, -10, -44, 10, -19, 88, -84, 71, 2, -89, -50, -55, 25, 68, 30, 76, -80, -74, 95, -67, 70, 18, 46, 85, -45, -6, -88, -34, 43, 11, -87, 69, -13, -55, -77, 8, 86, -70, 106, -6, -109, -35, 95, 26, 54, 69, 82, -77, -96, 67, -62, 42, -73, 36, 102, 102, -104, -57, 65, 77, -52, -42, 93, -40, -65, -13, 36, 71, 6, 45, -23, -53, -81, 23, -14, -107, 25, 89, -20, 7, 85, -104, 40, 56, -108, -53, -70, 62, 79, 26, -5, -8, 82, 11, -30, -27, -60, -62, -83, 103, 39, -79, -47, 86, -108, -7, 17, 7, -69, 49, 8, -42, 76, 95, -104, 48, -111, -58, 6, 92, -14, 55, 78, -66, -56, -7, 35, 91, 82, 19, 49, 40, 46, -43, -56, 21, 13, -96, -22, -59, 81, 75, -74, 39, 37, -17, -28, -45, -108, 26, -36, 80, -2, -100, 60, -91, -30, 17, 69, -36, 47, -53, 76, 24, 19, 62, -6, 95, -20, -90, 67, 83, 74, -84, -40, -91, -70, -82, -33, 72, -29, 91, -55, -69, -18, -10, 29, 24, -15, 1, -12, -98, -41, -108, 12, -96, 50, -32, 90, -12, -36, 31, 11, -41, 15, 46, 87, -42, 29, -32, 98, -12, 52, -27, 0, -26, 54, -13, 90, 46, -34, -86, -89, 39, -42, -95, -9, 97, -73, 13, 27, -91, 103, -106, 38, -103, -101, 52, -10, 94, -16, 69, -18, 77, -55, -27, -3, 80, -108, 22, -7, 40, -84, 90, 84, 40, 28, -68, -73, 20, 85, -76, -12, 42, -37, 8, 45, -109, 61, 70, 32, 80, 30, 91, 102, -5, -44, 39, 46, -107, -75, 8, -37, 98, -76, -72, 95, -102, 21, -100, -53, 2, 72, -15, -91, 95, -109, 19, 51, 11, 65, -83, -27, 37, 89, 75, 17, -92, 56, -46, -15, 18, 42, 51, 92, 10, 62, 65, -68, 59, -67, -25, 70, -92, -93, -78, 72, 38, -92, 50, 22, -19, -19, -15, -10, -84, -79, -105, 99, 80, 22, -73, 59, -113, -12, -57, -71, -87, -25, -31, -32, -72, -105, 62, 33, -100, -102, -31, 78, 33, -42, 64, 99, -78, 37, -13, -107, -45, -105, -69, 28, -41, -13, 36, -66, -15, -27, -8, 41, -84, -76, 23, 3, 83, 53, 0, -31, -16, -30, -80, -41, -82, -2, 60, -106, -91, 46, -67, 21, 30, -24, -68, -93, -57, -56, 64, 63, 61, 104, -103, 90, -11, 86, 78, 98, -81, -56, 87, -86, -73, -45, -60, -111, 78, 54, -33, 35, 86, -34, -81, -24, 34, -42, -33, -81, -9, -30, 30, -13, -83, -4, -7, -33, -88, 52, 33, -99, -81, -26, 58, -13, 53, -81, -51, -32, -95, -56, 30, -8, -14, 82, -68, -99, -65, 88, -71, -52, -39, 46, 18, -98, -92, -92, -1, 1, -93, 62, -69, -42, 62, 49, -36, -88, 63, -53, 26, 71, -24, 100, 99, -69, 10, 35, -39, -52, -109, 84, -51, -64, -102, -50, 62, 38, -68, 45, 47, -63, 87, 54, -101, -22, -60, 65, -83, -67, 22, 57, -3, -24, -49, 64, -1, 75, -85, -109, -21, 26, -47, -17, 83, -64, 56, 79, 26, 17, 112, -5, -81, -16, 101, 37, -30, 67, 99, -49, 50, 27, -50, -12, -14, -23, 97, 42, 62, -65, 6, 46, 49, 102, -79, 2, 24, 39, 71, 52, 46, 3, 79, 101, 87, -62, -14, 46, -29, -8, 37, -53, 39, -102, 49, -3, 86, 61, 38, 87, 38, 69, 39, 65, -3, 102, 29, 17, 101, 12, 71, 68, -14, 65, -26, -16, -32, 44, -13, -1, 19, -5, -52, -21, 29, 75, -24, -40, -1, 95, -54, -36, -10, 90, -12, 31, -107, 103, -59, 88, -78, -103, 57, -91, -72, 81, -12, 69, 95, -46, -94, -14, 66, 90, 35, -78, 14, -30, -70, -82, 98, 86, -59, -29, 4, 0, 90, 8, -10, -107, 84, -107, -65, -14, 9, -97, 3, -88, 105, -63, -88, 38, 51, 3, -81, 96, 17, -23, -29, 26, 61, 3, 66, -85, -99, -77, 59, -23, 74, 2, -108, -82, -64, 92, 72, -31, -66, 5, -15, 8, 79, 68, 78, 87, 6, -76, -3, -84, 95, -42, -8, 54, -23, 5, 84, -61, 64, -2, 23, -54, 35, 28, -39, 1, -106, 82, 36, -8, 19, 78, -63, -15, -72, -28, 54, 92, 63, -39, -73, 3, 99, 37, 34, 103, 49, 83, -91, -68, -51, 55, -78, 97, 88, -105, -31, -105, 20, 95, 83, 110, -64, 64, 79, -110, 29, -86, 19, 73, -105, -22, -45, 60, -38, -88, 79, 63, -90, -26, 6, -108, -9, -57, -12, -108, 79, 82, 70, -25, -67, -72, 21, 104, 15, 5, 27, 101, 19, -7, -32, 3, 83, -107, 64, -82, 5, -35, -94, 27, -75, 60, 83, -21, -62, 41, 73, -9, 63, -35, 62, 25, 73, -10, -44, -7, 2, 100, 90, -80, -38, 60, -37, 1, 27, -93, -86, 32, 57, 40, -70, 82, 81, -102, -75, 73, -6, -63, 93, 88, -18, -83, 1, 98, -62, 71, -65, -84, -84, 62, 16, -56, -8, 21, 85, -11, 83, -93, -26, 44, 81, -96, 56, 46, 31, -77, 65, 80, -51, 78, 38, 51, -4, 40, -25, -29, -91, 33, -53, 6, -45, -22, -40, -50, 88, 57, 59, 97, 95, -63, 67, 88, -85, -3, -82, 77, -15, -72, 47, -57, -87, 84, -63, -52, -21, 83, -62, 5, -15, -60, 52, 95, -40, 18, 42, 65, 79, 101, -23, 101, 30, 97, 48, -84, 14, 40, 71, -23, 8, -61, 54, -62, -45, -58, 26, -101, 45, 54, -80, 39, -83, 25, -78, -76, 44, 14, 48, -23, -39, -10, -21, 14, -43, 83, -26, -65, 26, 2, -83, -10, 35, -89, -79, -37, -99, -20, -12, 70, -103, -1, -73, -101, -17, -38, 81, -11, 94, 57, -43, 90, 71, -91, 71, 11, -66, -2, 60, 88, -66, -22, -57, 59, -42, -27, 25, 58, 85, 100, 76, -23, -41, 44, -11, 14, 90, -85, -63, -55, -45, 86, 33, -20, 100, 44, 86, -100, -4, -21, 56, 42, 82, 37, 95, -11, 91, 76, 75, -50, -11, 71, -36, -74, -38, 93, -14, -46, -2, 92, -35, -71, -86, 90, -72, -4, 85, 71, 89, -46, -101, 71, -55, 80, -79, 35, 63, -72, -28, 61, -15, 49, -12, -61, 103, 73, 34, -50, -48, 51, -56, 27, 99, 80, 86, 92, -104, -92, -99, 79, 66, -19, 60, -55, -73, 93, -10, -102, -99, -33, 76, -37, 96, 86, 13, 98, -26, -23, 12, -100, -49, -96, 68, 3, -38, -10, 114, -41, 66, -37, 63, 51, -34, 86, 81, 51, 69, -25, -76, -1, 70, -54, -35, -101, -24, -89, 27, -73, -29, -32, -70, 19, 17, -12, -80, 106, 81, 109, -76, -74, 27, -61, -86, 
  88, 24, 16, -64, -83, -76, 75, -12, -36, 63, -34, 19, -66, -46, -69, 51, 65, 72, -11, -24, -11, 98, -34, -17, -26, 0, 74, 72, -97, -82, 50, -74, 98, -72, -35, -50, -32, -100, 12, 63, 20, 27, -96, -39, 60, -64, 75, 58, -15, 74, 62, 79, -83, -29, -44, 102, 74, 77, 89, 59, -91, -85, 92, 90, 12, 63, -50, 107, -105, -30, -98, 31, 87, 37, 41, 45, -36, -28, -58, -48, 86, -98, 51, -69, 36, -63, 16, -75, 79, -38, -41, 0, 26, 71, 23, -2, 25, -21, -76, -81, -23, -92, 8, -29, 92, -58, -102, -29, -74, 35, -80, -11, -59, -3, 40, -8, -40, -70, -80, -13, 87, -33, -63, -17, -93, 8, 88, -87, -41, 46, -33, -14, 45, -20, -41, -23, 49, 52, -97, 69, 29, 19, 61, 6, 77, -99, 82, 18, -91, -96, -33, 49, -47, -70, 49, 101, 80, -54, 89, -83, -33, 70, -95, -23, -102, -68, 14, -34, 100, -33, -27, -101, -85, 65, 54, 12, -34, 58, -35, 33, -44, 8, 26, 35, 28, -87, -51, -72, 81, -62, 84, -44, 44, -62, -44, 82, -7, -20, -9, -63, -70, 97, 15, -98, -77, -89, -24, -16, -54, 11, 85, 59, 31, 38, 76, 27, -11, -101, 53, 56, 16, -18, 22, -27, -55, 77, 3, 85, -41, -30, -64, -29, 46, -40, 100, -61, -45, 111, -37, -48, 109, 85, -90, -81, 70, -57, 45, -23, 96, -104, 99, -92, 47, -99, 8, 106, 73, -10, 57, 20, 0, 93, -95, 70, 65, 74, -88, 96, -37, 98, 30, -56, -50, 60, -67, -3, 22, -39, 32, 41, 83, 19, 22, -13, 51, -5, -20, 30, 64, -103, 48, 32, -77, -64, 67, -32, -82, 42, -65, -108, 33, -38, -14, 47, -2, -3, -87, 72, -61, -54, -66, -83, -19, -19, -9, 75, 47, 22, 88, -101, -85, 9, 68, 42, -41, 45, -84, -15, 114, -62, -38, 78, -89, 77, -35, -90, -62, 101, -9, 92, 25, -67, -37, -70, 98, -16, -32, -73, 85, 75, -57, -100, -104, -103, 108, -43, 81, -94, -68, -66, -103, -28, -81, -63, -6, 87, -114, -49, 8, -82, -51, -32, -74, -100, -23, 3, -25, 85, 28, -85, 21, 36, -33, 15, -84, 44, 5, 4, -12, 5, 22, -77, 107, -54, -82, 10, -28, 43, 42, -16, 102, 52, 0, 56, -42, 4, 14, 59, -92, -86, 49, 5, 36, 6, -102, -1, 67, -55, -29, 10, 5, 51, 8, 86, 101, -88, 98, 68, 23, -74, -73, -7, -41, 58, -11, 60, 39, -58, -2, 99, -4, 48, -3, -104, -93, 83, -77, -64, -1, 9, -67, -53, -91, -30, 77, 106, 22, 52, 33, 19, 89, 63, 47, -72, -58, 21, 23, -39, 60, -72, -6, -62, 43, -48, 79, -31, -96, -94, -61, -25, 41, -38, 50, -53, 4, -60, 28, -90, 11, -100, 60, -98, 107, -6, 78, -13, -84, 28, -44, 64, 62, -45, -30, -90, -14, -58, 92, 93, -83, 83, -96, 89, 54, -12, -93, 26, -11, -56, -22, 62, 30, 29, 92, -40, 102, 80, -108, 71, 95, 23, -39, -49, -29, 68, 19, 28, -34, 51, 108, -20, -52, 57, -71, -54, -35, 3, -33, -55, -99, -76, 4, 104, -52, 29, 83, -47, -35, -103, 57, -72, -70, 36, 89, 8, -51, -97, 53, 98, -97, 51, -49, -94, -19, 29, 75, -59, 91, -70, 28, 58, -73, -97, -104, 55, -54, -92, 49, -85, 42, -58, -49, 38, 112, -50, -95, 79, -62, 81, 3, 58, -92, 83, -102, 23, 37, 4, -97, 8, 5, -59, 53, -24, -56, 37, 80, 62, 52, 93, 102, -62, -39, 15, -78, 100, 33, 67, 47, 59, -72, -33, 53, 96, -26, 90, 22, -14, -92, -32, 110, 65, -45, 59, 6, -68, -88, -57, 13, -32, -116, 88, 81, -25, 96, 66, -22, 75, -91, -83, 52, 37, -95, -32, -100, 27, -54, 38, 30, -24, -42, -95, -92, -96, -73, 72, -98, -96, -11, 58, 25, -36, 77, 98, -66, -90, 68, 90, -78, -4, 92, 67, 77, -81, -26, 50, 31, -80, 32, 94, -2, -89, 74, -55, 25, -99, -51, 35, -29, 78, 98, -81, 74, -39, -56, -80, 2, -65, -75, 69, -30, -111, 93, -73, 85, 14, 109, 18, 58, -74, 38, 82, -89, -105, 38, -22, 107, -48, 25, 85, -98, -102, 12, 16, 96, -29, -52, 4, 0, -67, -21, -72, -97, -107, 46, 52, -17, 29, 101, -34, 11, -74, -3, -82, -106, -3, -69, 102, -38, -74, -9, 33, 110, -29, 12, -47, 92, 9, -51, 79, 74, 41, -9, -32, -18, 53, 91, -89, 4, 89, -62, -71, 49, 15, 44, 25, -100, 70, -89, 70, 20, -69, -28, 82, 8, -36, -40, 22, -38, -59, 57, -45, -46, 39, -2, 65, 17, -18, -3, -102, -24, 61, -79, 56, -65, 79, -105, 52, -92, 50, -29, 22, 59, 58, 76, 32, -10, -65, -31, 108, 68, -77, -32, 34, -67, 39, 90, 21, 104, 51, 88, -4, -5, -33, -33, 19, -29, -43, 64, -94, 107, -111, 90, -7, -27, 34, -19, -65, 17, 102, 36, 110, -40, -94, -24, 84, -95, -33, 73, -87, -85, -28, -19, -103, 55, -35, 59, -72, -8, 0, 6, -2, -5, 10, 34, -1, 25, -72, 93, -59, -59, -77, -93, 5, 91, -10, 16, 51, -37, -36, 102, 105, 47, -92, -51, 50, 110, -25, -22, 54, 59, 57, -91, -97, 71, 9, -21, 58, -46, 66, 57, 35, 80, 17, 4, 46, -86, -79, 87, -51, 51, -30, 97, -20, -81, 74, -23, -32, -18, -44, 97, 0, 37, 39, -20, -28, 71, -5, 19, 111, 111, -15, -75, 97, 57, 57, -91, 74, 18, 52, 91, 25, 73, 22, 34, 46, -82, 11, 54, 93, -80, -62, -80, -39, -12, 94, -76, -47, -70, -61, 43, 67, -33, -35, -44, -30, -20, -34, -85, 90, 0, 24, -105, 105, -40, 5, 86, 45, -66, 3, -58, 109, -83, -72, 89, 77, 84, 107, -109, -67, 28, 50, 25, 42, -31, 24, -43, -33, 49, -78, -7, 86, -41, -87, 43, 24, 31, -94, -63, -62, -90, 90, 77, 58, -62, -88, -33, 49, 64, -102, 10, -36, -11, -67, 32, 53, -66, -25, -90, 97, -68, -75, -60, -93, -82, 83, -39, -24, -11, -41, -38, 38, -41, 93, 40, -44, -34, 36, -8, -98, 32, -60, -16, -48, 53, 32, 36, -13, 50, -87, 33, 29, 80, 39, 7, 78, 14, 64, -95, -53, 86, 46, 4, -99, 105, -69, 4, 4, 14, -61, -37, -25, -82, 18, 30, -12, -28, -43, 104, -50, 97, -46, 23, -34, -81, -12, 86, 7, 60, -81, -42, -15, 96, 34, 70, 60, -75, 17, -31, 28, -5, 20, -88, -68, -3, -9, 99, -69, -1, 1, -26, -95, -41, 41, -71, 5, -73, -38, 94, 3, 67, -16, -104, 92, -14, 90, -11, -66, 11, -55, 80, 2, -77, -57, -42, -7, -1, -63, 18, 18, 77, -52, -43, 93, 64, -80, -39, -26, 24, 8, 30, 42, 85, -51, -47, -65, 77, 60, -17, -63, -50, 24, -22, 69, 75, 24, -35, -33, -54, 74, 68, -34, 26, -61, -100, -22, -22, -104, 32, 53, 73, 74, -61, -29, 36, -94, -68, 76, -95, -92, 96, 67, 83, 35, -18, -96, 93, -99, 104, -27, -26, -58, 31, 13, 108, 63, -32, 91, -111, -70, -20, -86, -25, 18, 15, 27, -83, 51, 54, 78, 76, 80, -4, 100, -63, -96, 103, -4, 54, 73, -82, 37, -81, -37, 4, 102, 78, 50, -90, -74, 22, 83, -12, -81, 8, -3, -42, -6, -103, 83, 87, 1, -24, 80, -94, 99, 5, -100, 31, 13, 37, -81, -54, 76, 65, 93, 1, 96, -47, 79, 0, -18, 80, -68, -94, -57, -90, -16, -53, 97, -19, 61, -67, -43, -31, -75, 103, 92, -55, 25, 3, -14, 46, -96, -67, 84, 99, 48, -68, 67, -28, 70, -21, -23, -10, 0, 106, -48, -8, 21, -93, 106, -98, 95, 86, -1, -48, -92, -52, -3, 16, -23, 63, 50, 9, -23, -80, 106, 65, 53, 10, 43, -62, -86, 74, 84, -4, -100, -20, 39, -71, -48, 99, 107, -61, 83, -106, -33, -57, 55, -87, -83, 17, 7, -69, 103, -68, 87, 95, -70, 58, -81, -101, 77, 74, 39, -98, -70, 82, -88, -93, 49, 92, -21, 22, 5, -59, 85, -55, -66, -71, 35, -67, -60, 1, 42, -85, 79, 8, 5, 63, 99, 47, -40, -96, 75, -78, 95, -45, 53, -27, -76, 17, -55, -18, 47, -9, -6, 81, -18, -25, -33, 88, -51, 62, 10, 29, -28, 44, -96, 85, -47, -27, -81, -103, 103, -74, -58, -27, -102, -54, 70, 75, 38, 106, 24, -36, -66, 47, 14, -78, -46, 68, -97, 44, 3, 100, -45, -29, -9, 99, -69, -2, -11, -20, 65, 55, 45, 82, 91, -25, 5, -76, 45, -4, 106, 88, -38, 79, -60, 18, 84, 30, 24, 46, -30, 4, -42, -3, -92, 70, -87, 34, -17, 28, 88, 47, 61, 10, -55, -53, 40, 22, -6, 36, -41, 102, -101, -36, -4, 67, -83, -68, 85, -24, -74, 30, 100, -41, -12, 105, 37, -58, 73, -92, -78, -45, -58, 35, 51, 80, -86, 99, -12, -23, -108, -64, 48, 25, 9, -62, 43, 4, 31, 106, 33, 32, 104, -70, -29, -103, -77, 96, 10, -36, -2, 8, -68, -30, 65, 22, -70, 81, 77, -36, -71, -25, 66, 12, -13, 51, -54, 
  -36, 75, 15, -8, -39, -90, 8, 103, -41, 21, -95, -39, -106, 49, 12, 3, -100, 26, -36, 4, -86, -93, -12, -54, 78, -32, 33, -15, -51, 104, -26, -6, 77, -69, 21, -103, 68, -66, 41, 91, 73, 36, -69, -29, 18, -106, -83, -66, -7, 63, 91, -20, 32, -47, 45, 60, 36, -17, 63, 8, 27, -104, 67, -79, -33, -5, -41, 80, 89, 44, 96, -51, 72, -81, -102, -69, -13, -20, 66, 5, -86, 35, -55, 80, -12, -83, 28, -10, 105, -22, 16, 7, -65, 78, 3, -5, -17, 30, -5, 61, -19, 29, 81, -65, 23, 11, 106, -70, 36, 54, -12, -5, 27, 57, 71, 16, 47, -84, 25, -69, -105, 53, -78, 16, 4, 94, -20, -36, -56, -100, 4, 31, -71, -40, 18, 89, 47, -86, 85, 97, 57, -7, -3, -56, 11, -64, 89, 94, 89, -52, 78, 23, 37, -99, 78, -7, -34, 76, -45, -3, 56, -109, 49, -89, 66, -106, 97, -61, 58, 5, -2, 90, -92, -3, -91, 32, -87, -35, 100, 47, 85, 33, -106, -83, -15, -61, 9, -51, 102, -93, -59, 108, 50, 9, 23, -71, 92, -9, 72, 4, -11, 36, 78, 70, -99, -85, -85, -31, 13, 66, 39, -42, -45, -44, 64, -91, -67, 87, 29, -99, -71, 101, -40, -52, 75, 31, -102, -30, -79, 79, -17, 75, 49, -49, -89, 18, 22, -19, -59, -44, 70, -101, 21, 15, 34, 37, 90, 34, -46, 9, 49, -27, 38, -35, 6, -100, 7, -105, 56, -9, -87, 53, -42, -49, -11, 103, -94, 103, 42, 16, 7, -84, 81, -58, 5, 52, -28, 14, 100, -45, -70, 53, -91, 43, 30, -2, -58, -84, -11, 15, 27, 10, -85, -11, -15, 84, -85, 98, -89, -64, -90, -93, 103, 20, -41, -70, -111, -54, -77, -33, 101, 102, 0, 12, -64, 91, -33, 95, -7, 36, 44, -91, 66, 82, 75, 103, -15, -83, -4, 35, 40, -17, 61, 62, 89, 42, -9, -94, 53, -107, -15, 44, 11, -90, -77, -35, 108, -31, 94, 91, -10, 46, 41, 89, -3, -76, -28, -92, -108, 81, -14, -43, -9, -76, 56, 11, 22, 0, -36, 12, 34, 85, -65, 62, 86, -67, 98, -6, -29, -10, -69, -56, -85, -13, -97, -112, 51, -11, 38, 49, 93, 20, 54, -89, -24, 72, 57, -66, -64, 76, 89, -98, 32, 2, -66, -15, -43, -6, 28, -26, 108, -88, 21, -72, 7, 80, -40, 72, -8, 63, 88, -71, 43, -49, -90, -4, 106, 11, 11, -49, -17, -72, 69, 82, -48, -96, -80, -99, 88, 34, -10, 85, -37, -81, -55, 69, 1, 11, -51, 88, -11, -47, -66, 86, 62, -49, -43, -27, -100, 31, 0, -39, -97, -17, -64, 32, 89, -22, -90, -105, 48, 90, -42, -34, -27, -63, -105, -67, 58, 30, -72, 53, 38, 30, 81, 105, -4, -46, 15, -103, -99, 51, 98, -64, -4, -15, -96, -26, -106, 73, -100, -101, -89, 13, 85, -72, -11, 104, -61, 37, -87, -45, 99, 9, -71, 3, -50, 67, 21, -45, 40, -11, 68, 71, -96, -19, -89, -100, 57, -43, 52, 99, 78, -52, 31, 55, -109, -53, 25, 31, -108, -89, -27, 10, -64, 37, -99, -66, -64, 46, 71, 0, -88, -44, -87, 79, -33, -52, -27, 43, 42, -62, -5, -110, -52, -36, 84, 2, 69, 14, 6, -68, -83, 42, 97, -83, 63, -105, 87, 31, 81, 17, -28, -108, -89, 7, -53, 16, 48, -22, -32, -55, -26, 80, 69, -15, 31, 93, -1, -44, 23, 22, -8, 78, -47, 53, -1, 18, -61, -89, 100, 63, 41, -41, 31, -27, 50, -94, 22, 90, -87, 71, -11, -48, -41, 99, 102, -76, 81, 99, -5, 103, 43, -22, 84, 63, 32, 72, -60, 27, 16, 8, 38, -2, 83, -108, -104, 59, -12, -6, 104, -81, -32, -17, -99, -89, -18, -65, -5, -99, -100, 61, 30, -27, 2, -83, -90, 47, -3, -86, 37, -49, -103, 54, 21, -7, -1, -4, 88, -96, -54, -37, 64, -86, 21, 51, -89, 59, -64, -109, 59, -37, -87, 44, 102, -10, -65, -40, -85, -56, 26, 61, 48, -5, 28, 85, -47, -105, 18, 40, 22, 50, 58, 52, -5, -16, -84, -54, -65, 0, -50, 17, -87, -109, -54, -53, -73, 72, 43, 68, 107, -58, 61, -104, 67, 45, 97, 39, 75, 70, 42, -80, -103, 45, -46, 71, 99, -54, -54, 72, 7, -4, 87, -64, 19, -46, 15, -34, 31, 15, -75, 82, 16, -5, -44, 45, -28, 83, 7, -63, 33, -66, 59, -51, -9, -96, 95, -95, 71, 4, 53, -55, 39, 18, -48, -93, 71, -96, 11, 72, 49, -56, -54, -112, -52, -20, 66, -19, 81, -95, -103, 24, 103, 59, -90, 3, -39, -93, 101, -47, -51, 29, 63, 85, -39, 96, 47, -32, 75, 59, -11, 56, 42, -25, -23, -109, 36, 62, -11, -52, 89, -61, 98, 78, -78, 34, 101, 63, 86, 55, -85, 22, 99, -108, -74, -25, 22, -36, 30, 78, -87, 34, 63, -63, 96, -97, -78, 58, 37, 97, -4, -37, 14, -58, -3, 6, -93, -97, 78, 18, -88, 62, 46, 97, -47, 77, 29, -68, 34, -74, -7, 24, -9, 66, 7, 73, -37, -40, -44, -94, -7, -107, 100, 50, -61, -41, -26, 39, -8, -67, -3, -24, -26, 8, -96, 64, 92, 13, -108, 5, -46, -96, -86, -66, -99, -69, -6, 7, 97, 81, -98, 95, 97, 64, 91, -36, -70, -16, 61, -11, 12, 52, 57, 67, -37, -14, -60, 64, 95, -45, -63, -95, -26, -97, 13, -69, -81, 49, -98, -37, 45, 68, 90, 26, 25, -27, 0, 79, 59, -13, -103, -14, 54, -34, -53, 44, -58, 8, 58, 18, -72, 41, -106, -94, -71, -33, 25, 52, -79, 28, -38, 39, -46, -75, 45, 28, -8, 8, 77, 52, -87, -39, 25, 30, 71, 76, 57, 69, 71, -16, 33, -77, 55, -25, 31, 3, 77, 8, 88, 46, -105, 59, 71, -39, -41, 93, -82, -10, -63, 75, 72, -69, -100, -12, -16, 52, 96, 2, 42, 49, 94, 25, 7, -22, 33, -54, 88, -93, -59, -35, 36, 75, 92, -101, -79, 94, -58, 89, -3, 13, -105, 79, 45, -101, -12, 18, -66, -36, -9, 63, -60, 67, 48, 46, -38, 35, 87, -66, 90, -99, -100, -4, 35, -59, 33, 12, 35, 21, 71, -71, -28, -84, 8, 65, 69, 9, 88, -48, -72, -84, 45, 10, 18, -89, -2, -75, 95, 47, -90, -70, 77, 101, -43, -60, -15, 27, -53, -100, -87, -4, -39, 20, 34, -73, 65, 102, 97, 4, 48, 39, 3, -72, 71, -73, -35, -101, -44, 51, -33, -2, -44, 19, 30, 35, -104, -34, -90, -82, 35, 94, -68, -5, -108, 48, 35, -60, -73, -18, -88, -2, -11, -42, -15, -14, 39, -66, -105, -54, -77, -77, 46, 90, -23, -10, -4, 101, 89, 60, -55, 30, 44, -93, -102, 31, -90, -9, -82, 61, -81, 14, 83, -52, -9, 7, -38, -80, -81, 73, 16, 85, 20, 67, 84, -76, -98, 1, -28, -52, -37, 25, -41, -61, -100, -18, -104, 94, -25, -67, 18, 76, 108, 41, -10, 18, 74, -52, 90, 100, -6, 43, -78, 64, 49, 88, 25, 47, 58, -62, -4, -6, -25, -74, 46, 84, 25, -12, -35, -13, -102, -26, -60, -44, 12, -36, -86, 20, 103, 23, -26, -75, 13, 24, 92, 91, 50, 23, 7, -100, 27, -54, -1, 98, 85, -57, 76, -25, -60, -27, 77, -33, 32, -60, 67, 41, -67, 89, -78, -72, 66, -47, 19, 19, 78, -10, 67, 30, -39, 9, 97, -55, -80, -102, -93, 3, 49, 70, -3, 84, -70, 84, -38, -75, -81, 24, -7, 16, -12, 58, -54, 103, 68, -100, -46, -62, 62, 16, -31, 13, 18, 64, 12, 38, 80, 64, -96, -26, -95, 102, 102, 57, -26, -59, -50, 14, -1, -66, 96, -58, 52, -62, 9, 5, -16, -96, -17, 17, -38, 96, 56, 32, -6, 38, -10, 11, 14, 61, 16, -91, 109, -45, -104, 58, 42, 50, -5, 72, -40, 19, 16, -27, 10, -1, -48, -83, 60, -93, -79, -83, 84, 4, -89, -41, -41, -85, -72, 13, 88, -46, 37, 69, 98, -21, 80, 57, -83, 61, 39, 28, -79, -29, -26, 6, -87, 43, -26, 54, -21, 108, -90, -11, 94, -107, -33, 28, -47, -67, 14, -55, -32, -79, 106, -35, -50, 6, 55, -49, -45, -12, -83, -67, -101, 102, 5, -84, 51, 1, -36, -52, -11, -47, 4, 28, 5, 69, 51, 43, 84, -94, 30, -41, -39, 55, -98, 18, -89, 77, -75, -58, 29, 38, -52, -34, 11, -102, -51, -18, 73, 30, -29, 2, 53, 15, 99, -87, 67, 90, -60, 70, -69, 14, -96, -61, 68, 106, -46, 76, -12, 0, 58, 91, -70, 7, 82, -98, 100, 54, 1, -36, 77, -12, -100, 51, 13, -99, 81, -75, -71, 80, 22, -73, -7, -85, 92, 36, -4, -90, -86, -50, -78, -23, -7, -5, -63, -6, 30, -82, 17, -95, 94, 37, 86, 34, 104, -88, 43, 50, -103, -73, 3, 56, -5, -35, -68, 24, -94, 60, -72, 55, -59, -72, -87, 11, -65, 74, -3, -8, -44, -58, 57, -42, 21, -65, 17, -2, -65, -55, -82, -4, -73, 92, -62, 66, 100, 8, 96, -49, -54, 36, -95, -73, -34, -87, 18, -51, -62, 3, 82, -31, -106, -91, 103, 20, -7, -40, -37, 86, -34, 58, 77, -58, 
  49, -32, -40, -60, -68, -105, -37, 73, -39, 7, -2, -10, -1, 64, 40, -15, -45, -56, 102, 80, -52, 18, -49, 66, -44, -12, 108, -90, 83, 29, 69, -97, -1, -15, -85, 59, -98, 42, -87, 104, -13, 21, -6, 3, -55, -90, 100, -55, -13, -25, -72, 85, -94, 63, 32, -14, 7, 86, 60, -39, -68, 11, 73, -62, 48, 26, -97, 65, -81, -59, 16, 92, -33, 47, 33, 62, 47, 83, 44, -45, 77, 63, 3, 29, -63, -32, 64, 25, -51, -47, -74, 66, -45, 97, -36, -100, -52, -66, -96, -12, -66, -62, 3, -32, 100, -19, -13, -72, -59, -6, -6, 59, 68, -107, 24, -26, 57, -44, -91, -39, -58, 20, -85, 0, -42, -87, -10, 48, -32, -91, 43, -102, -12, 48, 69, 81, -88, 44, 76, 105, 38, 61, -41, -104, -80, 9, 71, -96, 80, 65, -75, 86, -9, 87, -40, -98, 17, -44, 71, -51, 98, 34, -24, -77, 63, -47, -44, 56, 73, 19, -103, 76, 65, 105, 49, -86, -105, -46, 37, -26, 72, -38, 89, 2, -48, -99, 59, -87, -83, -96, 62, -62, 68, -32, -92, -33, 62, 90, -23, -4, -65, -61, -28, -55, -13, 95, 109, 10, 8, 95, -18, 44, 83, -51, -102, -54, 4, -8, -48, 35, 11, 104, -3, -20, 25, -85, 28, 103, 104, -44, -35, -4, 60, -58, -64, 69, -2, -101, 3, -85, -49, -22, -4, -74, -88, 44, 41, 87, 90, -109, -78, -38, 8, 76, 4, -58, 87, 45, 97, 23, 97, 80, -108, 90, 70, 36, -76, -62, 0, 73, -60, -68, -78, -36, 65, 14, -49, -77, -85, 80, 77, -49, 42, -91, -68, -12, 6, -97, -44, -86, 13, -13, -28, -91, -100, -33, 65, -30, -104, 84, -66, 27, -96, -96, -7, 32, -30, 29, -70, -108, -45, 62, -80, -60, 34, 32, 37, -79, -22, -102, -16, -88, 79, 100, -51, -58, 88, -79, -107, 51, 44, -44, 27, -72, -57, -103, 30, 81, -45, -88, -3, -26, 73, 28, 104, -42, -11, 53, 17, 67, 72, 37, 71, 101, -54, 18, 47, -11, -25, 65, -46, -44, -96, 45, -94, 104, -23, 16, 86, 53, -57, 13, 47, 18, -62, -42, -68, -59, 68, 44, -97, -60, -35, -76, 31, -59, 43, 20, -48, -80, -69, 52, 14, 14, 2, 51, 56, 38, -79, 82, 10, 8, -86, -104, 85, 24, 100, 97, 22, -45, 100, 71, -34, 37, 70, 50, -84, 63, 42, -109, 54, 37, 78, -64, -108, 60, -77, -11, -50, -8, 8, 47, -66, 60, -52, -23, -80, 11, 92, -6, -61, 83, -73, -88, 60, -18, 23, 60, -105, 91, -43, 49, -3, 11, -39, -64, 98, -84, -95, -61, 75, 8, 37, -79, 9, 9, -17, -7, -54, -104, -16, -1, -91, 82, 78, 32, -71, -4, 37, 96, -43, -73, 9, 46, 63, -1, 72, 71, -51, 10, 75, 38, 101, -18, -101, 48, -4, -19, 1, -97, -55, -7, 54, 11, 83, -15, 1, 17, -70, 76, -73, 71, -67, -14, 10, -52, 24, -28, 103, 73, -61, 53, -44, 8, 99, 81, 81, -52, -42, -3, -75, 74, -71, 61, -39, 1, 18, -59, 75, -9, 38, -70, 42, 42, -39, -10, 6, 26, 86, 28, 23, 14, -55, -9, -40, -22, -81, -64, 60, 73, 36, -50, 27, 18, 58, 102, 20, 14, 74, -104, 87, 89, -89, -29, -65, -71, 78, -20, 34, 54, 14, -18, -83, 16, 78, -61, 79, -63, 63, 75, 102, -87, 77, -61, 102, -71, 38, 80, 57, -39, 101, 40, -91, -48, -86, -43, -74, 10, -48, -46, 40, -81, 23, -11, -106, -85, 43, -84, 106, 68, -94, 87, -16, 68, 49, -3, 65, 49, -49, -19, -40, -13, -47, 72, 50, 58, -83, 48, 32, -49, -87, -40, 54, -64, -107, -43, -17, 0, 48, -40, 82, 34, 94, -99, -55, 44, -32, 43, 10, 60, -67, 85, 102, -101, 27, -52, 49, 33, -59, -105, 33, 53, -88, -82, 88, -13, -102, -6, 69, 16, 13, 17, -50, -75, 47, -11, -86, -43, -88, 93, -80, 20, 62, -98, -106, 84, -30, 64, 47, -102, 63, 75, 32, 103, 36, 90, -39, -9, 45, -65, -61, 37, -71, 10, 35, 22, -25, -26, 6, 15, -82, 86, -88, -47, -69, -88, 23, 86, 85, 93, -79, 58, -48, -99, -21, -80, -29, 52, -24, -13, 0, -9, -33, -70, -35, -38, -75, 43, 92, 69, -97, 77, 2, -89, -98, -4, -85, -47, 12, -30, 13, 105, 61, -7, 5, 61, -40, 102, 90, -76, -21, -31, 92, -8, -99, 35, 26, -90, 108, -37, -13, 30, 6, -75, -88, -87, -88, 84, 93, -77, -91, 67, -5, 76, 62, 13, 73, 29, -104, -81, 14, -43, 65, 19, -51, 82, 5, -21, -88, -49, -60, -80, -78, -43, 100, 87, -98, -22, -23, 37, 67, 82, 9, 10, -84, 25, -27, -88, 9, 9, 25, -26, 76, -1, -44, 87, -65, -5, 91, 14, 67, -46, -1, 83, -93, 101, 49, -12, -64, -3, 56, 16, 32, -87, 85, -2, -41, 82, -73, 84, -74, -53, -95, 47, -77, 83, -31, -71, 58, -73, 94, 95, -32, -63, 52, -67, 63, 5, 61, -65, -100, 37, -65, -58, 14, 59, -101, -18, 52, 7, 76, -43, -73, 55, -69, -18, -35, 53, -64, 15, -30, -76, 83, -54, 88, 32, -11, -5, -108, 25, 41, 7, 56, -2, 46, -53, -57, 39, -90, -80, 8, 97, 66, 31, 91, 34, 72, 47, 13, -8, -48, -83, 93, 49, 76, -26, -14, 91, -44, -20, -10, 15, -49, -72, 5, -66, -59, 26, -41, 55, -22, 31, -43, -24, 14, -65, 74, -63, 11, -99, 91, 70, -32, 49, -86, 32, -67, 67, -43, 61, 54, 16, -66, -70, -94, 69, -94, 38, 44, -99, -17, 71, -29, -50, -93, -63, 28, 83, -80, -53, 25, 104, 52, -45, -107, -104, -64, -25, 97, 20, 102, -95, -78, 21, -66, 29, -87, 106, 6, 16, 11, -103, -37, -105, -4, -38, 100, -98, 0, 26, -92, -39, 57, 96, -49, -83, -107, 86, -49, -77, -87, 22, 10, -32, -33, 62, -44, 57, 10, -11, 1, 57, 104, -12, 30, -44, -88, -40, -29, 48, 108, -90, 89, -41, -33, 20, 80, -17, 21, -8, 35, 48, -24, -94, -27, -29, -87, 54, -36, -3, 60, -23, -47, -35, 67, -21, -79, 45, 78, -38, -95, 74, -55, 94, -102, -45, 20, -3, 86, 52, 74, 14, -56, 70, 36, -105, 68, -14, 9, -46, -13, 21, -102, 48, -109, 43, -28, -32, -99, 1, -64, -4, -93, 52, -38, -37, 15, 33, 80, -86, -53, -29, -31, -64, 88, -50, -17, -50, -84, 50, 37, -71, -17, 106, 25, 31, 84, 73, 23, -103, 22, 91, 93, -52, 76, -15, -18, 24, -61, -78, 81, -41, -69, -49, -47, 41, 17, 53, 20, -34, -92, -73, -57, 24, 15, 108, 71, -55, -63, 43, -58, 83, 59, -55, -44, 98, 85, 35, -79, 75, -26, -36, -79, -19, -78, 79, 7, -75, -56, 92, -65, -33, 44, -69, -14, 3, -7, 81, 27, 65, 37, 84, 78, -68, -15, 4, -81, -72, 9, 50, -45, 34, 27, -88, -91, -74, 48, 97, 76, -41, 84, 20, 46, 2, 57, -25, 86, -3, -53, 23, 8, -62, 15, 57, 10, -19, 78, -68, 28, -10, 103, 29, 2, -21, -89, -70, -12, -18, 86, 2, -39, -42, -86, -88, -36, -97, 93, -28, 68, 14, 47, 91, 70, -41, -84, 99, -12, -58, 92, 97, 44, 53, -15, -63, 85, -61, -82, -17, 19, -11, 81, 18, -94, -63, -27, -97, 10, 77, -77, 22, -58, 73, 8, 19, -20, 68, -11, -3, -69, 101, 63, -5, -99, 35, 98, -102, 58, -98, -41, 71, 57, -23, 32, 52, -98, 63, 43, 65, -57, 45, -93, -101, 55, -46, -68, 9, -104, -15, -61, -43, 88, 89, -53, 79, -6, 0, 74, -109, 7, 68, -92, -53, 21, -2, 89, -47, 13, -42, -73, -82, -106, 67, 92, -16, 102, -56, -37, 54, -28, -25, -42, -68, 81, 11, 66, -7, 55, -51, 10, -81, 81, 5, -106, -69, 2, -2, 33, -57, 98, -64, -42, -82, -52, 5, -79, -81, -31, -56, 8, -93, 32, -65, 52, -86, -106, -2, -102, -88, -51, 94, -87, -57, -23, -98, -13, 68, -56, 103, 21, 50, 50, 27, -98, 82, 95, -54, 77, 2, -85, -31, -84, -19, -5, -28, -17, -55, 97, 50, 84, 101, 61, 83, -51, -42, -4, -103, 38, -62, -35, 67, 24, 64, -85, 30, -72, -31, -49, 57, -55, -23, -42, 1, -66, -38, 91, 90, 97, -50, -48, 99, -84, 4, -82, 71, -53, 5, 71, -34, 87, -93, -50, -58, -33, -88, -55, -37, 74, 23, 24, 54, -98, -74, -67, 23, 87, -83, -65, 91, -33, 27, 34, 87, -83, -8, 82, -83, -58, 8, -55, 51, 88, 75, 99, -8, 27, 45, -42, -76, -15, 18, -20, -78, -18, 35, 32, 88, 61, 103, -25, -8, -26, -64, 74, -85, 79, 9, -21, 51, -13, 23, -86, -13, 21, 84, 5, -86, -61, -40, 24, -60, 89, -33, 8, -15, 32, 45, 17, 35, -9, -43, -32, -93, 68, 91, -67, 2, -94, -94, -10, 95, -91, 17, 8, -43, -102, -21, 43, 70, -78, 26, 69, -77, -100, 81, 16, 67, 96, 15, -23, -70, 61, 1, 36, -35, -43, 78, -106, 58, 7, -105, 81, 35, -71, -27, -75, 100, 19, -22, 56, 79, 
  83, -100, 35, 96, 96, 34, 45, 54, -31, 92, -28, 101, -33, 37, -67, -108, -32, -53, -66, 103, 91, -66, -42, 2, -17, 104, -34, 27, -97, -20, 25, 92, 27, -88, -33, -93, -14, 30, 89, -27, -8, 30, 102, 99, 40, -14, 23, -95, -59, 56, -68, -23, -17, 17, -20, -58, -86, 72, 65, -108, -69, -37, 54, -82, 60, 33, 29, -38, -45, 108, -49, 27, -8, 46, -6, 17, -37, 60, -55, 47, 109, -101, 67, -1, 31, -99, 57, 52, 77, -34, -31, -93, 17, -59, -88, -50, -32, -88, 8, 98, -29, 63, 6, -88, -12, -33, -52, -96, 101, -34, -61, -90, 22, 52, 93, -41, 84, -17, -32, 46, -35, 30, -15, -93, 43, 44, -72, -92, -16, -14, 63, -6, -19, 19, -61, 69, -18, -21, 3, -16, -12, 67, 61, 81, 44, 69, -2, -77, 74, 24, 65, -40, 12, 63, 59, 20, -40, 19, -17, -38, -9, -86, 27, -18, -16, -32, -93, 47, -89, -21, 58, -46, -37, 18, -90, 54, -51, -101, -51, -14, -4, 92, -18, -51, -65, 21, 43, 67, 107, 4, -104, -33, 65, 98, -42, 37, 99, 72, -43, 45, -40, -5, -67, 6, -14, 96, -19, -69, -36, -16, -18, -59, -95, 1, 28, 45, 116, -101, -25, 65, -29, 26, 12, 66, 24, -41, -35, -15, -78, 51, 40, -61, -99, 87, -7, 19, 36, 60, 91, 55, 65, 25, -37, -16, 57, -20, -92, 10, -96, 89, -25, 65, -38, 58, 70, -99, -34, 95, -73, 70, -69, 46, 74, -38, -88, -18, 80, 24, 23, -67, 35, 10, -46, -49, 62, -96, -102, 74, -28, -81, 2, 86, 45, -36, 95, 36, -45, -45, 73, -1, 79, 104, -87, 22, -30, 13, 33, 76, -104, 8, -56, -97, 95, -52, 90, 27, 20, 83, 32, -67, -23, 39, 94, 107, -108, -103, 96, 25, -78, 33, 81, 83, 29, -56, -87, -89, -65, -69, 28, -76, 46, -60, -20, 79, 70, 65, 8, 64, 38, 71, 97, -48, 43, 58, 27, -6, 19, -1, -6, -11, 60, -52, 98, 38, -77, -38, -86, -8, -38, -23, 69, 81, 84, -27, -20, 54, -103, 58, -16, 65, 69, -5, 38, -81, -66, -93, 59, 18, -42, -77, 5, -26, -100, -106, 24, -86, 38, -52, -32, -37, 103, -16, 27, -102, 73, -57, 29, -66, 51, -71, -21, 82, -93, 24, 72, -7, 29, -100, -22, 70, 18, 49, 45, -24, -83, 17, 32, 62, 24, -50, -73, -85, 107, -31, -2, 7, -82, 96, -73, -20, -99, 45, -33, -19, 0, -85, -6, -34, -59, 23, -48, 25, -49, -74, 40, 47, -19, -17, -95, 81, -7, 10, -83, 9, -98, -5, 17, -58, -45, -62, 90, 84, 44, 21, -87, 51, 92, -88, 20, 83, 7, -37, -25, -27, 97, 67, -100, 99, 8, 56, -78, 28, 18, -33, -55, -19, -29, -36, -36, -45, -13, -17, 38, -10, 68, 7, -18, 108, -1, 0, 63, 67, 45, 44, -68, 90, -65, -76, 113, -79, -58, 36, 40, -80, 57, 59, 78, -98, -27, -94, -95, 2, -54, 37, -63, 42, 31, -63, -45, -8, 41, 54, 63, -38, 50, -24, -23, -25, 1, -15, 10, 97, -89, 74, -29, 62, -18, -52, -32, 77, 43, -49, 29, 50, 99, 6, -40, 61, -48, 30, 91, 95, -58, -76, -9, -14, 15, 81, 7, 51, -91, -73, -38, -34, -37, -100, 93, 99, -55, 45, 3, 65, 68, 89, 89, 109, -34, 1, 111, -42, 21, 33, 10, 20, 48, 66, 70, 12, -87, 56, 94, 21, -43, -49, -29, 28, -112, 56, -63, -91, 19, -56, -41, 81, 97, 27, -67, -2, 15, -99, 15, -42, 73, 74, 57, 11, 99, -43, 102, 107, 113, 107, -67, 84, 76, 56, 21, 76, -88, -76, 111, 65, -69, 105, -61, 62, 51, -62, -61, -71, 13, 53, 30, 41, 48, 75, 15, 3, 88, -37, -49, -41, 28, 39, 55, -25, 15, -14, -81, -100, 47, 63, -72, 32, 88, 14, 4, 60, 97, -66, -85, 10, -14, -66, 19, 6, -37, -65, 34, 61, 29, 74, -53, 99, -81, 40, -22, 0, 16, 72, 72, 18, -2, -66, 103, -38, -94, 84, 105, -3, 80, 25, -34, -61, -91, -67, 75, 25, 63, 98, -36, -60, 1, 10, 99, -57, -59, 107, -6, 18, -97, -39, 27, 66, 4, 79, -30, 26, 100, 14, 46, 70, 94, 69, -78, 69, 50, 73, 83, -16, 2, 101, 14, -82, 75, 110, -50, -65, -64, 59, 30, 89, -73, 50, 2, -48, -32, -71, -97, -28, -68, 26, -74, -58, 59, 28, 58, 74, 15, 14, 108, -56, -9, -23, 19, -93, 82, 30, 106, -10, -59, 49, -92, 6, -111, 92, 107, -44, 66, -62, 24, 39, -6, -95, 7, 71, -62, -28, 38, -69, -79, -42, 31, -99, 0, -89, 26, 69, -78, 79, 50, -30, -42, -97, 41, -69, -8, 49, 99, 41, -40, -15, 0, 11, -99, -59, 6, 90, -39, -4, 62, -57, 32, 33, 7, 60, 47, -74, 17, -94, 5, 18, 73, 34, -39, 83, 72, 92, 98, 83, 6, 20, 19, 74, 22, 54, 26, 7, -58, 50, -93, 66, 10, 31, 42, -105, 36, -32, -64, 97, -25, -82, -76, -89, 45, 77, 12, 86, -80, 27, -116, 23, -82, 62, -99, 68, 78, -11, -81, 72, 3, 57, 116, -58, 28, -23, 29, 80, 8, 94, -54, -40, -103, -68, -74, -52, 3, -65, -97, -4, 87, 61, -37, -88, -59, -85, 21, -47, 92, 2, -89, 75, 77, 14, -80, 34, -101, 5, 36, -13, -26, 43, -98, 42, -63, -63, 21, 48, -12, 35, 94, -3, 89, -80, -114, -22, 28, 20, -31, 32, 32, -100, 36, -66, 21, -29, 18, 61, -43, 106, -103, -46, 45, -71, 107, -49, -102, 24, 87, 49, -26, -22, 97, -34, 69, 65, 83, -13, -90, 24, 41, -57, 27, -13, -95, 108, -66, 41, 79, -65, -91, 21, 42, -66, -52, -73, -76, 79, -10, -75, -30, 68, -28, 61, -3, -76, 49, 70, -104, -12, -8, -91, 6, 4, 19, 33, -53, 33, -78, -31, 24, -45, 55, 80, -48, 21, 75, -19, 56, -79, 18, 20, -33, 68, -92, -15, 101, 28, 37, -43, 65, -60, -66, 15, -95, -23, 3, 74, -9, 79, 29, -65, -65, 38, 60, 58, -95, 78, -99, 66, 64, -104, 101, -28, 47, -62, -97, -13, 63, -95, 22, -52, -23, -50, -45, -56, -32, 36, 71, -81, -26, -43, -80, 79, -2, -45, -38, 5, 41, -78, 93, -81, 104, -15, -86, -61, -52, -43, 101, 4, -17, 62, -81, -6, -25, -23, 25, 106, 101, 8, 75, -73, -4, -26, -72, 36, 58, 17, 20, -9, -54, 49, -31, -66, -79, -110, 30, -9, 76, 105, -67, -66, 70, -22, -100, -63, -17, -17, -32, 69, 14, -92, 17, 4, 97, 99, 46, 63, 16, 56, 42, 99, -99, 92, 51, 83, 96, -18, 52, 90, 52, -94, 71, 55, -1, 20, 51, -63, -86, 109, -76, 39, -22, -67, 78, -11, 11, -55, -40, 43, 85, 33, 106, 71, -65, 102, 78, -47, 29, 32, -9, -16, 33, 101, -42, 100, 2, 43, 98, 6, 59, 74, -86, -57, 78, -62, 27, 57, 14, -41, -2, 73, 79, -88, 96, -20, -101, -11, 110, -21, 36, -34, 60, -69, 78, 39, 34, -33, 76, 110, -84, -41, 12, -1, -34, -106, -61, 37, -53, -68, 25, 99, -7, -6, 100, -35, -71, 103, 55, -74, -101, -71, 59, -26, -32, -71, 26, -75, -42, 42, 66, 95, -10, -78, 32, 31, 12, 40, 60, -48, 100, 89, 8, 21, -77, -58, 20, 60, -99, 17, 5, -87, -5, 100, 80, -38, -40, 29, -95, 13, -92, -88, -16, 51, -98, 84, 35, -53, -93, 43, -50, -72, 39, 92, -10, -44, 16, -11, -15, 3, -10, 83, -20, 79, -88, -13, 14, -65, -51, 107, 80, 39, 41, -75, -59, -58, 83, -71, -26, -53, 4, -95, -84, -19, 109, 85, -78, -71, -56, 79, 57, 38, 13, 44, 83, -57, -69, -102, -63, -28, -21, 41, -4, 37, -31, 7, 2, -67, 59, -50, 94, -88, -88, 58, -86, 1, 34, 18, -52, -49, -21, 16, 38, -56, -83, 62, 81, -39, -98, 95, -11, -96, -37, 22, 70, -23, -13, 0, 7, -1, -48, -53, -43, 33, 37, -5, 50, -5, 2, -100, 78, -10, -46, -78, -75, 87, 113, -5, -11, 38, -10, 63, 39, -30, -70, 41, -1, -102, -24, 2, -16, -35, 107, 50, 30, 7, -42, -91, -42, -101, -3, -98, -61, -24, 59, -81, 4, 48, -84, -33, -103, 21, 54, -71, 81, 14, -88, -98, -39, -100, 55, 26, -37, -11, 24, 107, -76, 102, 14, -49, 96, -96, 24, 102, -68, 1, 37, -11, -78, -65, 29, -87, -21, 82, -99, -107, 75, -18, -66, -9, 101, 101, -87, 8, -3, 89, -64, -17, -47, 47, -74, -101, -100, -8, -29, 18, -16, -43, 49, 38, -22, -80, 6, -46, -30, -47, -65, -109, 50, -93, 99, -87, 99, 61, -58, 63, -37, 75, -55, 2, 71, -50, -99, 91, 98, -90, -60, -42, 33, -13, 27, 39, 69, -74, -43, 35, 80, 4, -18, -10, -34, 67, 53, 100, -92, -10, -78, -60, 110, 77, -78, 65, 42, -70, 104, 70, 43, 22, -24, 67, 41, 20, -70, -39, 97, -21, -12, 14, 46, -93, -67, 75, 11, 101, -19, -34, -30, 37, 80, 56, 72, -78, 42, -16, -57, 14, 22, -46, 45, -10, 
  63, 106, 62, -21, -85, 77, -7, -73, 4, -18, 0, 70, 62, -30, 30, -55, 51, -44, 103, 25, 103, 90, 98, 52, 71, 77, 68, -2, 90, -81, 72, -111, -10, 5, -86, -29, -86, 107, -73, 4, -60, -45, -103, -28, -91, 43, -26, -24, -48, 40, -95, -100, 108, -47, 58, 46, 14, 57, -19, -30, 70, -14, 97, -52, 12, -92, 98, 82, 69, -37, -47, -37, 11, -82, -40, -88, -76, -37, -59, 79, -47, -52, -76, -44, 95, 35, 5, 48, 65, 51, -8, -91, -93, -15, 85, -16, 101, 33, 54, -50, -66, -55, -29, 56, 22, 72, -33, 17, 32, -4, -45, 60, 23, 56, 90, 102, 43, -61, 110, -18, 89, 88, -2, -27, 64, -94, 29, 94, -94, 89, -83, 94, -101, -25, -60, 5, -72, 95, 19, 89, 98, -5, 84, -67, -85, 22, 54, -66, -89, -59, 103, 64, -59, -67, -60, 47, -96, -101, 69, -28, 65, 18, 27, -81, -21, -94, -95, 29, 10, 23, 78, -31, 27, 79, 100, -55, 86, -24, -97, 40, -86, -34, -85, -38, -17, 39, -88, -51, -85, 50, 63, 35, 7, 66, -76, 44, -7, -48, -96, 82, 58, 33, -43, -45, 40, -37, 24, -106, 93, 55, 106, -69, -71, -46, 87, 28, 79, -103, -110, 37, 89, 48, 24, -51, -45, -89, -63, -101, 72, -71, 40, -8, -61, -66, 25, -36, -13, -13, 61, 53, -2, 7, 105, -6, 82, -64, 9, 52, 82, 42, 21, -82, 98, 91, -55, 32, -85, 46, 94, 50, 56, 90, -18, -42, 63, 29, -58, -109, -94, -31, 107, -2, 22, 33, 75, 31, -70, 65, -93, -17, -65, 81, -44, -113, 110, 54, 20, -17, -73, -97, 54, 4, 108, 97, 6, 68, 34, -45, -98, 80, 39, -13, 28, -14, -49, -45, -101, 43, -43, -71, -44, -69, 35, 48, -85, -22, -90, -99, -46, -100, 90, -29, 89, 1, -4, 37, -74, 21, 16, -94, 22, -19, 49, 8, -107, -19, 56, -8, -95, -48, 104, -22, -63, -51, 42, 24, -67, 29, -15, 23, 38, 89, 52, -5, 77, 31, -94, -64, -61, -97, 66, 19, -77, 16, 15, 45, 93, -40, -10, 86, -102, -15, 1, 21, -47, 95, 43, 59, -97, -127, 40, -92, 98, -50, 74, -96, 86, -20, 92, -52, 43, -107, 68, -56, -47, -32, 54, -92, -1, 96, -37, 112, -21, -44, -85, 16, 95, -95, 75, -77, 14, -46, -88, 107, -1, -59, -88, -87, 44, -24, 51, 7, -44, 107, 21, 98, -82, 54, 10, 61, 80, -62, 56, -94, 93, 33, 97, -19, -84, 93, 88, -76, -29, 23, -35, 9, 0, 92, -40, 89, -95, -37, 34, -4, -42, -23, 74, 78, -27, 19, -87, -93, 12, -16, -51, -92, 75, -42, 37, -89, -48, 31, -67, -18, 71, -42, -114, -50, -7, 92, 47, -8, 28, 40, -80, 14, -20, -25, -99, 39, 0, -35, -99, 121, 5, -73, 0, 43, -8, -21, -56, -58, -92, 14, -17, 67, 85, -101, -60, 60, 110, 94, -66, -43, 86, 54, -9, -74, -33, 77, 23, 39, -6, -5, 66, -66, 69, 36, 31, 106, 36, 34, 4, -11, -58, 73, 88, -108, -38, -69, -108, -43, 51, 38, 18, -9, -108, 24, 63, 100, 34, -84, 10, -23, -50, -49, -11, -69, -62, 25, -30, -81, -104, -97, 58, 75, -77, 59, 61, 97, -59, 67, -16, 99, 78, 33, -19, -85, -17, -62, 117, 109, -78, -59, 96, -80, -56, -40, -73, -34, -9, -89, -71, -33, -105, 10, 115, -85, 87, -2, 111, 30, 23, 43, -17, 52, 4, -23, 66, 71, 31, -83, 71, 89, 112, 93, -86, -90, -7, 46, -48, -18, 13, -55, -50, -12, 66, -17, -95, -17, -20, -49, 64, -10, -25, 5, 21, 106, -57, -6, 76, -40, -44, -48, 67, 107, 114, 87, -47, 20, 0, -9, 72, -18, 96, -6, -37, 109, 75, -43, 64, -7, -9, 101, -9, 87, -69, 88, -78, 98, -34, 10, -36, 93, -77, -47, 73, 8, 58, -99, -99, 26, -11, 33, -87, 19, -66, -80, 85, -87, -54, 87, -9, 100, -15, 97, -95, 19, 37, -71, -103, -65, -45, -44, 57, 111, 76, 55, -99, -33, -23, -90, -53, -9, -12, 56, -38, 120, 87, 115, 63, -81, -87, 84, -68, 102, 44, 97, -95, -60, 3, 71, 79, -55, 56, 122, 10, -78, -100, 33, -21, -70, 71, -77, -108, 78, 3, -87, -43, 124, 114, -1, 40, -5, -18, 51, 53, -21, 79, -69, 32, -57, -50, 86, -38, -75, 91, -53, 10, 40, 49, 108, -84, 63, -41, -7, -81, 16, -39, -1, -95, -41, -45, -87, 25, 24, 100, -95, -5, -41, -69, -20, 105, -62, -75, -9, -90, -35, 23, 62, 37, 13, -38, -89, 46, -76, -19, 18, -86, 70, -46, -79, 10, -65, 26, 74, 54, -98, -37, -86, 63, -26, -68, -68, -14, 46, 81, -37, -95, -31, 43, -68, -7, -89, -77, -78, 106, -52, -71, 18, 107, -47, -11, 34, 59, 54, -77, -23, 60, -19, -67, 76, 28, -21, 102, 99, 43, -64, -58, 65, -11, 97, 19, 34, 15, -66, -61, -11, 74, 84, -70, 10, 28, -39, -22, 80, -40, -44, 6, -47, 9, -87, -88, 68, 19, -38, -95, 35, -36, -76, -55, -11, -54, 42, -31, 58, -18, 14, -36, -113, 12, 34, 69, -52, -63, -74, 74, 110, -64, -20, 1, -30, 29, 91, -7, -59, 42, 100, 92, 83, 97, 108, -83, 27, 45, -103, 90, 46, -23, -18, -70, 73, 16, 17, 31, 7, 90, -47, 90, -79, 38, 26, -42, -22, 54, 31, 28, -21, 14, 91, 52, 4, 52, -72, 88, 15, 63, -88, 29, -1, 96, -38, 29, 59, -8, -24, 19, 8, -33, -69, -112, -75, 76, -109, -93, 61, -32, 27, 35, 99, -80, -90, -41, 32, 34, 50, -55, 86, -102, -32, 8, -3, 51, 106, -34, 31, -68, 99, 88, 83, -45, -62, -36, -43, 67, 71, 49, 79, -97, 84, -66, 93, -94, -55, -57, 40, 100, -31, -108, 115, 57, 13, -53, 46, -19, 94, 99, -39, -88, 9, 9, -31, 103, 91, -39, -53, -30, 112, -42, 57, 103, 41, 35, 35, -72, -45, 42, 102, -57, 55, 68, 102, 49, 2, 39, 20, -29, -69, 75, 21, -54, -42, 13, 98, 56, 117, 85, 13, -5, 120, 84, -95, 24, -61, 36, -1, 18, 104, 67, 90, -81, 61, 37, -43, 35, 86, 78, -58, -69, 76, -48, 67, 53, 100, -57, 76, 116, 56, 25, 79, -14, 32, 28, 5, -14, -74, 74, -35, -62, 106, 42, -19, 27, 21, 35, 15, -88, -63, -32, 85, 110, 2, 30, 11, 51, 27, 41, 88, -9, 99, -68, -85, -14, 34, -52, 100, -1, 54, -80, -32, -43, -14, -70, -41, -55, -92, 66, 21, 65, -51, 85, -14, 13, 76, 84, 77, -4, -104, -77, -78, 61, -38, -98, 10, -33, 80, -102, -94, 82, -101, 23, 96, 28, -95, -39, -82, 80, -4, 10, 104, 71, -61, -36, 12, 92, 55, -67, -59, 28, 74, 23, -75, 93, 79, 13, -2, -20, -16, 87, -33, -23, -55, 16, 70, 3, -57, -11, 10, 31, 109, -116, 57, -21, 10, 45, 72, 111, 6, 56, 16, 13, -22, 53, 87, -61, -78, -72, -28, -87, 86, -50, 78, -81, -18, -35, 68, 41, 71, -2, 43, 11, -68, 45, 48, -78, 73, 12, 36, -47, -45, -7, 45, 78, 8, 107, 61, -48, -88, -29, 93, 5, -68, -17, 87, 88, 59, 43, -84, -89, 29, 36, -63, 43, -25, 74, 63, 83, 17, -94, 97, -26, 15, -71, 11, 101, -70, -34, 9, -98, -59, -41, 82, -33, 80, -48, -51, -35, 46, -12, -68, -71, 108, -65, 23, -40, 46, -42, 61, -73, -24, 8, -35, 24, -72, 71, 93, 7, 52, 45, 63, 58, 82, -43, 85, -95, -32, -34, 32, -52, 89, -56, 37, 90, -81, 29, -79, -23, -15, 62, 106, -95, 24, 69, -63, -92, 53, 84, 62, 78, -91, 38, -9, 69, 11, -28, -7, 97, -45, 64, -25, 30, -61, -81, -3, 54, 94, 39, 84, -83, 108, -112, -7, 49, -60, -85, -75, -101, -11, -18, -72, 110, -58, 61, 76, 76, -58, -94, -72, -30, 42, -46, -73, 13, -42, -41, 47, -91, 97, 112, 13, -50, 37, 35, -11, -107, 86, -81, -54, -86, 79, -23, 32, -94, 26, -77, -3, 76, 71, 46, -11, -24, -22, 14, 70, -56, 92, -70, -2, -98, -23, 112, -91, -22, 75, -84, -35, 107, 38, -39, 0, 6, -36, 30, 68, 102, -25, 82, -87, 41, 114, -60, -7, -46, 43, -65, 112, 29, -39, -77, -29, 79, 10, 90, -21, -57, 72, 27, 58, -41, -107, 78, 11, 63, 20, 74, -56, -47, 103, -14, -64, -35, -24, 33, 9, -62, 38, 54, -2, -55, 1, 99, 78, -70, -63, 55, -67, 62, -24, 99, 10, 46, -45, 77, 109, 62, -27, -5, -4, 20, 71, 114, 58, 99, -40, -89, 37, 88, 22, -99, -39, 57, -26, -29, 37, 3, 59, -19, -57, 113, 80, 30, -60, 10, -81, 2, -2, -32, -77, -23, 99, 67, 21, 118, 40, -46, 51, 74, -77, 18, 98, -59, 18, -35, -46, -24, 92, -24, -7, -18, -14, 45, -20, 49, 46, -69, -5, -64, 8, 34, -4, -88, 12, 60, -55, -89, 67, -88, -32, 65, 84, -46, 56, 74, 7, -50, -62, -23, 10, -38, -99, 33, -105, 109, 69, -61, -88, -77, -62, -26, -102, 
  -86, 50, -84, -1, -59, 58, -95, -6, -59, -107, -94, -69, -100, -40, -67, 82, -9, 65, 80, -61, -20, 63, 26, 104, 113, 75, 2, 34, 3, 35, -45, -32, -77, -3, 78, 37, 74, 77, -11, 23, 30, 51, -61, 26, -39, -119, 70, 39, 92, -82, 61, 106, -100, -100, -60, 27, 65, 19, -100, 33, -88, -71, -75, 76, 1, -25, -94, -25, -70, 46, -68, 75, 93, 3, -23, -81, 104, -44, -112, 69, 53, 102, -86, -56, -72, 85, -76, -55, 53, 26, 82, 38, -24, -26, 2, 92, 2, -96, -79, -43, 69, -78, -93, -37, 21, 4, -109, -54, 48, 27, 39, -62, -43, -46, 91, 71, 86, 61, 69, 54, 89, -98, -52, 83, -54, 38, 62, -39, -52, 42, -48, -60, -37, -26, -91, 50, 100, 2, 16, -111, 85, -82, 26, -9, 12, 38, 95, -9, -102, -6, -99, -94, -41, -76, 92, -94, -83, 44, -104, -23, -23, -106, 45, 44, 6, -105, -40, -49, 2, -63, 22, 72, 71, -42, -109, -67, 7, -77, 75, -18, -105, -3, 57, 83, 56, -69, 104, 70, -21, -10, -1, -57, -44, 101, 15, -89, -40, -31, -108, -15, 61, 31, -68, -33, 41, 59, 66, -80, 84, -1, 6, -5, 20, 89, 18, -24, 65, 95, 67, 23, 24, 29, -110, -103, -68, -60, -6, -32, 10, 41, -84, -9, -19, 28, -54, 2, 99, -102, -47, -92, -37, 30, 52, -68, 55, 30, -18, -19, 42, 108, -36, 40, -8, -46, 40, -103, -71, 103, 95, -70, 98, 99, 65, -50, 95, -38, -5, 91, -25, 21, -52, -37, 101, 77, 27, -81, 39, 34, 97, 90, -92, 6, -9, 7, 27, -66, -86, 107, -7, 12, 22, -48, 12, 51, -36, -91, -69, -83, -50, -94, 97, -91, 55, -80, 49, 7, -75, -82, -14, 41, -9, 34, 51, 70, -3, -49, -2, -45, -68, -53, -48, -10, -40, 24, 59, 4, 26, 7, 62, 51, -50, -54, 17, -41, 37, 81, -45, -12, 31, 39, 44, -72, -27, 32, -43, 44, 55, -22, -70, -71, -22, -76, 90, -58, 30, -24, -39, 70, 33, 55, 36, -6, 27, -51, 44, -26, 92, 66, 77, -70, -58, -91, -47, -91, -3, 44, 7, -58, 89, 111, 56, -39, -93, 0, 84, 23, -62, 66, -27, -40, 38, 44, -79, 32, 54, -18, -29, -41, -33, 116, -103, 73, 74, 24, -85, 18, 49, 58, 60, 11, -32, -69, 81, -12, 70, 5, 100, -74, -80, 102, -13, -93, -72, -98, 57, 32, -24, -35, 46, -20, 33, -22, -64, -80, -28, -61, 95, 110, 79, 86, 61, -65, -56, 88, -44, -25, 61, 87, -29, -16, -71, 78, 83, 46, 73, 80, 61, 58, -25, 39, -87, -62, 53, -33, 56, 97, -84, 8, -84, -97, 63, -54, -55, -86, 16, 9, 95, -44, 52, -95, -74, 49, 55, -87, -45, -71, -19, -5, -89, 14, 67, 68, -59, 0, -80, 57, 102, 28, 90, 98, -52, -70, -67, -5, -39, -21, -22, 51, -57, -56, -33, -14, -98, 32, -44, 43, 64, -38, 23, 36, -34, -33, 6, -10, 88, 86, -38, 40, -53, 100, -90, 70, -26, 59, -83, -9, 100, 52, -30, 73, -83, 10, -4, -9, 34, -62, 58, -52, 67, 9, -21, 111, 21, -53, 90, 50, 83, -100, 69, 77, 20, -38, 0, -12, 18, 50, 17, -1, 0, 86, -71, -51, -49, -116, -93, -110, -100, 104, 20, 48, 107, -56, -92, -66, -24, -82, -97, 14, -34, -115, -75, 99, 16, -14, -45, -76, 61, -16, 26, 19, 4, 87, 24, 29, 3, 24, -14, -26, 50, -38, -51, -64, 85, 69, 7, -55, -36, 21, -67, -55, 66, -75, 64, -32, -12, 19, -66, -55, -96, 9, -21, 21, -42, -36, -101, 72, 31, 78, 51, 57, -33, 84, 107, 14, -1, -101, -57, 14, 11, -13, -20, 89, 40, -88, -19, -12, 104, -73, 34, 83, 9, 20, 40, -31, 88, 105, 6, 66, -45, 35, -92, -108, 27, -29, -64, 28, -67, 38, 15, 108, 99, -19, 9, 67, -95, 44, -49, -15, 12, -61, -78, 30, 16, 83, 70, 33, 16, 101, 3, 20, 68, -40, -90, 76, -83, 71, 39, -22, 63, 5, 103, 102, 21, -26, -62, 37, 107, 29, 19, 63, 41, 103, -34, -25, 108, -78, -29, 86, 110, 2, -44, 61, 106, -92, 30, 82, -11, 46, 95, 16, 3, -92, 96, 5, -15, 67, 89, -90, 106, 35, -25, -109, 57, -30, 65, 68, 34, -69, -87, -4, 98, -42, 108, -40, 66, -93, -72, 22, 62, 107, 17, 36, -25, 88, -74, -72, 68, 101, 8, -32, 92, 79, -105, -53, -33, -32, 86, -89, -78, -87, 84, 62, -36, 108, -34, -62, 95, 30, -84, -104, -94, -89, -42, -2, -31, 8, -51, 75, -75, 13, -39, -76, 29, -12, -104, 26, 19, 13, 15, -56, 52, -2, -109, 85, 91, -40, -61, 49, 38, -39, -83, -11, -93, -22, 10, -51, 13, 30, -89, 0, -44, 5, -13, -37, -70, 23, 35, 8, 10, -19, -54, 107, 12, 99, -92, -65, -66, 45, -80, 14, 68, 92, 18, 40, 65, 52, -59, 57, 97, 28, -92, 4, -28, -94, -74, 83, 20, -110, -118, 39, -102, 48, 41, 70, -18, -81, 69, 85, -77, -110, 21, 97, 98, -77, -85, -40, -17, 3, 31, -38, -42, -48, -13, 75, 106, -95, 58, -27, 67, 64, -97, -29, 73, 97, 75, -60, -66, 69, 3, -15, -15, 82, -70, -72, 69, -57, -109, 49, 37, 61, 15, 35, 75, -4, -44, -11, 14, 30, -69, 2, 109, 9, -38, -97, 35, 4, -18, 92, 70, -90, -9, -16, -46, -2, 1, 17, -93, -60, 61, -96, 10, 77, -16, 79, 73, 67, 97, -98, 50, 34, -18, 7, -102, 18, 70, 64, 52, -41, 102, -38, -24, -68, 5, -66, -37, 11, -69, -5, 51, 97, 47, 33, -9, 16, -50, 18, -66, 72, 47, 96, 80, 71, -55, -90, -67, -89, 25, -34, -65, -65, -27, -10, -2, -52, 6, 55, -25, 38, -92, -43, 18, -81, 23, -36, 60, -10, 16, -26, 72, -98, -57, -31, 68, 34, 9, -18, -43, 19, 59, -68, 69, 48, 85, 100, -91, -5, 90, 46, 72, -62, -28, -106, 45, -74, -76, -81, -13, 59, -85, -24, 66, -61, -31, -98, 85, -7, 2, 53, 61, 39, -19, 72, 18, 97, -31, -12, 65, 20, -61, 79, 73, 84, -14, 8, 72, 12, -31, 99, 31, 108, -96, -73, -51, 41, -2, -79, 47, 8, -104, -100, 75, 88, -42, 82, -70, -19, 5, 30, -79, -97, -67, -88, -42, -75, -83, -43, 43, -38, 10, -87, 77, 75, 46, -43, 51, -87, 89, -35, -46, -23, -63, -88, 67, 90, 48, 28, -86, -104, 82, -99, 27, -46, 67, 41, 101, -5, 4, -84, -12, -56, -27, 38, -16, -59, -92, -53, 90, 93, 48, 24, -58, 4, -29, 14, 22, 63, 9, -90, 97, 24, -28, 84, -14, 100, -1, 17, 97, 68, 58, 36, 73, 48, 104, 34, 6, -52, 86, 71, 51, 80, -66, 55, 93, 76, 42, -92, -13, -36, -53, -102, -55, -60, 26, -6, 106, -28, 14, -39, 58, -85, 72, 83, -27, 53, 59, 67, -47, 3, -63, -21, -53, -35, 38, -73, -11, -97, 53, -51, 44, -21, -14, -2, -71, -28, 37, -80, 5, 38, -12, -105, -20, -99, 20, -18, 55, 71, -9, 100, -56, -28, -81, -2, -92, -32, 16, -16, -55, -7, 12, 35, 55, 31, -40, 60, 89, -63, 20, -50, -65, 90, 20, -58, 12, -94, 69, 70, 82, -92, 96, 24, -91, 46, 12, 101, 22, 87, 96, -25, -41, -104, 21, 78, -101, 74, -30, 96, -67, 8, -101, -78, 94, -49, -98, 67, 53, -20, 57, -15, 38, 18, 28, -59, 105, -86, 109, 67, -7, -17, 44, -21, -20, -7, -2, -21, -51, -88, 112, -100, 86, -32, -58, 91, 35, -35, 58, -94, 13, 97, -19, 58, 81, 49, -58, 106, 42, -88, -70, -4, 74, -69, -27, -62, -92, 50, -58, 87, -32, 82, -74, -55, 41, -38, -29, -5, -4, 92, 20, 97, -75, -53, 92, 12, 48, 89, -47, -10, -103, -25, 35, -48, -102, -86, -69, 54, -8, -10, 92, -66, -89, -35, 46, -46, 60, 17, -28, -12, 107, 7, -80, 27, 96, -27, 84, 77, 85, -73, 41, 72, -102, 99, -101, 97, 17, 2, 44, 10, -7, 79, -97, -87, -34, 40, -30, -70, -25, 97, -50, 27, 103, -90, 93, -20, -70, 73, 64, 13, -55, 20, 24, 85, 58, 85, 75, -102, -78, -17, -17, -7, 87, -15, 70, -73, 16, 89, -22, -15, 81, -29, 2, 100, -17, -48, 103, -92, 79, -64, -40, 69, 9, 15, -39, -80, 68, -85, -38, -25, 1, 60, 27, 38, 82, 36, -66, 105, -77, 65, 123, -71, 63, -90, 74, -43, 3, 41, -29, -104, -92, 33, 1, 64, 90, -84, 70, 17, -67, 10, 37, -25, 10, -10, 81, -7, 91, -2, 35, -21, 80, -66, 70, 81, -53, 86, 75, -81, 2, -95, -48, -21, 75, 53, 65, -80, 53, 57, -41, 46, -7, -16, 16, 19, -32, -54, 42, 43, -94, 103, -34, -75, 11, 46, 25, -45, -57, -62, 70, -16, 101, -62, 34, 14, -79, -66, 64, 41, 84, -72, 98, 28, 70, 50, -59, -90, -7, 68, -22, 106, -18, 77, -87, 36, -87, -54, -96, 11, 77, -94, 45, 109, 88, -97, 54, -101, 35, -27, 82, -97, 91, -59, 90, -86, 
  101, 23, 47, -104, -85, -45, 60, 15, -9, 33, -79, 33, 27, -86, 46, -60, -3, -2, 37, 21, -92, 47, -99, 81, 86, -21, -49, -33, 75, 68, -106, -83, -85, -24, 105, 92, -31, -85, -85, 28, 38, -17, 7, -33, -36, 70, 4, -99, 61, 40, -34, -68, -22, -8, 74, 92, -71, -48, 25, -16, 27, 33, 65, 73, 25, -104, -96, 45, 47, 27, 79, 10, -27, -45, 0, 95, 28, -70, 45, 107, -46, -74, 31, -73, -47, 70, -41, 26, -44, -57, -1, 100, 48, -58, -19, 8, -61, 36, -96, 49, 88, 64, 46, 42, 48, -52, 4, -94, 79, 6, -29, 4, 34, 50, -103, 13, -33, 89, -41, -63, -55, -91, -63, -78, 86, 49, -81, 24, 48, -96, 67, -45, -83, -101, 29, 30, -16, -98, 97, 65, -45, -78, -52, 29, -21, -103, -12, -40, 41, -45, -7, 54, 48, 89, -57, -55, -46, 12, -20, 2, 84, -93, 80, 36, -10, 9, 21, -67, -10, 7, 70, -34, -55, -96, 77, 88, 33, 3, 35, 98, 28, -95, 41, -88, -23, 63, -89, 59, 102, 8, -77, -103, 68, -107, 4, 41, -27, -57, -105, -20, 27, 78, 42, -40, -30, 60, 25, 57, 33, -22, -2, -49, 78, 37, 20, -65, -76, 97, 33, -7, -6, -5, -39, -83, -25, 24, 87, 25, -49, 78, -40, -80, -11, 62, -94, 54, 39, -66, 8, 18, -40, 56, -64, -19, 67, -6, -72, 49, -60, 104, 42, -45, -97, 102, -31, 81, -9, -1, -41, -5, -101, -72, -3, 63, 55, 40, -22, 23, -70, -56, 76, 79, -96, 12, 55, 8, 7, 44, 82, -14, 7, 60, -23, 31, 32, -61, -6, 76, 89, 59, -87, -5, -51, -98, -98, 76, 56, 102, 56, 33, -46, 91, -12, 45, -38, 51, 68, -46, 4, 24, 74, -53, -47, 16, 55, -35, -61, 49, 7, -27, 14, 53, -38, 59, 56, 48, -88, 1, -80, 74, -94, 26, -89, -65, -40, 22, -67, -51, 56, 105, -33, -43, -77, -104, 13, -1, 78, 85, 74, 98, -42, 35, -20, -105, 103, 17, -47, 19, 1, 13, 45, -56, -90, 90, -69, -22, -83, -89, -96, -97, -3, -30, 3, 10, 15, 56, 18, -88, -20, 50, 48, -77, 64, 65, 86, -40, -72, -12, -27, 99, 3, 64, -109, 12, -50, 71, -8, 36, 36, 20, -10, -62, 10, -62, -21, -87, -2, 42, -49, -76, -70, -87, -83, -89, 87, -40, 80, 29, 86, -100, 66, 67, -109, -60, -22, 85, -31, 25, 86, -31, 58, -24, 86, -34, 50, -42, -22, 85, -9, 20, 48, -2, -99, 52, 98, 85, 101, 49, 84, 63, -27, 106, -53, 94, -75, -38, 47, -99, 32, 18, 23, 43, 45, 74, -29, -96, 63, -73, -46, -102, 24, -9, 97, -62, 90, 38, 58, -97, 76, 99, 19, 59, -52, 41, -44, 52, 52, 45, -87, -8, 80, 103, -70, 67, -22, -71, 68, 84, 3, -63, 21, 41, -103, 93, 33, -50, -25, -59, 34, -54, 53, -79, -52, 10, 23, -50, -64, 32, 38, 44, -82, -96, 96, 33, -15, -32, 14, -15, 2, 86, 61, 9, 69, -83, 54, -4, -60, 90, 44, -94, -67, 6, 88, 99, -15, -77, 7, -69, 67, 36, -37, -89, 26, 17, 20, -34, -3, 91, 11, -102, -7, -63, 9, -92, -18, -45, 7, 42, 87, 74, -45, -1, -43, -75, 59, 19, -77, 18, -108, 11, 105, 60, -16, 15, 66, 54, 100, 42, 56, -84, 15, -77, -42, -25, 89, 39, -47, 91, -89, 7, 28, 10, -105, 64, 75, -78, -17, -67, 90, 55, 44, 59, -73, 59, 62, -71, -16, 45, 4, 53, -54, 92, -13, -18, -84, 20, 22, 63, -40, 31, 55, -46, -41, -62, -101, 14, 97, 88, 61, 37, -24, -104, -60, 39, 84, 1, 67, -104, 28, -77, -46, 50, 90, 16, 99, 66, -108, 82, 63, 70, -78, -22, -22, 5, -34, -14, 35, -21, 44, 25, -101, -77, -94, -57, -47, -91, 101, -103, -31, -25, -24, 60, 37, -102, -63, 63, -55, 35, -4, 11, 72, 61, -24, 48, -26, 103, -40, -27, 31, -104, -44, -85, 41, -45, 68, 50, -48, -57, -34, 85, -89, -79, -71, -3, -49, 99, -57, -26, 3, -68, 41, 24, 14, -42, -32, 67, 56, -71, -35, 48, -20, -61, -9, 67, 4, -23, -63, -66, 30, -93, -101, 12, 33, 36, 22, -84, 23, -4, -68, 68, -29, 21, 64, -73, -25, -93, 74, -68, 18, 54, 73, -63, 25, -59, -91, -52, 24, -82, 16, 28, -60, -47, 91, 88, 33, -24, -23, 3, 17, 6, -96, 74, 59, -44, -34, 95, -16, 41, 73, -72, -26, -95, -3, -38, 81, -73, 96, 84, -110, -60, 41, 46, 88, -1, -26, 89, -49, -57, 15, -67, 56, -51, -96, 52, -37, -46, 35, -74, -93, 65, 76, 20, 47, -17, 2, -105, -4, 92, 89, -22, -76, -11, -75, 98, 42, 40, -81, 97, 91, -48, 62, -62, 28, -89, 11, 79, 82, -37, -56, 106, -48, 15, -68, -64, -2, 90, -57, 18, 28, -26, -14, 71, -105, -78, 74, -22, 62, -16, 32, 43, 28, 76, 7, -39, -99, 76, -31, 36, 0, 48, -102, -96, 68, -65, 24, -41, 0, -88, -96, 83, 99, -76, -79, -85, 70, 26, -23, 48, -63, -26, 26, -102, -72, 15, -101, 31, 39, -34, 13, 64, 58, -20, 78, -6, -62, -19, -87, -93, 9, -69, -50, 11, -85, -44, -11, 98, 51, 35, -16, -82, 92, 4, -97, 95, -100, 74, -46, 50, 84, 83, -22, 29, -49, 50, 86, -85, -76, -48, -46, 32, -9, 104, -14, -19, -87, 27, 43, 19, 20, -76, -19, -8, 8, 21, -28, 72, -27, 72, 67, -63, 71, -92, -20, 9, -72, 62, -93, 19, -22, 42, -89, -92, -94, -108, -17, 29, 94, 48, -9, -45, -21, 96, 94, -23, -56, -82, -78, 30, -22, -32, -5, -1, 44, 26, 97, -73, -75, 33, -97, 15, 0, -79, 29, -9, -81, -76, -85, 8, 3, 81, 100, 61, -6, 10, 16, -87, -4, -34, 67, -81, 62, 26, -4, -58, -94, -35, 11, -83, 22, 37, -32, 89, -75, -36, 1, -25, 64, -7, -86, 9, -85, 65, 54, 14, -41, -2, 1, -89, -24, 60, 82, -11, -108, -4, 2, -44, 42, -95, -10, 63, 62, -92, -87, -27, 36, -104, -103, -35, -34, 82, -10, 59, 78, -71, 104, 45, -97, -56, 3, 69, -1, -79, 51, 26, 79, 47, -44, -66, -48, -109, -29, 87, 14, 5, 14, -107, -9, -94, -80, 45, -70, 0, -104, 101, -63, -77, 23, -30, -60, -86, 104, 77, 91, 41, -40, 8, -74, 55, 66, 52, -28, -35, -42, 107, 71, -21, -45, -76, 47, 98, -105, 83, 6, -102, 79, -68, -34, -79, -20, -48, -92, -52, -74, -2, 79, -49, 46, -79, -5, 17, 84, 56, -84, 22, -79, 106, 7, 31, -24, -42, -51, 81, 105, -93, 93, 99, 25, 21, 78, 35, -47, -100, 4, -39, 9, 78, -32, 68, 35, -58, 97, -84, 86, 49, 58, 16, -35, -74, 46, -4, 96, 42, 1, -22, -98, 5, 50, -73, 90, 4, -34, 20, 73, 29, -11, -56, -42, 50, -66, -84, -51, 62, 95, 92, 32, 95, 24, -87, 40, 103, -64, 62, 79, 40, -25, 49, -57, 11, 79, -79, 10, -8, 34, 15, 106, 97, 106, -40, 41, 29, 42, 53, -92, 17, 51, -94, -33, -36, 38, 80, -49, -66, 1, 63, -59, -29, 40, 103, 105, 76, -86, 4, -99, -40, -56, -2, -42, 9, -32, -44, -51, -95, 89, 20, 4, 8, 46, 39, -99, -21, -8, -84, 29, -41, -103, 45, 44, -93, -72, -37, 28, 24, -29, 94, 37, -49, 25, -14, 77, 19, 63, 54, -105, -30, -63, -38, 100, -13, -25, 4, -103, -94, 11, 107, -8, -4, -35, 107, -2, -34, -34, 18, 59, -35, 103, 76, -63, 67, 107, -43, 1, 24, -23, 76, -63, 14, -71, 58, -34, 47, -22, -95, -96, -97, 40, -36, 72, -94, 73, -26, 45, 52, -72, 38, 79, 22, -93, -5, -47, -63, -12, 28, 84, 6, 48, -82, -100, 23, 95, 75, 3, -84, 42, 77, 84, -47, 6, -75, 72, 72, -98, 106, -33, 3, -80, -4, 76, -44, 65, -41, 103, 64, -44, 26, 58, -55, 109, 19, 7, -59, 3, -37, -103, -97, 61, -20, 2, 68, -34, 7, 0, -14, 87, 49, 25, 59, -29, 81, -24, -39, 0, -25, 13, 85, -44, -92, 88, -18, -52, 24, -81, 59, -71, 20, 100, -46, 27, 27, 89, -32, -71, 15, 38, -86, 95, 47, -39, 41, 99, -46, -50, -40, 88, 75, 21, 75, 42, 99, 57, -38, 70, 26, -60, -67, 41, 100, -82, -14, -107, -33, 23, -73, -39, 17, -85, -25, 47, 57, -29, -21, -67, -70, 56, 69, 71, 32, -19, 7, -84, -76, 71, -28, 29, 31, -70, -38, 31, 21, -27, 55, 14, 28, -25, -25, -28, 105, -31, -43, -60, 11, -87, -85, -8, 19, 98, -52, -103, 70, 44, 93, 45, -96, 53, -97, -16, 70, -62, 24, 9, -29, 92, -41, 32, -82, 88, -55, 85, -53, 95, -30, -45, 62, -107, -90, 25, -29, 26, 78, -83, 33, -29, -98, -107, 29, 15, -32, 26, -53, -78, 103, 59, 30, -41, -45, 82, 94, 74, -23, 77, -59, 68, 88, -45, -42, 76, 100, 35, -79, 92, -47, -100, 48, -30, 44, -28, -68, -23, 18, -92, -15, 
  -18, 33, 91, -35, -85, -98, 102, -45, 75, -28, 94, 94, 64, 99, -38, 51, -47, -41, 93, 0, -27, -26, 99, 1, 30, 39, 70, 49, 104, 44, -7, -20, 1, -47, 25, -27, -77, 24, 24, 53, 44, 73, 95, -20, -59, -30, 26, 52, -95, -13, -82, 68, 29, 33, 94, 58, 50, -23, 15, -89, 77, 59, -1, -26, 72, 60, 66, -29, -25, -27, -85, 0, -62, -67, 88, 26, 43, 88, 49, 21, 44, 93, -92, -60, -103, -98, -72, 47, -16, 65, 56, -87, -107, -77, 22, 34, 43, 67, -21, -32, -17, -10, 76, 71, 63, 37, 14, 100, -4, -87, -20, 25, 40, 30, -99, -72, -101, 5, 63, 34, 102, 91, 10, -25, -11, -26, -54, -77, 102, 75, -68, 60, 40, -25, -96, 19, -82, 77, -49, 57, -12, 17, -13, 48, 66, -100, -1, -46, -76, -57, 71, -64, -15, 4, -12, 35, 49, 110, -5, -21, 93, -33, 5, 51, -96, 43, -45, -68, 66, 15, 41, 5, 84, -44, 94, 4, 95, 103, -24, 85, -40, 88, 47, 72, -75, 31, 6, 40, 92, 78, -88, -28, -15, -108, -44, 82, 59, 63, -101, -56, -23, -88, 97, -70, -81, 53, -61, -79, -8, -10, -42, -12, -88, 17, -23, -63, -30, -39, -5, 79, 2, 87, -42, -37, 43, 4, 30, -54, 30, -108, -83, -73, 33, -7, 35, 0, 26, 70, -4, -5, 27, -85, -71, 40, -11, -22, -5, 40, -6, 29, 66, -54, 11, -24, -85, -54, 54, 43, 96, -15, -45, -31, 15, -89, -19, -50, 15, 30, -35, 80, -91, -13, 95, -6, -51, -6, 56, -60, 63, 43, 46, -10, 75, -21, 37, -37, -78, -17, 52, -15, -16, -15, -84, -81, -74, -22, 65, 96, 23, 48, 0, -31, 12, 110, 86, 100, -27, -40, 91, 36, 39, 103, 12, -18, -90, 70, 6, 75, -43, 98, -44, 38, 56, 41, 23, 76, 101, 33, -101, -55, -74, 11, 76, -65, -13, -58, -16, 48, 71, -37, -34, 51, -43, -13, 45, 98, -47, 28, 90, 38, 81, 54, -25, 67, -42, 0, 55, 36, 9, -6, -34, -84, 35, -36, 15, 26, -9, 40, -38, -30, 29, 99, -38, 51, 98, 28, -22, -15, 92, -47, -31, -42, -23, 34, -41, -33, 4, 49, -93, -66, -102, -109, 100, 91, 93, 63, 20, -92, 46, -49, 96, 51, -30, 12, -85, -35, 4, -31, -82, 47, -51, -85, 96, 110, -17, -49, 86, -39, 98, 49, 20, 74, 23, 50, 15, -86, -2, 94, -39, -100, 102, -60, 8, -32, -16, -82, 66, 97, 63, 11, 73, 88, -57, 40, 11, -71, 67, -16, 1, 5, 57, 5, -45, 4, 52, -64, 15, 85, 71, 74, -42, 106, -60, -77, -86, 90, 25, -77, 39, -82, 12, -103, -99, 98, 82, -103, -107, -14, -86, 71, 97, 5, -52, 6, 98, -84, -55, 79, -64, 21, 48, -38, 71, -25, 81, 2, -68, 48, 83, 88, 62, 5, -51, -66, -56, -91, -34, -74, -74, -57, -15, 89, -108, -97, 17, -102, 52, 49, 26, 57, -107, -84, 102, -44, -42, 40, 19, -50, 40, -13, -96, -24, 5, 28, -97, 28, -109, 65, -80, -74, -41, 56, -54, -61, 86, -43, -71, -69, -77, -85, 3, 70, 71, -106, 95, -29, 92, -52, -84, -97, 64, -18, -18, -5, -8, -48, -16, 1, -31, -13, -100, -41, 42, 12, 59, 90, 37, 16, 10, -18, -8, -45, 41, -107, -15, 85, -93, 0, -53, -90, -4, 82, 24, -107, 17, 88, 5, -37, -28, 11, -19, 14, -95, 41, -16, -16, -22, 49, 22, -80, 83, 80, 8, 33, -40, -10, 102, -66, 84, 23, 2, 12, -61, -67, -89, 19, -49, -50, -93, 56, 58, -10, -11, 88, 101, -100, -97, -95, 60, -39, 31, -86, -101, 38, 65, 81, -90, 93, 27, 82, 60, -81, -104, -5, 87, 63, -110, -107, -105, 56, 39, -57, -72, -50, -37, -32, -61, 60, -70, 39, -94, -66, 69, 54, 4, -51, -6, 48, 90, 63, -49, 42, 53, -100, -54, 28, 82, 65, 80, -62, -97, 98, 93, 21, 101, 77, 21, -60, 26, -98, 95, -48, 16, -92, 23, -13, -87, -25, -100, 100, -17, 89, 75, -77, -92, -10, 19, -47, -56, 29, -11, -11, -74, 38, -39, 16, -78, -37, -10, -94, -16, -98, 100, 67, -18, -62, -68, 34, -19, 34, -93, 35, 14, -27, 5, 95, -87, -21, 21, -3, 41, 84, -41, 101, -107, -86, -31, 17, -2, 89, -55, -57, 74, -69, -108, 98, -53, 17, -24, 45, 57, -26, 4, -58, 96, -108, -3, -97, -19, -21, 50, 103, -57, -15, -57, -16, -54, -32, -39, -24, 57, 38, -8, -36, -94, -99, 52, 50, 88, 62, 13, -67, -25, 102, -88, 52, -85, 32, -42, -102, 63, 87, 61, -18, -101, -35, 2, -71, 48, 34, -109, -64, -56, 18, -31, -57, -61, -61, -66, -18, 79, 19, -108, -3, 89, 74, 72, -86, 32, -42, 54, -53, -25, 43, -18, 79, 61, -70, -23, 16, 95, 76, -9, -96, -39, 13, -7, 89, -47, -88, 93, 43, -38, 91, 28, -89, 86, -13, -79, -93, -15, -105, -108, -66, -72, -90, 66, -91, -101, 93, 28, 72, -29, -63, 0, -37, 81, -64, 24, -106, -88, 26, 31, 6, -92, 12, -49, 82, 22, -74, 28, -74, -62, -102, 83, -18, 43, -1, -22, 59, -35, 88, -87, 39, 92, 33, -104, -82, -34, -37, 46, -59, 6, 96, 84, 8, 16, -10, -25, 70, 37, 30, -73, 55, -61, -72, 45, 30, 73, -14, 34, -15, -41, 32, 21, 102, -35, -98, -57, 96, 72, 87, -26, -97, 22, -96, 95, 23, 28, 1, -105, 2, 59, -92, 81, -65, -35, 89, 18, -86, -95, 93, -33, -50, 72, -34, 69, -37, 41, -63, -25, -83, 32, 23, -95, -51, -15, 72, 101, -10, -59, 72, 56, -21, -53, 99, -37, 25, 97, 3, 73, -29, -20, 0, 23, 15, -70, 60, -42, 92, -27, -52, 30, 79, 65, -92, 36, 99, -76, -46, -108, 11, 13, 74, -81, 27, 32, 56, 30, -33, 60, 102, -20, -75, 80, 65, -37, 22, -79, -28, 45, 38, -108, 35, 21, 72, 39, 56, 40, 19, -56, 32, 57, -91, -6, -17, 41, 56, 45, -99, -71, 83, 23, 78, 90, 7, -70, -70, 101, 65, -108, 42, -59, -105, 23, 86, 32, 60, -78, 9, 13, 81, 16, -55, -19, 11, -101, -72, -67, 72, 93, -8, 28, 47, -73, 90, 34, -102, 74, -7, -22, 100, -91, 90, -28, 89, 43, 12, -85, -101, 48, -66, 28, -90, 46, -5, -90, 42, 102, -94, -88, 3, 8, 40, -1, 49, 12, -5, 65, 16, 64, -13, -13, 39, 91, -98, -22, 85, 75, -44, -34, -20, 67, -13, 57, 29, 81, -92, -82, -60, -95, 15, -11, -87, 59, -82, 49, 91, -34, -66, -61, -54, 80, 104, -21, -80, 53, 49, -86, 69, -20, -9, -4, 19, 52, 54, -44, -23, 66, 39, 98, -77, -34, 46, 94, -90, 5, -37, 101, 67, 14, 83, -42, 79, 2, 13, 68, -27, -10, -51, 82, -66, -10, -93, -77, 23, 79, 85, 100, -75, -10, 31, -49, 12, 8, 37, -25, -109, -33, -76, 52, 71, -29, -96, -61, -49, -77, 37, -97, -50, 87, -13, -49, 27, 32, 70, 59, 19, 33, -96, 79, -33, -87, -85, -44, -43, 50, -51, -61, 86, 46, 9, -105, -25, 26, -66, 35, -107, 27, 82, 5, 57, 68, 52, 41, 89, -69, -37, -62, 66, -65, 97, -20, -99, -62, -46, 31, -43, -12, 81, 70, -108, 51, 61, -104, -60, 51, -100, -75, -43, 80, -17, -24, -80, -49, 44, 17, 8, -73, 25, 14, 62, -20, -70, 75, -29, -32, 59, 53, 22, 6, 51, 7, 40, 29, -47, -43, -41, -48, 28, -4, 51, -5, 89, 25, -12, 12, -51, -42, 102, -39, 82, 59, -103, -2, 37, 70, 13, -49, 32, -93, 34, -8, 79, 89, 68, 92, -19, 63, 82, -6, 45, 70, 77, 65, -14, -28, -93, 80, 40, 8, 53, -39, -57, -87, -73, 46, 47, -89, 97, 23, 57, -41, -50, -1, 103, -61, -5, -76, -73, -109, 2, -31, -99, -110, -30, 53, 103, 44, -83, -109, 105, 19, 80, 78, 7, 39, 4, -30, 26, -50, -18, 13, -13, 35, -2, 68, 72, 102, 10, 103, -80, -50, -34, -104, -79, -45, -58, -101, -70, -80, -103, -54, 19, 85, 66, 38, 54, 29, 47, -85, -15, -26, -56, -73, -53, -52, 58, 51, 73, -72, -70, -30, 3, -91, 97, -108, 70, 68, -68, 70, -74, 29, 41, 70, 53, -64, -77, -45, -60, -67, -70, 34, -3, 82, -90, -99, -92, 23, 41, -84, 88, 53, -88, -4, 66, -43, 53, 31, -78, 35, -67, 74, 87, -92, -27, 45, -20, 43, 85, -103, -11, 83, -25, -76, -37, 40, -25, 59, 38, 104, 43, -67, -37, 97, -62, 72, 25, 6, 50, 15, 80, -29, 48, -1, 65, -109, 86, 9, 100, -58, -15, 45, -60, -85, 32, 84, -33, -32, -3, -57, 29, -68, 34, -36, 34, -56, -69, -68, 9, 29, -97, 44, 35, -21, 62, -87, 24, -8, -54, -99, -105, -90, -35, 95, 43, -88, 73, 64, -13, 89, -92, -39, 69, -60, -92, 1, -96, -5, -99, 79, -100, -3, 2, -87, -105, 0, 101, 87, -41, -110, 32, 61, -55, 56, -25, -4, -98, -7, 81, -33, -92, 64, -55, -70, 58, 84, -40, -50, 94, 
