/*
 * Copyright (c) 2026 EdgeImpulse Inc.
 *
 * Generated by Edge Impulse and licensed under the applicable Edge Impulse
 * Terms of Service. Community and Professional Terms of Service
 * (https://edgeimpulse.com/legal/terms-of-service) or Enterprise Terms of
 * Service (https://edgeimpulse.com/legal/enterprise-terms-of-service),
 * according to your product plan subscription (the “License”).
 *
 * This software, documentation and other associated files (collectively referred
 * to as the “Software”) is a single SDK variation generated by the Edge Impulse
 * platform and requires an active paid Edge Impulse subscription to use this
 * Software for any purpose.
 *
 * You may NOT use this Software unless you have an active Edge Impulse subscription
 * that meets the eligibility requirements for the applicable License, subject to
 * your full and continued compliance with the terms and conditions of the License,
 * including without limitation any usage restrictions under the applicable License.
 *
 * If you do not have an active Edge Impulse product plan subscription, or if use
 * of this Software exceeds the usage limitations of your Edge Impulse product plan
 * subscription, you are not permitted to use this Software and must immediately
 * delete and erase all copies of this Software within your control or possession.
 * Edge Impulse reserves all rights and remedies available to enforce its rights.
 *
 * Unless required by applicable law or agreed to in writing, the Software is
 * distributed on an "AS IS" BASIS, WITHOUT WARRANTIES OR CONDITIONS OF ANY KIND,
 * either express or implied. See the License for the specific language governing
 * permissions, disclaimers and limitations under the License.
 */
// Generated on: 23.06.2026 12:44:50

#include <stdio.h>
#include <stdlib.h>
#include "edge-impulse-sdk/tensorflow/lite/c/builtin_op_data.h"
#include "edge-impulse-sdk/tensorflow/lite/c/common.h"
#include "edge-impulse-sdk/tensorflow/lite/micro/micro_mutable_op_resolver.h"
#include "edge-impulse-sdk/porting/ei_classifier_porting.h"

#if EI_CLASSIFIER_PRINT_STATE
#if defined(__cplusplus) && EI_C_LINKAGE == 1
extern "C" {
    extern void ei_printf(const char *format, ...);
}
#else
extern void ei_printf(const char *format, ...);
#endif
#endif

#define STRINGIZE(x) #x
#define STRINGIZE_VALUE_OF(x) STRINGIZE(x)

#if defined (__GNUC__)  /* GNU compiler */
#define ALIGN(X) __attribute__((aligned(X)))
#define DEFINE_SECTION(x) __attribute__((section(x)))
#elif defined (_MSC_VER)
#define ALIGN(X) __declspec(align(X))
#elif defined (__TASKING__) /* TASKING Compiler */
#define ALIGN(X) __align(X)
#define DEFINE_SECTION(x) __attribute__((section(x)))
#elif defined (__ARMCC_VERSION) /* Arm Compiler */
#define ALIGN(X) __ALIGNED(x)
#define DEFINE_SECTION(x) __attribute__((section(x)))
#elif defined (__ICCARM__) /* IAR Compiler */
#define ALIGN(x) __attribute__((aligned(x)))
#define DEFINE_SECTION(x) __attribute__((section(x)))
#elif defined (__clang__) /* LLVM/Clang Compiler */
#define ALIGN(X) __ALIGNED(x)
#define DEFINE_SECTION(x) __attribute__((section(x)))
#endif

#if defined(EI_MODEL_SECTION) && (defined(__GNUC__) || defined(__clang__))
#define MODEL_SECTION(X) __attribute__((section(STRINGIZE_VALUE_OF(X))))
#else
#define MODEL_SECTION(X)
#endif

#ifndef EI_MAX_SCRATCH_BUFFER_COUNT
#ifndef CONFIG_IDF_TARGET_ESP32S3
#define EI_MAX_SCRATCH_BUFFER_COUNT 4
#else
#define EI_MAX_SCRATCH_BUFFER_COUNT 4
#endif // CONFIG_IDF_TARGET_ESP32S3
#endif // EI_MAX_SCRATCH_BUFFER_COUNT

#ifndef EI_MAX_OVERFLOW_BUFFER_COUNT
#define EI_MAX_OVERFLOW_BUFFER_COUNT 10
#endif // EI_MAX_OVERFLOW_BUFFER_COUNT

using namespace tflite;
using namespace tflite::ops;
using namespace tflite::ops::micro;

namespace {

#if defined(EI_CLASSIFIER_ALLOCATION_STATIC_HIMAX) || defined(EI_CLASSIFIER_ALLOCATION_STATIC_HIMAX_GNU)
constexpr int kTensorArenaSize = 2960;
#else
constexpr int kTensorArenaSize = 1936;
#endif

#if defined(EI_CLASSIFIER_ALLOCATION_STATIC)
#if defined (EI_TENSOR_ARENA_LOCATION)
uint8_t tensor_arena[kTensorArenaSize] ALIGN(16) DEFINE_SECTION(STRINGIZE_VALUE_OF(EI_TENSOR_ARENA_LOCATION));
#else
uint8_t tensor_arena[kTensorArenaSize] ALIGN(16);
#endif
#elif defined(EI_CLASSIFIER_ALLOCATION_STATIC_HIMAX)
#pragma Bss(".tensor_arena")
uint8_t tensor_arena[kTensorArenaSize] ALIGN(16);
#pragma Bss()
#elif defined(EI_CLASSIFIER_ALLOCATION_STATIC_HIMAX_GNU)
uint8_t tensor_arena[kTensorArenaSize] ALIGN(16) __attribute__((section(".tensor_arena")));
#else
#define EI_CLASSIFIER_ALLOCATION_HEAP 1
uint8_t* tensor_arena = NULL;
#endif

static uint8_t* tensor_boundary;
static uint8_t* current_location;

template <int SZ, class T> struct TfArray {
  int sz; T elem[SZ];
};

enum used_operators_e {
  OP_FULLY_CONNECTED, OP_SOFTMAX,  OP_LAST
};

struct TensorInfo_t { // subset of TfLiteTensor used for initialization from constant memory
  TfLiteAllocationType allocation_type;
  TfLiteType type;
  void* data;
  TfLiteIntArray* dims;
  size_t bytes;
  TfLiteQuantization quantization;
};

typedef struct {
  TfLiteTensor tensor;
  int16_t index;
} TfLiteTensorWithIndex;

typedef struct {
  TfLiteEvalTensor tensor;
  int16_t index;
} TfLiteEvalTensorWithIndex;

TfLiteContext ctx{};
static const int MAX_TFL_TENSOR_COUNT = 4;
static TfLiteTensorWithIndex tflTensors[MAX_TFL_TENSOR_COUNT];
static const int MAX_TFL_EVAL_COUNT = 4;
static TfLiteEvalTensorWithIndex tflEvalTensors[MAX_TFL_EVAL_COUNT];
TfLiteRegistration registrations[OP_LAST];

namespace g0 {
const TfArray<2, int> tensor_dimension0 = { 2, { 1,1600 } };
const TfArray<1, float> quant0_scale = { 1, { 36.937255859375, } };
const TfArray<1, int> quant0_zero = { 1, { 8 } };
const TfLiteAffineQuantization quant0 = { (TfLiteFloatArray*)&quant0_scale, (TfLiteIntArray*)&quant0_zero, 0 };
const MODEL_SECTION(EI_MODEL_SECTION) ALIGN(8) int32_t tensor_data1[3] = { 0, 0, 0, };
const TfArray<1, int> tensor_dimension1 = { 1, { 3 } };
const TfArray<1, float> quant1_scale = { 1, { 0.084177173674106598, } };
const TfArray<1, int> quant1_zero = { 1, { 0 } };
const TfLiteAffineQuantization quant1 = { (TfLiteFloatArray*)&quant1_scale, (TfLiteIntArray*)&quant1_zero, 0 };
const MODEL_SECTION(EI_MODEL_SECTION) ALIGN(16) int8_t tensor_data2[3*10] = { 
  75, 15, 109, -100, -46, 56, 90, -102, -127, 91, 
  72, 74, -23, -81, -120, 11, 37, -101, 12, -24, 
  -104, -23, 126, 0, -109, -97, -105, -57, 118, 33, 
};
const TfArray<2, int> tensor_dimension2 = { 2, { 3,10 } };
const TfArray<1, float> quant2_scale = { 1, { 0.0052292598411440849, } };
const TfLiteAffineQuantization quant2 = { (TfLiteFloatArray*)&quant2_scale, (TfLiteIntArray*)&g0::quant1_zero, 0 };
const MODEL_SECTION(EI_MODEL_SECTION) ALIGN(16) int32_t tensor_data3[10] = { 0, 0, 0, 0, 0, 0, 0, 0, 0, 0, };
const TfArray<1, int> tensor_dimension3 = { 1, { 10 } };
const TfArray<1, float> quant3_scale = { 1, { 0.092144042253494263, } };
const TfLiteAffineQuantization quant3 = { (TfLiteFloatArray*)&quant3_scale, (TfLiteIntArray*)&g0::quant1_zero, 0 };
const MODEL_SECTION(EI_MODEL_SECTION) ALIGN(16) int8_t tensor_data4[10*20] = { 
  44, -84, -73, 14, 108, 16, 123, -114, -6, -56, 25, 20, 68, 123, 58, -89, -1, -29, -76, 26, 
  -60, -124, 74, 73, 58, -44, -58, -106, -100, 20, -57, -57, 68, 24, 75, 97, -54, 37, -48, -33, 
  -25, -105, -3, 114, -52, -65, -38, 22, -45, -13, 35, 55, -24, -94, -14, -75, 91, -106, -109, -88, 
  64, 15, 102, 4, -72, 84, -63, -49, -30, 81, 108, 53, -79, -101, -4, -49, -28, -58, 114, 92, 
  -50, 65, -105, -47, -92, 75, -38, 29, -101, 66, 98, 61, -22, 53, 26, -103, -53, 109, 79, 62, 
  -95, 76, -75, 55, -33, -127, -8, 84, -127, -51, 84, 65, -56, 68, -26, -73, -40, 67, -73, 4, 
  99, 51, -64, -86, 87, 85, 12, -37, -29, 2, 67, 44, -78, -45, 10, -19, 64, -20, -18, -38, 
  -17, 99, 51, 67, -12, 94, 94, -120, 123, -32, -64, 123, 72, -28, -108, 54, 93, 6, 14, 91, 
  67, 44, 59, 44, 95, 36, -119, -29, -32, 13, 103, 23, -6, -115, -37, 103, -95, 77, -52, -35, 
  47, -78, -17, -3, 87, 109, -22, 11, 83, -102, -65, 52, -82, -59, 60, -21, -20, 96, 3, 83, 
};
const TfArray<2, int> tensor_dimension4 = { 2, { 10,20 } };
const TfArray<1, float> quant4_scale = { 1, { 0.0035280599258840084, } };
const TfLiteAffineQuantization quant4 = { (TfLiteFloatArray*)&quant4_scale, (TfLiteIntArray*)&g0::quant1_zero, 0 };
const MODEL_SECTION(EI_MODEL_SECTION) ALIGN(16) int32_t tensor_data5[20] = { 0, 0, 0, 0, 0, 0, 0, 0, 0, 0, 0, 0, 0, 0, 0, 0, 0, 0, 0, 0, };
const TfArray<1, int> tensor_dimension5 = { 1, { 20 } };
const TfArray<1, float> quant5_scale = { 1, { 0.019059080630540848, } };
const TfLiteAffineQuantization quant5 = { (TfLiteFloatArray*)&quant5_scale, (TfLiteIntArray*)&g0::quant1_zero, 0 };
const MODEL_SECTION(EI_MODEL_SECTION) ALIGN(16) int8_t tensor_data6[20*1600] = { 
  0, -16, -28, 95, 34, 59, 37, -74, 45, -92, -4, 42, -102, -74, -28, 104, 29, 85, -58, -57, 101, -30, 100, 21, -100, 75, -57, -56, -79, -102, 25, 37, 70, -96, -111, 49, -72, 84, -8, -74, 54, -9, -87, -34, -99, 97, -43, 103, -75, -83, -22, -108, 46, -25, -94, 75, 112, 88, 114, 70, 45, -45, 10, -80, -18, -81, 2, 36, 99, -15, 31, -98, -69, -30, -25, -62, 82, 54, -16, 97, 32, -4, -19, 33, -23, 16, -114, -13, -86, -108, 40, -27, -58, 97, -11, -109, 111, 62, -88, -46, -7, -115, 27, 60, -27, -47, -45, 4, -63, -56, 95, 34, 4, 74, -59, 106, -52, 40, -113, 36, 54, 2, 25, 107, -114, -22, 77, 7, 93, -17, -101, -68, 108, 35, 96, -62, 5, 113, -29, 5, 59, -5, -73, -72, -44, -23, -26, 56, -68, -56, -48, 67, -29, 67, 34, -42, 89, 23, -112, -3, 41, 88, -65, -49, -40, -46, -82, -83, 75, 96, -65, -24, -29, -40, -17, 86, 65, 59, -76, -84, 13, 42, -100, -78, 12, 42, -55, -110, 68, -3, 110, -77, 21, 115, 60, 46, -73, 87, -101, -7, -34, 70, 102, 36, 36, -77, 81, -62, 43, 84, 107, 66, -20, -40, -34, -20, -29, -55, -32, -62, 42, 66, 52, -98, 103, -82, -33, -60, -112, 117, -25, -102, -47, -39, -104, -83, 100, 18, 92, 96, -46, -72, 54, -71, 86, 93, -60, 5, -46, 106, 34, 73, -17, 45, -106, -60, -6, 42, -57, 35, 12, 100, -55, 23, -7, 94, -14, 88, 86, 100, 64, -47, -20, -13, -20, -115, -99, 49, -23, -63, 103, -67, 14, -42, -70, -9, -77, -44, -43, -33, -24, 116, 20, -53, 96, 40, -13, -21, 10, 88, 3, 57, 29, -115, 57, -45, 106, -114, 41, 46, -38, -116, -17, -37, -5, -1, -10, -71, 1, -106, 43, -50, -1, 20, 23, -100, -19, 27, -6, -37, -48, 31, -105, -51, -9, 89, -18, 101, -103, -92, -100, -84, 41, 33, -44, 39, -78, -22, 25, -54, 87, 107, -86, -115, 32, 2, -11, -54, 64, 1, -23, -33, 60, 107, 47, -12, -76, 34, -52, 98, 21, -56, 58, 75, 5, 29, -111, -65, 35, -24, 52, 81, -46, 38, 95, -99, -27, -72, 69, -53, 54, -46, -85, -10, 19, -101, -28, -112, 33, 53, -30, 43, 28, 60, 15, -101, 77, 14, 4, -37, 20, 101, 18, 16, -34, -116, 116, -67, 115, -115, 76, 86, -69, 90, 96, -48, 98, -3, -81, 63, 111, 82, 105, 15, -97, 19, 103, 98, -54, 16, -60, -33, -22, -71, -93, -16, 79, 35, -78, -54, 106, -32, 47, -108, 93, 15, -82, -55, -66, 0, -90, 120, -4, -80, 84, -89, -84, 19, -96, -10, 59, -46, 66, 50, -83, 90, -68, -27, 41, 21, 110, -2, -87, -24, 81, 26, -107, -4, -35, -21, -18, -38, 99, -31, -5, -48, -73, 114, -70, 66, -80, -24, -91, 14, 96, -23, -43, 94, -73, 34, 117, 58, -12, -38, 20, 15, 12, -93, -59, 5, -68, 38, -84, -6, 12, 69, 20, 10, 25, 114, -63, -47, 6, -104, 26, 101, 20, -93, -35, -103, 12, -8, 84, -50, 52, 99, -80, -58, 35, -48, 64, 52, -110, 76, -41, -32, -57, -109, 95, 94, 68, 5, 45, -61, -6, 117, -89, 58, -109, -110, -77, -15, 11, -27, 46, 6, 107, 47, 67, 81, 45, 67, -98, 68, -51, -60, -99, 108, 44, 48, -42, 59, 12, -53, 4, 31, -9, -23, 64, 75, 44, 102, -9, 49, -111, -45, -108, -9, 95, 45, 61, 109, -88, 90, 17, 13, 35, -2, 3, -43, -58, -112, -42, -57, 34, 47, 96, -72, -49, 16, 92, 34, -50, 111, -88, 34, 93, 32, -86, -23, -12, 108, 13, 14, 75, -109, -12, -116, 28, 77, 23, 117, -97, 15, -15, 61, -94, -50, 75, -47, -44, -40, -52, 31, -26, 26, 108, -51, 92, 99, 32, -8, -44, 103, 65, -9, 82, 24, -68, -112, -31, 117, -48, 103, 0, 98, 9, -103, 3, -94, 0, 50, -33, 55, -66, -6, 26, -69, -65, 42, 68, 43, 96, -73, -100, -96, 35, 110, 87, 67, 98, -27, 1, -3, 86, -80, -41, 43, -47, 0, -108, 61, 17, 25, -100, -47, 9, -23, -13, 82, -69, 112, 35, 67, 31, 1, 112, -15, 54, 37, 84, -79, -46, -38, 9, 29, 68, -65, -94, 34, -97, -2, 5, -54, -73, -113, -56, -35, 53, -95, -94, -68, 79, -37, -31, -1, -80, 74, -77, -78, 110, -60, 24, -15, 84, 15, -73, -28, 96, -64, -62, 96, 28, 57, -98, 26, -5, -39, -57, 54, -88, 0, 25, -92, 0, -7, 58, -33, 17, 17, -97, 3, -40, 48, -12, 107, 118, -38, -31, -89, -93, -41, -91, 72, 102, 85, -105, 39, 76, -7, 73, -58, 116, 5, 40, 124, 21, -12, 71, 60, 74, -95, 64, 70, -42, -5, 102, -59, -103, -104, -96, -87, 70, 12, 18, -26, -88, -7, -19, -22, 7, 71, 15, 85, -45, -68, 47, 2, 10, -23, 41, -84, 20, 44, -69, -9, -53, -44, 74, 77, 12, -86, 4, 29, -91, -109, -8, -112, 12, 67, 31, 66, -2, 87, -32, 55, 13, -70, 40, -23, -23, -68, 17, 56, 73, -67, -26, 53, 35, 26, -114, 105, 6, -61, 16, -109, -54, -55, 79, 54, 62, -98, 79, -54, -29, 105, -75, 46, -46, -27, 57, -22, 65, -8, 33, 63, -111, -85, 117, 65, -8, -27, 80, 40, 40, -109, -77, 102, 77, 5, 59, -52, 44, -79, 107, -74, -18, 57, 67, -65, 77, -72, 102, -87, -12, -98, -113, -98, -107, -56, 28, -7, -38, 14, -8, -24, -83, 96, -5, -102, -105, 72, -1, -36, -113, -66, 55, 5, 108, -86, -57, -78, -107, 48, 22, 87, -91, -27, -25, -99, 15, -110, -56, 108, -111, -96, -41, -62, 38, 36, -58, 82, 103, -70, -81, -93, 68, 29, 28, -41, -10, -75, -19, 108, -48, 99, 110, 42, -24, 6, 103, -41, 58, 49, -111, 49, 38, 85, 39, 9, 88, -114, -70, 27, -30, -115, -38, -13, 55, -2, -72, 33, -72, 2, -112, 97, -111, 77, 19, 4, 55, 102, -78, -4, 93, -8, 68, 40, -49, 47, -36, 82, 62, 80, -40, 10, -76, -27, 44, -102, -110, -119, -38, 95, 90, -101, 108, -102, 29, -19, 27, 14, 5, -13, 38, 47, -109, -11, -16, -23, -18, -46, 106, 121, -58, -55, 23, -84, 94, -90, -80, 87, -119, -83, -42, -90, -22, -35, 54, -22, -64, 10, -15, -101, 104, -101, -68, -19, 79, 22, -110, -42, -75, -100, -52, -27, 106, -58, -98, 74, -86, 1, -38, -103, 94, -19, -56, -26, 85, -96, -85, -16, 0, 78, -76, 112, -68, 102, -16, -103, -96, 114, -107, -114, 35, -2, 23, -57, 113, -88, 71, -95, -91, 30, 75, -34, -79, -13, 21, 67, 56, 75, 23, 39, -66, 19, 1, -88, 35, 43, 31, 93, 49, 96, 61, -12, 97, -113, -35, -102, -21, 86, -88, 106, -48, 87, 44, 9, -86, 86, -86, 59, 77, -32, -110, 103, -26, -84, -37, 66, 2, 22, -105, 81, 7, -69, -38, 94, -78, 24, -38, -7, 40, -9, -117, 3, -98, -13, 80, 50, -19, 52, 49, 41, -68, 64, -89, 44, -41, 80, -59, -82, 10, -13, -25, 70, 39, -115, 23, 103, -27, 95, -33, 58, -77, -37, 73, -45, 10, -33, 62, 26, -63, 113, -87, 34, -94, 67, 49, -36, 44, 10, 45, 87, -112, -110, -21, -18, 101, -65, 56, -35, 51, 8, -58, -13, -109, -17, 51, 6, 15, -21, 114, 42, 79, -73, 29, 96, -52, 82, 72, -28, 32, 68, 64, 90, -119, -60, -95, 45, -111, 47, -94, 47, 69, -50, -11, 3, 56, -56, -37, -70, -106, 39, -62, -92, 42, 49, -83, 46, 74, -34, 0, 97, 39, -42, 17, -99, -32, -14, 41, 10, 25, 50, 99, -113, 75, -57, -64, 45, 5, 50, 6, 18, -6, -2, 115, 18, -16, 18, 16, -30, -96, 82, 38, 104, 13, -39, 112, -114, -118, 110, 7, -75, 87, -111, 54, -81, -112, -18, 99, -59, 6, 78, -21, -60, 28, -31, -41, 45, 101, -97, 79, -118, -28, 64, -106, 79, -103, -71, 90, 24, -41, -99, 43, 67, -16, -69, -16, -102, 50, 45, 0, 84, -98, 23, 61, 28, -65, 39, -14, -52, -17, 94, 30, -23, -92, -44, 62, -8, -65, -40, 89, -100, 58, -112, -64, -93, -18, -33, 75, -13, 26, -107, 3, 79, -83, -53, 76, -111, -61, -61, 45, -81, -83, 10, 36, -16, -115, -97, 64, -64, 49, -22, -38, 81, 7, 86, -46, 51, -88, -66, 27, -110, 43, 46, -40, -42, 117, -103, 62, 6, 72, -75, -85, 49, 51, -62, -109, -17, 61, 50, -59, 9, -12, 90, 78, -44, 15, 96, -88, 100, 57, -41, -31, -61, 104, 104, 68, -108, 25, -76, 36, -4, -48, 76, -49, -110, -81, -8, 74, 103, -70, -39, 82, -84, 106, 111, -84, -10, -62, -57, 85, -45, -3, -91, -21, -19, 46, -23, 4, 75, 59, -97, 75, -113, -7, -105, 15, 50, -19, 53, 89, 26, 106, 53, 106, 87, -1, 36, -101, 112, -10, -4, -30, 33, 46, -14, 96, -98, 40, -9, -35, -16, -28, -32, -30, -109, 46, 13, -58, -27, 7, -116, -98, -50, -64, -7, 14, -92, 78, 73, 9, 117, -19, -114, -52, 102, -85, 20, 
  -114, -8, 95, 15, -34, 19, 36, 35, 51, 107, -75, 48, 16, 21, 71, -62, 90, 57, 118, -69, -19, -11, 96, -22, 59, 56, -21, 84, -28, -85, -18, 108, 100, 112, 79, -37, -93, -11, 30, -53, -48, -64, 113, 82, 67, -30, 86, -81, 9, 0, -106, -13, 4, -44, -15, -118, -110, 92, 97, -93, -21, 80, -47, -20, -29, 1, 87, -116, 64, -31, 105, -66, 69, -7, 17, 95, -36, -66, -8, 104, -15, -117, -60, -1, 53, 9, -24, -85, 22, -28, 36, 36, 104, 27, 6, 66, -55, -96, 19, -103, 25, 111, -1, -16, -81, 54, 85, -74, -21, -21, -34, -102, 115, 35, -33, 102, 30, 24, -86, -81, 29, -109, -37, -60, 54, -10, -3, 45, -96, 108, -41, -34, 73, -35, 109, 71, -73, -37, -18, 73, -111, 17, -12, -52, 4, 72, 72, 55, -45, -68, -54, -41, -53, -45, -45, 82, 71, 106, -80, -55, -68, -95, 64, -53, -96, -38, -88, 19, -102, -30, -23, -73, 49, -40, -19, 76, 62, -38, -63, -69, -90, 28, 41, 36, -26, 89, -9, -22, 72, 112, 91, 48, 84, 100, -17, 24, -67, -100, -101, 101, 83, -43, -97, 11, -67, 11, 63, 102, 56, 80, -66, -22, -1, -12, -88, 6, 35, 39, -8, -84, -97, -98, 46, -52, 38, 96, -30, -28, -51, -96, 115, 83, 91, 61, -73, -67, 6, -7, -15, 2, -108, 65, 23, 115, -12, -20, -7, -93, 35, 94, 46, -68, 9, 28, 118, 39, -41, -9, -91, 64, -117, -40, 101, -77, 69, -39, -113, -21, 101, -100, -67, -33, 68, 58, 112, -103, 75, -2, 37, -12, -78, -68, 18, 35, 34, -39, 47, -115, 111, -94, 21, -44, -32, 29, -29, -1, -29, 8, 61, 7, 101, 3, -41, -8, 14, -25, -66, -37, -107, 39, 24, 79, 98, -103, 105, -39, 85, 111, 19, 12, -32, 101, 30, -105, 91, -11, 24, -44, 77, -18, -55, -42, -15, 112, 71, 103, -44, 14, 86, -80, 94, 80, -13, 50, 26, 42, 21, -86, -88, -107, 114, 55, 87, 42, 90, -45, -36, -113, -91, -28, -103, 35, 108, 63, -49, 115, 35, 103, -109, -45, -66, -4, 61, 44, -23, 71, -117, -109, 72, 14, -99, 82, -55, 109, 64, -24, -11, -45, -74, 79, -57, -40, -43, -79, 77, -21, 115, 87, -37, -96, 29, 25, -72, -23, 6, 78, -2, -45, -46, -74, 106, -63, -89, 113, -116, -53, -11, -69, -92, -62, -27, 78, 99, -102, 6, -74, -49, 76, -1, -55, 76, -41, -66, -44, 100, -109, 33, -23, 75, 84, 67, -30, -15, 99, 57, 54, 68, 70, 9, 84, 26, -9, 58, -102, 61, 77, -28, 60, 74, 75, 33, 29, 13, 114, 0, -97, -43, 69, 44, -95, -94, 96, -23, 115, -53, 58, 82, -72, 4, 108, 47, -35, 25, -107, 48, 1, -91, 71, 15, 114, -37, -25, 54, -56, -72, 5, 68, -24, -94, -44, -88, 23, -8, -32, 1, 115, 87, 116, -74, 41, -86, 17, -105, 107, 110, -9, -7, 35, -74, 115, 38, -57, 5, 14, -43, -100, 42, 68, -93, 91, -6, -75, 35, -60, -96, -58, -97, -86, -59, 53, 51, 59, -55, 98, -102, 90, -20, 12, 47, 7, 70, -63, -98, 42, 48, 69, -14, 110, -26, -37, -38, 35, -63, -36, -14, 30, 45, 24, -87, -5, 92, -1, 108, 40, 100, -27, -43, 51, 79, 105, 104, -73, -32, -24, 109, 81, -63, -12, -37, -113, -40, -83, -101, 5, 68, 57, 35, -89, -107, -78, 30, -18, -80, 87, -105, 27, 98, -3, -77, -11, 59, 31, 80, -20, 95, -2, 43, -25, 99, -75, -53, -2, 99, -39, -24, 19, 15, 75, -109, 108, -50, -38, 67, -117, 107, 4, 21, 104, -115, 48, -1, -83, 97, -85, -52, 0, 65, -44, 90, -109, 95, -38, -4, -62, -17, 17, 96, -110, 94, -104, -30, -105, 42, -22, 73, 35, -25, -52, -60, 13, 78, -7, 108, 48, -96, 114, -90, -41, 38, -80, -30, 45, -18, -63, -20, 81, -100, 104, -5, 44, 96, 99, 45, -52, -16, -95, -65, 12, -13, 53, 3, 29, -9, -79, 21, -79, 91, 100, 89, 113, 54, -63, 41, -62, 5, -15, -87, 8, 50, -97, -52, -33, -69, -83, -40, 10, -4, -24, -30, 96, -21, 65, -5, 36, 53, -55, -7, -67, -35, -96, -56, 117, -102, -63, 113, 1, 112, -17, 117, -39, -71, 37, -14, -92, -30, 33, -82, 75, -74, -118, -111, 65, -46, 85, -108, 110, -11, -60, -80, 117, -75, -39, -27, 111, 13, -50, 68, 71, 112, 99, -111, 76, 47, -113, -37, -90, 105, -51, 49, 47, -61, -72, 50, -114, 11, -82, 69, -92, -2, 50, -20, -91, 17, -81, -27, 38, 104, 43, 18, 76, 46, -74, -116, 22, 58, 51, 110, 19, -86, 110, -87, 93, 59, 78, 8, -93, -87, 60, 69, -46, -34, 53, 34, -25, 37, -81, -29, -43, -86, 53, 67, 30, 53, -45, 89, 20, 105, 37, -46, -74, -25, -48, 104, 108, -32, -80, -85, -51, 38, 37, -25, -66, -25, 10, -103, -62, 99, 55, -71, -95, 106, 20, 51, 68, -83, -91, -75, 75, 0, 14, -96, 49, 61, 44, -32, -42, 36, -22, -117, 30, -108, -99, 57, -71, 113, 63, 21, -39, -23, 9, -91, -60, -12, 12, -96, 3, -58, 99, 32, -82, -72, -102, 76, 82, -54, -6, -22, -35, 10, 74, -42, 32, -25, -102, -75, -39, -97, -3, -57, -60, 0, -68, -75, 2, 43, -41, 46, -64, -8, -77, -14, -117, 17, 59, 87, -1, 81, -79, 16, 116, 45, -106, -24, -27, 46, 106, 9, 104, -43, 105, 4, -86, -33, -86, 29, 26, 112, 26, 83, -114, 70, -71, 91, 96, -34, 109, -74, 39, 76, -65, 102, 97, 11, -114, -42, -87, 41, -32, -40, -35, 111, 54, -64, -89, 74, -48, -69, -57, -11, -41, 22, -54, 18, -77, -12, 57, 18, -65, 98, -61, 60, -28, -95, -90, -50, -111, 115, 86, 28, 58, -26, 73, -17, -113, 29, -67, -52, 49, 80, 36, 55, -55, -78, -27, 27, -29, -65, -7, -28, 75, 96, -14, -67, 44, 98, -39, -36, 20, -49, -113, -64, 39, 4, -64, -55, -40, 35, 83, 61, 62, -109, -94, -68, 115, -98, 73, -43, 38, -102, 86, -31, -32, -35, 1, -27, 13, -8, -36, -92, -87, -7, -21, 42, -46, -73, 17, 45, 1, 112, 69, -84, 48, -19, -67, -105, -59, 95, 64, 19, -77, -49, -100, 24, 84, 100, 109, 106, -46, -111, -21, 82, -46, 109, -20, -106, -60, 14, -51, -105, -115, -18, -29, 113, -50, 11, -62, -39, 6, -61, 84, -57, 15, 40, 51, -5, -54, -31, -11, -79, -90, -24, -104, -43, -76, -16, -76, -39, -15, 111, -17, -49, -43, 32, -4, -25, -57, 58, 37, 11, -103, -77, -39, 111, 50, 60, -49, 99, 74, 62, 101, -63, -40, -86, -45, 88, -14, 40, 27, 16, -29, 9, -69, -16, 59, -76, -79, 20, 0, -81, -101, 66, -10, 28, -103, -13, 45, 22, -60, 35, -53, 48, -45, -2, -86, -65, 78, -103, 28, 48, 73, 35, -72, -60, 44, 67, -17, -3, -10, 118, 9, -100, -65, 25, 43, -64, 7, -72, 69, -39, -16, -95, 34, -81, -105, 53, -63, 104, -105, -45, -82, 71, 49, 67, -98, 111, -117, 56, 59, 80, -70, -103, -70, -104, 91, -27, 107, -4, 7, 7, -118, -50, -90, 8, -14, -45, -103, 45, 105, 74, 22, 111, -41, -82, 72, 35, -50, 43, 65, -14, -101, 19, 14, 40, 93, -2, -61, 70, -22, -77, -2, -7, 104, 31, -58, -105, -53, 97, -99, -43, 87, -23, 42, -84, 99, -40, 113, 29, 66, 5, -76, -63, 99, 109, -34, 49, -89, 37, 44, -35, 52, -37, -39, 17, -93, 34, 37, -30, 52, 103, -84, -48, -108, 70, 21, 53, -97, 71, 60, -32, 79, 41, 92, -82, -25, -100, 54, 85, -99, -65, 103, 45, -51, -105, 68, 46, -62, -55, 30, 2, 29, -89, -59, -48, -103, -83, -19, -44, 70, 70, -48, 94, -96, -105, 90, -1, 14, 112, 93, 34, 0, 82, 76, -101, 81, 70, -62, -17, 83, 21, -71, -85, 54, 35, 92, 17, 41, -94, 19, -21, 100, 79, 79, 63, -21, 70, 22, 38, 56, -61, -56, -66, 85, 23, -66, -60, -100, 97, 48, 27, -60, -114, 68, 60, 111, 3, -30, 104, -116, -75, -91, -69, -18, -73, 105, 51, -56, -82, 74, -7, 3, 98, 74, -41, 66, 76, 90, -47, -34, -75, -20, -90, -17, -102, -102, 22, -107, 47, -105, 4, -81, -64, 65, -72, -57, -71, -71, -103, 27, -27, 23, -2, -27, -20, -56, 60, -6, 29, 2, -72, -64, 69, 46, 86, 50, 88, -47, 26, -10, -29, -94, 24, -32, 15, -90, -111, -50, -47, -9, 28, -57, 76, 15, -14, 17, -89, -53, 113, 81, 66, -7, -25, -48, -21, 26, -51, 16, 50, -3, 34, -81, -43, 4, -60, -115, -6, 17, 27, -62, -3, -12, -19, -48, -68, -109, 3, 64, 64, -56, 25, 105, -16, 13, 13, 20, 39, 118, 6, -67, 79, 86, 43, -44, 56, -40, 60, -85, 58, -30, 88, 76, 88, 8, 55, 41, -42, 69, -49, -61, -3, 102, 88, -23, 90, 34, 37, -18, -101, -115, -49, 34, -35, -32, -31, -23, -102, 25, 86, 32, -62, 17, -104, 111, -15, -110, 25, 66, -71, -60, -56, 93, 
  75, -15, -100, -83, 50, -61, 71, 98, 111, -10, -88, 19, -85, 56, -68, 81, 38, 68, 2, 50, 116, -109, 64, -91, 14, -30, 111, 57, -60, -91, -59, 77, 60, -84, -22, -38, -100, -7, 67, -89, 59, 60, -108, -19, 42, -22, -60, -93, 41, -30, 60, -26, -21, -2, 61, -95, 12, 16, 13, -32, 107, -40, -18, 20, -32, 68, 24, -65, -35, -39, -6, -113, 8, 99, -20, -100, -99, 63, -57, -70, 48, -63, 42, -4, 10, 19, -29, -2, -92, 0, -82, 97, 26, -41, 116, 79, 37, 58, 40, 34, -112, -100, -60, -83, 53, -46, 103, 83, 10, -20, -55, 60, 9, -93, -72, -96, 55, 118, -26, 50, -59, 94, 117, -112, 102, 97, 31, 77, -97, -7, 65, -71, 22, 57, 58, 56, -57, 85, 69, 40, -17, 102, 107, 105, -94, 2, -97, 11, -41, 15, 50, -60, -39, 12, 46, 114, 66, -37, 91, -86, 10, 83, 26, 104, -5, -70, -50, -20, -42, -17, -92, -34, 5, -112, -37, 21, 69, -56, -59, -104, 70, -92, -2, 108, -65, 15, 60, -18, 52, -76, 10, 32, -40, 94, 1, -79, 25, -97, -83, -1, 107, -5, 20, -32, -98, -91, 32, 12, -111, 98, 85, -116, -42, -42, 72, 45, -103, 81, 100, -112, -11, 23, 59, -53, -72, 9, 10, -114, -82, -25, 3, 43, -46, 21, 115, -3, 73, 14, 81, -74, -80, 106, -106, -33, 27, -105, 11, -3, 100, -41, 27, 65, 98, -49, 69, -56, -97, 97, -117, -90, 45, -82, 11, -96, -54, 82, 76, -51, 44, 39, 43, 43, 78, -16, 6, 7, -33, -42, -80, -57, 71, -60, -52, 34, -70, 1, 23, -81, 68, -113, -43, -96, 111, 114, 99, -31, 91, -55, 70, -83, 88, 76, 34, -83, -8, -56, 5, -39, 106, 18, -61, 92, -70, 16, 98, -6, 110, 116, -18, 95, 4, -95, 4, 111, 81, 105, -117, 19, -69, 49, 40, 24, 27, -47, -51, 53, -74, -36, -13, -54, 100, 102, -22, -74, 94, 98, 45, -99, 64, 102, 44, 12, 89, -101, -71, -55, -62, 50, 97, -80, -84, -40, 9, 117, -59, 108, -29, -99, -39, -70, 11, -20, -104, -67, -26, -25, -101, -65, -106, -37, 21, -44, -59, 23, -56, -84, -65, -58, -38, 86, -95, 30, -74, 32, -42, 101, 101, 48, -19, -75, 70, -110, 81, 81, 111, -21, 102, 8, -27, 58, -29, 71, -116, 72, 64, -25, -59, 11, -21, -100, 100, -68, -51, -81, 13, -36, 20, -107, 45, 85, -24, -112, -3, -106, 113, -11, -9, -115, -21, -45, -91, 1, 115, -57, -35, 76, -21, -34, -39, 94, -3, -44, -24, 99, -3, -81, 1, 22, 7, 57, 64, 39, 20, -47, -37, 58, 68, 64, 95, 10, -38, -1, -105, -9, -57, -66, -36, 69, -6, -111, -59, -92, 49, 67, -10, 64, -26, 62, 39, -109, 77, -45, 76, 100, 73, 84, 81, -93, 114, 33, 21, -97, -40, 57, 51, -80, 57, 92, 62, 22, 42, -117, 69, 55, 111, 26, -23, -52, 60, -55, 0, -58, -94, -105, 107, -103, 18, 41, 75, 22, -81, 7, 48, -113, 99, -5, 8, -111, -56, -105, -34, 93, 72, 98, -2, -21, -79, -59, -7, -62, -108, 88, -79, -89, 36, -44, 116, 42, -6, 28, -39, -94, -84, -52, -22, -109, -63, 97, 45, 110, 27, -113, 8, 61, -57, 9, -93, 4, -93, 105, 40, -62, 16, 21, -4, 114, 25, 53, -93, -53, -61, -83, 15, -64, -90, 100, -89, -14, 18, 62, -80, -48, -82, -24, 82, -28, 97, -75, 105, -85, 68, -91, 39, -97, 108, 7, -39, 33, 98, -90, 104, 16, -44, 38, -8, 55, -18, -74, -87, 55, -110, 41, 61, 1, 12, 13, 53, 108, -17, -56, -18, 37, -62, 54, 41, -107, -94, -74, 111, -42, -112, 54, 33, -38, 36, 78, -76, -17, -66, -34, -25, -75, 33, 36, -64, 26, -6, -50, 54, 54, -55, 75, 100, -14, 76, -7, -115, -43, 97, 65, -17, -28, 104, -40, 50, 44, 85, 4, 21, -82, 71, 78, -56, 69, 95, -109, -104, -4, 79, -105, -26, -2, 9, 84, 69, 45, -24, 16, 36, -22, -44, -10, 116, 28, -22, 65, -24, 18, -83, 41, 76, 64, 35, -84, 85, 85, 14, -76, 20, -87, -95, -89, -4, 2, 22, 66, -21, 46, 79, -92, -118, 38, 44, -33, 44, 95, -11, 114, -37, -26, 0, 26, 40, -54, 67, 30, -75, -80, -43, -104, -51, -25, 39, 45, 104, 40, 55, -1, 67, -53, 70, -14, -104, -91, 16, -17, -67, 116, 93, -65, -10, -23, -112, -72, -43, -48, -20, -84, -72, -58, -7, -52, 10, 109, 105, 31, -60, -23, 73, 20, -83, -108, -101, 86, 105, 17, -86, 55, 113, -26, 28, 47, -71, -8, -114, -113, -32, -60, 68, 94, 27, 10, 85, -54, -59, -94, -21, -66, -53, -95, 29, 97, 103, 11, -33, -99, -88, -2, -53, -34, -21, 25, -8, 116, -51, 64, 108, -94, -60, -74, 80, 58, 23, 84, -76, -86, -15, -37, 10, 36, -12, 45, 98, 49, 109, -118, -104, 41, -108, -108, -98, -38, 74, -37, 82, 50, -26, 100, 60, -79, 59, -35, 107, -37, 67, -63, -81, 79, 38, -98, -32, 2, -19, -76, 17, -82, -100, -73, -12, 118, -113, 68, -106, -58, -104, 29, -37, -24, 27, 20, 59, -117, 12, -94, 16, -115, -80, -6, -77, -10, -115, -24, -37, 30, 83, 45, -89, -24, -53, -83, 100, 49, -38, 83, 51, 115, 111, -83, 44, 53, 54, 78, -41, -28, -50, -56, 117, 76, 36, 79, -52, -34, -100, 102, 99, 67, 94, 30, -49, 28, 90, -19, -32, -32, 74, 67, -22, 12, 81, 70, 4, -96, 19, -101, -27, 10, 68, -113, -3, -38, -38, -28, 60, 15, 102, -20, -47, 107, -99, -114, -40, 94, 21, -96, -20, 99, -108, -5, -48, 27, -109, 74, -11, 25, -55, -29, 116, 4, -108, 20, 65, 9, -42, 73, -13, 64, 14, -10, 76, 16, -43, -81, 34, -91, -59, -57, 77, -46, -30, 117, 13, 32, -107, -96, -67, 90, 83, -83, 61, 22, -90, 1, 109, -76, -63, -87, 112, 81, 54, 18, -41, 21, -75, 63, 11, 67, 26, 1, -6, -109, 58, 48, -10, -86, 38, 22, 34, -56, -52, -116, -29, -14, 52, -95, 111, -21, 70, 116, -66, -88, -35, -33, 26, -105, -1, 73, -25, 12, 105, 72, -29, -36, 26, 61, -48, 45, -23, 32, -36, 27, -32, 12, -6, -45, 59, 61, -68, 17, -104, -108, -15, -76, -70, 25, 78, 80, -107, -4, 20, -92, -7, -11, -49, -27, -29, 89, 77, -24, -86, 81, 6, 13, 68, -113, -114, 74, -31, -110, 82, -115, 85, -52, 62, -66, 35, -64, -14, -47, -106, 88, -45, -60, 71, 108, -15, 74, -14, -35, -103, 44, -53, -32, -113, -117, -84, -8, -69, -103, 78, 87, -96, -60, 86, -49, -22, -110, -51, -84, -113, -25, -101, -11, 42, -1, -112, -56, -53, 84, -78, 104, 12, -95, -42, 113, 97, -54, 106, 110, 92, -28, 18, -106, 21, 105, 28, 4, 93, 72, -23, 30, 11, 55, 105, 74, 80, 113, -91, -42, -74, -77, 3, 99, -96, -16, -61, 73, 100, 19, 104, 61, 13, -35, -37, -19, 1, 110, -99, 7, 49, 90, 17, -55, -85, 78, -71, 98, -65, 31, 77, -35, 42, 18, -99, -65, 4, 79, 59, 94, -107, -53, -37, -63, -30, -24, -99, 58, 24, -94, 21, -25, 118, 50, 42, 6, -10, 96, 73, -15, -111, 23, -59, 106, -26, -104, -63, 44, -103, 114, 78, 88, 98, -2, -75, 109, 49, 8, -47, 117, -79, 89, -97, -118, 92, -4, 28, -11, 91, 36, 81, 35, 55, -64, 69, -115, -38, 72, -117, -66, -32, 81, -18, -39, 76, 108, -102, -75, -6, -104, 57, -2, 2, -82, -44, 82, -80, -43, 14, -39, 37, -111, 116, 47, -107, 94, 103, -45, 0, 49, 73, -90, 61, 97, 82, -20, 64, 50, 7, 80, -73, 57, -10, 59, -59, -45, -99, -94, 102, -23, -1, -17, -65, 73, 40, 97, 69, -84, 81, 15, 95, -50, -31, -74, -99, -33, 71, -73, -24, 72, -64, 67, -23, -53, -19, -63, -68, -86, 89, 65, -61, 102, 13, 118, -50, 87, 88, -24, 7, -57, -112, -22, 65, 7, -25, -55, 88, 44, 106, -79, 42, 50, 83, -59, 4, -73, 69, -73, 24, -10, 9, 106, 71, 27, 0, 54, 43, 35, 87, 68, 10, -42, -72, -9, -113, -112, -100, 79, 51, -82, 18, -69, 84, -24, -49, 28, 44, 58, -27, 104, -110, -58, 25, 76, 34, -7, -79, 71, -111, 91, -24, -116, 31, -32, 84, 59, -85, 56, -19, 4, -22, -99, 35, 25, 55, -7, 2, 1, 57, -18, 31, 108, 59, 63, 88, 70, 37, -10, 83, -55, -43, -95, -23, -102, 81, -81, 66, 51, 16, -55, -93, -86, 14, -40, -28, 63, -15, -59, -33, -115, 4, -55, -117, 50, 12, -11, -14, 45, 35, -90, -54, -91, -7, -74, -102, -81, -116, -95, 0, 106, 105, -61, -33, 90, 86, -23, 72, 75, -21, -113, -38, 57, -38, 111, 23, 73, -78, -81, 35, 62, 65, 67, 50, 7, 8, 98, 94, -86, 1, 41, 86, 33, 110, 83, 110, -53, -104, 77, 57, 91, -20, -1, 98, 112, 95, 85, -96, 72, -13, 36, -49, -15, -63, 38, 50, -34, 59, -28, 44, 72, 33, -50, 
  -98, 60, -61, 70, -11, 66, -9, 111, 57, -100, 95, 89, 54, 77, 52, -29, -91, -58, 38, 75, -78, 47, -74, -46, 69, 58, -83, 65, 94, 80, -50, 45, 96, -53, 69, 15, 112, -113, 24, 78, -94, 70, 3, 85, 108, -84, -4, -77, 68, 52, -77, -4, -25, -118, 30, -91, -98, -116, -46, -19, 101, 47, 112, 82, -79, -107, 64, -101, -76, -107, 69, -63, -60, -84, 27, 35, -32, 124, 45, 112, 21, 73, 79, -38, -24, -96, -7, -46, 74, -48, 48, 34, -99, 21, 102, -44, -72, -25, 90, -30, -40, -10, 96, -70, -59, -8, 16, -37, 17, 39, -92, 19, -7, 83, 6, 101, -107, 3, 82, -9, -114, 91, 6, 31, -101, 11, 5, -70, 26, 35, -46, -108, -32, 100, -22, -60, -82, 23, 12, 74, 68, 83, 36, -43, 18, 24, -50, -81, -41, -88, -29, -76, 90, 102, -73, 34, 39, 120, -57, -95, -41, 49, 94, 67, -63, 32, -38, -83, 41, 16, -109, -58, -3, -97, 76, 54, 39, 50, 81, -119, -30, 82, 101, 89, -3, -115, -15, 66, 5, -61, -9, -90, 4, -73, 1, 105, -51, -82, -68, -52, -56, -27, -70, -54, 4, -3, 15, 80, 108, -3, -10, 97, -9, -27, -28, -47, -105, -7, -92, -82, 108, 42, 94, -31, 115, -114, 83, -115, -63, 21, 2, 109, -112, 100, -75, 29, -49, -7, 106, 109, -4, 36, 85, -109, -104, -36, 13, 20, -116, -43, -109, 38, -33, -103, 10, -40, -80, 99, 99, 46, -27, -75, 58, -54, -85, -19, 58, -65, -16, -65, 49, 114, 22, -67, -92, -27, 74, -41, -44, 8, 105, 116, 56, 26, 105, -66, 97, -68, -74, -11, -61, -86, -113, 78, -26, -73, 33, -57, -46, 37, -42, -25, 3, -108, 6, -3, 27, -20, 97, -48, 45, 39, 31, 68, 101, 39, 76, -58, -77, -89, -60, -77, -82, -102, -14, -62, 31, -93, -68, 69, 103, 81, 23, 0, 18, 110, 48, 111, 25, -65, 31, -70, -70, 43, 23, -4, -25, -96, -89, -31, 54, -107, -30, 49, 5, 56, 2, -33, 51, -94, 37, 18, -91, 4, 33, 31, 82, -50, -76, 85, 24, 15, -7, 88, 110, 25, 104, 21, 34, -22, -100, -39, -90, -77, 21, 22, -66, 5, -12, 112, 46, -8, -27, 102, -43, 73, 63, -78, 119, -63, -13, -29, 73, -52, -48, -116, -57, 34, 106, 101, 15, -54, 67, -55, 18, 34, 20, -19, 113, -92, -13, 94, -17, 54, 96, -104, -33, 17, -52, -20, 2, -107, 3, -44, 53, 91, -69, -39, -77, -35, 29, -21, 67, -12, 101, -30, 78, 1, -9, 34, 80, 52, 107, 36, 78, 0, -119, -8, -52, 12, -18, 94, -104, 71, 3, -95, -55, -56, 29, 77, 39, 87, -86, -78, 102, -73, 80, 18, 37, 88, -50, -3, -97, -32, 49, 16, -91, 77, -10, -58, -87, 10, 98, -78, 101, -12, -119, -35, 105, 35, 61, 80, 94, -83, -100, 78, -68, 48, -77, 41, 95, 109, -115, -61, 72, 90, -55, -44, 103, -41, -64, -9, 40, 79, 11, 51, -44, -62, -88, 28, -14, -111, 29, 100, -21, 10, 103, -110, 46, 61, -115, -53, -96, 66, 89, 32, -4, -3, 92, 16, -29, -27, -56, -64, -88, 115, 47, -80, -67, 93, -117, -4, 20, 14, -74, 59, 13, -43, 94, 109, -112, 53, -118, -56, -5, 103, -14, 64, 85, -66, -60, -3, 43, 103, 97, 25, 58, 46, 55, -38, -72, 28, 16, -102, -23, -60, 91, 87, -78, 45, 47, -19, -27, -48, -115, 38, -47, 96, -2, -108, 65, -97, -32, 25, 79, -37, 59, -56, 87, 27, 26, 77, -8, 116, -21, -96, 73, 93, 84, -86, -41, -96, -70, -84, -33, 79, -27, 109, -57, -62, -18, -8, 31, 32, -15, 6, -12, -105, -41, -116, 15, -104, 61, -28, 105, 2, -38, 38, 11, -42, 18, 55, 100, -43, 40, -32, 109, -8, 64, -23, 6, -13, 61, -12, 98, 53, -35, -93, -96, 46, -40, -100, -10, 112, -75, 19, 35, -85, 114, -113, 40, -110, -110, 60, -9, 107, -14, 81, -20, 89, -54, -26, 1, 104, -117, 27, -9, 47, -92, 102, 95, 48, 36, -70, -82, 27, 100, -81, -9, 62, -40, 12, 48, -117, 68, 79, 36, 92, 37, 103, 111, -1, -43, 44, 55, -103, -82, 11, -41, 110, -81, -77, 107, -110, 28, -106, -61, 6, 85, -17, -95, 119, -118, 23, 56, 15, 73, -89, -27, 43, 103, 88, 15, -98, 66, -52, -14, 34, 49, 59, 102, 12, 70, 73, -71, 68, -74, -21, 73, -101, -98, -88, 79, 57, -100, 58, 25, -20, -19, -17, -8, -89, -95, -107, 104, 89, 28, -82, 64, -109, -13, -60, -77, -96, -26, -34, -32, -77, -113, 75, 30, -110, -108, -37, 87, 50, -46, 73, 110, -88, 43, -12, -117, -46, -113, -69, 24, -44, -12, 38, -67, -3, -29, -6, 46, -95, -82, 26, 4, 95, 61, 2, -41, -17, -30, -91, -34, -79, -2, 67, -117, -101, 53, -73, 22, 35, -25, -72, -111, -63, -59, 70, 86, 77, 115, -111, 101, -13, 97, 88, 110, -85, -55, 99, -104, -81, -47, -67, -103, 94, 61, -33, 40, 95, -35, -88, -23, 41, -38, -34, -99, -10, -30, 35, 5, -87, -3, -5, -35, -97, 59, 38, -107, -87, -24, 66, -23, 58, -85, -56, -17, -105, -61, 36, -8, -15, 92, -73, -115, -70, 95, -80, -66, -43, 55, 18, -91, -106, -102, 1, 3, -100, 71, -73, -48, 71, 55, -39, -105, 70, -54, 25, 92, -35, 111, 112, -74, 13, 41, -41, -60, -117, 94, -53, -77, -111, -51, 63, 49, -86, 51, 54, -67, 96, 62, -111, -25, -62, 70, -88, -79, 27, 68, -9, -26, -67, 72, 1, 84, -92, -117, -23, 28, -50, -18, 96, -74, 64, 92, 22, 15, 107, -3, -86, -18, 113, 43, -34, 72, 113, -56, 58, 27, -54, -8, -23, -27, 91, 47, 71, -72, 8, 54, 54, 116, -83, 5, 30, 41, 78, 62, 43, 4, 73, 113, 99, -68, -15, 53, -30, -6, 45, -60, 47, -114, 55, 3, 88, 68, 29, 97, 44, 76, 43, 76, -1, 115, 35, 15, 114, 12, 79, 81, -21, 74, -41, -17, -34, 48, -14, 2, 22, -8, -54, -29, 39, 82, -28, -39, -6, 108, -70, -39, -10, 100, -11, 37, -114, 113, -61, 93, -78, -113, 61, -96, -83, 90, -22, 77, 107, -49, -100, -12, 76, 104, 43, -80, 26, -32, -79, -87, 108, 96, -72, -29, 8, 1, 103, 12, -6, -113, 98, -111, -64, -14, 8, -103, 4, -96, 110, -67, -94, 42, 61, 6, -84, 110, 24, -19, -26, 30, 65, 7, 74, -91, -114, -82, 68, -23, 85, 4, -114, -87, -66, 108, 86, -34, -74, 9, -16, 14, 85, 77, 89, 97, 10, -82, 1, -90, 109, -44, 0, 60, -27, 8, 93, -62, 71, -2, 27, -59, 40, 33, -38, 1, -114, 91, 48, -9, 19, 90, -70, -9, -76, -30, 62, 102, 70, -41, -76, 6, 114, 41, 42, 113, 54, 95, -100, -67, -52, 62, -83, 107, 98, -113, -29, -116, 26, 103, 97, 119, -69, 74, 87, -112, 37, -92, 24, 80, -117, -21, -46, 67, -38, -98, 92, 67, -98, -26, 6, -109, -5, -61, -10, -117, 88, 94, 81, -30, -70, -79, 27, 112, 18, 8, 29, 122, 25, -5, -32, 5, 92, -114, 72, -89, 11, -33, -100, 26, -82, 70, 90, -12, -66, 47, 83, -8, 70, -36, 69, 27, 85, -6, -45, -13, 3, 114, 98, -76, -41, 67, -39, 3, 31, -100, -94, 38, 68, 51, -72, 84, 90, -109, -83, 92, -6, -69, 104, 98, -19, -89, 2, 110, -63, 83, -68, -100, -92, 73, 16, -50, -9, 26, 96, -10, 93, -100, -27, 51, 94, -97, 65, 43, 32, -81, 70, 99, -59, 89, 44, 58, -3, 47, -25, -28, -96, 43, -54, -1, -52, -20, -46, -47, 93, 67, 69, 109, 105, -67, 76, 99, -89, 0, -87, 79, -19, -76, 50, -57, -102, 96, -67, -55, -23, 95, -66, 6, -11, -66, 61, 99, -48, 22, 44, 75, 80, 113, -23, 114, 31, 110, 55, -93, 20, 39, 82, -31, 4, -65, 56, -67, -56, -61, 31, -109, 48, 62, -86, 40, -86, 19, -82, -89, 42, 17, 49, -24, -50, -8, -21, 17, -50, 95, -28, -72, 32, -11, -88, -17, 32, -96, -90, -42, -114, -17, -10, 79, -115, 2, -79, -115, -16, -56, 92, -17, 97, 64, -51, 98, 74, -95, 82, 13, -73, 1, 66, 97, -69, -24, -59, 61, -55, -30, 24, 61, 91, 115, 87, -24, -45, 51, -12, 16, 103, -93, -66, -65, -59, 95, 33, -25, 108, 53, 98, -110, -3, -20, 63, 44, 93, 40, 108, -16, 90, 84, 79, -57, -14, 82, -37, -80, -40, 106, -14, -48, 2, 104, -35, -82, -105, 99, -84, -6, 91, 81, 99, -50, -110, 81, -59, 89, -83, 39, 74, -84, -42, 68, -21, 53, -16, -64, 115, 81, 38, -52, -51, 59, -59, 32, 114, 84, 82, 102, -119, -103, -112, 92, 75, -20, 70, -57, -79, 108, -8, -108, -104, -40, 72, -41, 102, 94, 10, 113, -25, -24, 16, -107, -52, -101, 79, 5, -38, -14, 112, -45, 68, -42, 65, 60, -35, 97, 93, 60, 79, -25, -79, -3, 82, -62, -53, -112, -31, -100, 26, -76, -29, -34, -73, 25, 22, -10, -84, 108, 94, 118, -95, -80, 27, -68, -99, 
  93, 22, 17, -75, -94, -89, 96, -30, -56, 67, -33, 20, -75, -50, -82, 64, 66, 75, -12, -29, -15, 105, -25, -20, -39, 4, 86, 77, -109, -91, 52, -74, 102, -85, -39, -59, -38, -109, 23, 66, 10, 33, -101, -44, 63, -71, 84, 71, -25, 77, 72, 83, -92, -31, -33, 110, 73, 88, 103, 66, -102, -92, 105, 109, 4, 64, -52, 113, -116, -29, -102, 29, 79, 39, 49, 52, -40, -31, -55, -45, 85, -114, 56, -84, 37, -69, 23, -85, 76, -43, -42, 3, 27, 77, 35, 5, 20, -27, -88, -93, -27, -104, 25, -36, 104, -62, -109, -30, -80, 38, -74, -5, -71, -6, 41, -12, -46, -81, -64, -16, 103, -34, -67, -16, -101, 9, 110, -89, -55, 46, -38, -22, 44, -23, -28, -28, 58, 58, -106, 81, 34, 19, 75, 13, 76, -114, 88, 19, -101, -104, -16, 53, -42, -79, 54, 115, 89, -63, 104, -86, -46, 72, -107, -28, -114, -79, 20, -42, 104, -37, -30, -111, -93, 67, 63, 18, -47, 60, -40, 34, -52, 6, 36, 34, 26, -95, -58, -79, 89, -73, 97, -45, 44, -73, -51, 86, -10, -27, 2, -73, -81, 107, 15, -104, -86, -102, -21, -16, -65, 7, 91, 58, 32, 37, 88, 25, -22, -111, 57, 60, 17, -26, 27, -28, -66, 80, 1, 90, -48, -37, -65, -35, 47, -44, 108, -72, -52, 118, -39, -52, 115, 89, -103, -96, 75, -66, 62, -27, 111, -114, 107, -108, 48, -113, 10, 116, 75, -16, 57, 15, -3, 101, -97, 75, 73, 81, -97, 101, -49, 106, 31, -62, -60, 62, -79, -10, 23, -49, 53, 47, 102, 23, 25, -14, 47, -8, -24, 31, 67, -118, 47, 28, -86, -77, 80, -39, -95, 43, -68, -115, 26, -44, -19, 49, -1, -5, -101, 71, -70, -60, -72, -97, -37, -21, -4, 83, 41, 25, 95, -114, -95, 6, 71, 40, -48, 44, -92, -22, 116, -68, -35, 92, -107, 86, -37, -103, -71, 107, -15, 97, 25, -72, -29, -78, 112, -22, -25, -72, 85, 87, -56, -113, -118, -118, 115, -51, 87, -102, -64, -74, -111, -34, -82, -56, -10, 101, -115, -55, 5, -94, -60, -39, -84, -108, -16, 2, -26, 96, 31, -79, 21, 43, -22, 18, -100, 45, 2, 0, -16, 10, 32, -87, 114, -61, -91, 26, -33, 50, 61, -15, 105, 54, -3, 57, -50, 9, 26, 64, -99, -98, 51, 9, 35, 7, -99, 0, 68, -63, -35, 4, 3, 60, 21, 93, 108, -105, 101, 80, 21, -81, -68, -9, -53, 60, -14, 60, 40, -62, 8, 107, -9, 46, -10, -113, -109, 91, -73, -74, -11, 5, -77, -60, -103, -31, 89, 113, 17, 51, 31, 16, 89, 69, 64, -83, -75, 18, 23, -45, 65, -77, -15, -76, 33, -64, 81, -39, -115, -101, -54, -34, 36, -46, 51, -59, 6, -67, 28, -105, 0, -114, 60, -111, 109, 1, 99, -23, -100, 28, -51, 71, 69, -50, -37, -105, -28, -72, 92, 99, -98, 105, -92, 89, 55, -18, -107, 24, -12, -62, -13, 65, 26, 27, 94, -47, 107, 102, -107, 68, 99, 21, -53, -52, -35, 73, 26, 27, -43, 49, 111, -27, -66, 75, -70, -71, -46, -3, -49, -63, -112, -87, 8, 112, -61, 23, 81, -58, -47, -99, 70, -91, -86, 34, 87, 5, -60, -108, 67, 106, -112, 48, -60, -110, -28, 48, 82, -80, 91, -84, 16, 60, -86, -105, -108, 58, -66, -112, 51, -97, 40, -49, -60, 26, 115, -60, -114, 86, -75, 91, 10, 61, -107, 81, -113, 20, 34, 18, -117, -7, 0, -69, 52, -24, -67, 47, 98, 66, 53, 97, 115, -74, -49, 29, -99, 98, 29, 69, 46, 62, -86, -31, 87, 106, -12, 95, 28, -20, -108, -22, 112, 62, -52, 62, 5, -77, -101, -58, 29, -36, -115, 90, 95, -30, 102, 85, -35, 76, -107, -96, 55, 38, -109, -32, -103, 27, -50, 38, 41, -28, -49, -96, -112, -108, -87, 74, -109, -107, -16, 65, 38, -41, 89, 107, -62, -98, 73, 106, -98, -1, 95, 70, 86, -92, -33, 56, 44, -86, 43, 106, 9, -95, 80, -56, 19, -104, -62, 36, -34, 84, 104, -88, 90, -40, -60, -87, 15, -68, -82, 80, -39, -116, 97, -84, 89, 14, 116, 20, 72, -82, 38, 94, -87, -109, 41, -21, 119, -46, 22, 89, -112, -113, 7, 18, 110, -33, -60, 7, 5, -63, -23, -77, -102, -109, 47, 55, -25, 30, 105, -38, 19, -85, 1, -93, -116, 10, -75, 113, -34, -73, -16, 31, 114, -35, 6, -50, 117, 6, -49, 84, 80, 61, -8, -38, -11, 67, 94, -101, 2, 95, -75, -79, 68, 15, 56, 22, -112, 90, -98, 72, 29, -67, -38, 87, 6, -42, -52, 22, -31, -71, 70, -57, -53, 56, -3, 65, 22, -11, -8, -115, -30, 65, -95, 59, -66, 75, -114, 45, -104, 70, -32, 16, 66, 73, 78, 30, -19, -77, -43, 113, 89, -96, -22, 26, -79, 57, 98, 12, 113, 65, 91, -9, -11, -42, -44, 15, -19, -59, 79, -101, 112, -111, 97, -21, -32, 46, -24, -75, 13, 108, 32, 116, -30, -111, -21, 94, -112, -23, 77, -110, -101, -22, -28, -119, 54, -44, 62, -81, 3, -5, 6, -1, -15, 25, 34, -14, 19, -70, 96, -70, -71, -91, -106, 2, 103, -16, 11, 53, -50, -28, 107, 102, 39, -96, -61, 51, 115, -33, -27, 56, 72, 63, -105, -118, 69, 21, -30, 53, -63, 76, 60, 36, 83, 13, -2, 44, -77, -84, 96, -70, 48, -26, 98, -31, -102, 83, -32, -40, -25, -56, 104, -4, 53, 38, -31, -44, 70, -3, 11, 115, 112, -16, -88, 104, 57, 55, -103, 82, 25, 54, 97, 16, 74, 25, 28, 46, -99, 11, 58, 101, -94, -74, -91, -44, -4, 100, -84, -60, -83, -69, 36, 74, -42, -41, -55, -38, -25, -44, -98, 99, 9, 22, -116, 105, -46, 3, 83, 56, -78, 0, -70, 115, -94, -84, 94, 84, 101, 114, -116, -85, 30, 52, 19, 57, -38, 21, -51, -40, 52, -90, -11, 93, -35, -102, 55, 17, 33, -107, -77, -53, -103, 94, 82, 61, -70, -99, -40, 52, 84, -116, 18, -49, -13, -77, 28, 76, -75, -34, -104, 103, -77, -85, -68, -100, -75, 87, -29, -32, -9, -50, -49, 62, -50, 96, 37, -52, -39, 37, -12, -111, 50, -77, -3, -59, 63, 29, 34, 5, 48, -103, 32, 30, 84, 38, 4, 85, 25, 64, -93, -60, 102, 49, 1, -90, 110, -83, -5, -1, 4, -75, -44, -27, -75, 15, 47, -19, -23, -47, 113, -36, 99, -56, 15, -43, -102, -17, 93, 4, 79, -94, -41, -23, 113, 41, 78, 84, -90, 15, -42, 27, -19, 18, -99, -73, 6, -15, 108, -81, 4, 5, -27, -87, -55, 44, -83, 2, -95, -49, 101, 5, 82, -20, -118, 91, -9, 106, -10, -58, 2, -58, 82, -2, -97, -67, -50, -6, 12, -64, 27, 12, 91, -48, -44, 115, 62, -84, -47, -31, 18, 4, 29, 46, 104, -50, -47, -75, 90, 77, -14, -61, -63, 32, -27, 74, 79, 18, -43, -36, -52, 85, 74, -41, 31, -55, -106, -20, -29, -105, 32, 55, 81, 81, -71, -31, 49, -101, -78, 79, -105, -91, 111, 73, 91, 48, -22, -108, 96, -110, 111, -29, -25, -63, 24, 6, 116, 84, -29, 93, -118, -68, -27, -100, -33, 19, 14, 31, -81, 57, 64, 78, 80, 102, -2, 100, -67, -99, 108, -9, 54, 79, -93, 41, -76, -39, 13, 107, 81, 68, -96, -94, 28, 97, -17, -92, 3, -6, -49, -8, -104, 90, 106, -4, -29, 98, -101, 94, 8, -107, 30, 11, 36, -91, -63, 82, 80, 99, 13, 111, -53, 95, 3, -36, 91, -73, -107, -65, -103, -15, -63, 106, -10, 63, -64, -46, -35, -76, 114, 83, -60, 29, 0, -19, 43, -105, -78, 88, 113, 51, -78, 74, -31, 82, -26, -42, -15, 2, 113, -57, -19, 22, -106, 113, -97, 103, 98, 0, -53, -97, -61, -19, 11, -24, 67, 51, 1, -27, -92, 115, 85, 58, 19, 51, -67, -91, 76, 78, -14, -108, -24, 40, -85, -54, 106, 116, -55, 91, -109, -28, -62, 67, -102, -104, 10, 11, -78, 112, -83, 96, 102, -78, 73, -89, -107, 83, 82, 49, -117, -87, 81, -94, -103, 51, 96, -22, 21, 3, -53, 92, -53, -73, -80, 43, -83, -75, -4, 50, -92, 86, 5, 7, 67, 108, 66, -49, -102, 84, -88, 111, -56, 53, -31, -83, 18, -63, -23, 51, -13, -8, 98, -25, -28, -41, 93, -48, 63, 6, 32, -31, 44, -108, 93, -51, -32, -91, -108, 113, -83, -62, -34, -105, -66, 73, 83, 41, 116, 26, -40, -72, 49, 11, -80, -51, 74, -106, 45, 9, 102, -55, -33, -13, 107, -78, -2, -10, -24, 67, 71, 48, 90, 101, -32, 13, -91, 45, -7, 113, 96, -45, 87, -68, 18, 90, 45, 17, 53, -32, 4, -39, -10, -105, 74, -101, 37, -22, 29, 96, 49, 65, 16, -64, -62, 44, 25, 0, 30, -50, 109, -115, -40, -8, 72, -93, -77, 95, -17, -84, 32, 108, -47, -7, 106, 36, -66, 77, -98, -89, -53, -66, 36, 57, 98, -96, 107, -16, -25, -115, -77, 49, 26, 6, -71, 44, -1, 30, 114, 37, 48, 114, -75, -34, -113, -79, 102, 7, -41, -7, 6, -76, -36, 66, 22, -78, 100, 85, -36, -81, -27, 79, 9, -19, 53, -63, 
  -36, 86, 20, -5, -42, -93, 7, 114, -49, 23, -109, -46, -118, 57, 23, -6, -106, 32, -34, 10, -93, -98, -15, -61, 82, -33, 32, -21, -59, 119, -20, -16, 89, -72, 28, -109, 78, -69, 43, 99, 76, 42, -80, -36, 17, -109, -85, -82, -5, 73, 102, -17, 36, -49, 48, 67, 36, -16, 66, 4, 26, -105, 77, -95, -34, -2, -45, 93, 98, 51, 105, -55, 76, -88, -115, -79, -18, -12, 73, -3, -92, 42, -60, 90, -12, -89, 30, -10, 111, -23, 16, 4, -76, 96, 2, -14, -15, 36, -4, 69, -18, 34, 90, -69, 22, 17, 116, -82, 36, 70, -15, -13, 34, 66, 79, 20, 55, -90, 27, -75, -120, 62, -88, 13, 0, 114, -21, -46, -57, -107, 6, 37, -76, -39, 19, 100, 47, -92, 92, 104, 60, 4, 1, -67, 17, -67, 100, 105, 100, -55, 85, 27, 36, -108, 84, -12, -40, 96, -44, -8, 66, -116, 57, -96, 75, -116, 108, -67, 60, 8, -4, 95, -102, 8, -95, 31, -91, -35, 112, 54, 96, 38, -117, -91, -21, -66, 7, -61, 113, -92, -59, 115, 56, 11, 27, -78, 104, -7, 80, 4, -16, 41, 83, 72, -107, -83, -86, -37, 20, 76, 46, -44, -48, -46, 69, -99, -79, 98, 28, -117, -75, 121, -36, -59, 88, 38, -109, -32, -85, 87, -19, 83, 49, -53, -102, 11, 28, -12, -57, -51, 82, -107, 26, 17, 39, 40, 101, 39, -55, 11, 49, -38, 47, -29, 15, -112, 14, -111, 65, -8, -94, 58, -45, -53, -18, 115, -109, 107, 53, 25, 16, -94, 93, -60, 9, 60, -29, 14, 107, -51, -85, 58, -107, 40, 39, 4, -56, -93, -9, 20, 33, 17, -92, -11, -17, 93, -99, 110, -105, -79, -94, -98, 120, 21, -44, -74, -118, -53, -83, -34, 112, 113, -5, 17, -78, 92, -31, 108, -4, 40, 54, -95, 77, 97, 85, 114, -17, -91, -10, 40, 35, -28, 71, 71, 97, 45, -5, -98, 63, -110, -15, 49, 9, -99, -91, -39, 112, -44, 106, 101, -16, 50, 49, 104, 1, -76, -28, -101, -120, 90, -19, -53, -17, -92, 64, 13, 18, -3, -35, 19, 42, 101, -70, 67, 95, -73, 106, -10, -38, -18, -74, -62, -102, -17, -105, -119, 60, -5, 42, 53, 101, 22, 59, -102, -33, 73, 66, -73, -78, 80, 100, -104, 38, 9, -72, -19, -47, -6, 34, -33, 113, -103, 26, -79, 0, 83, -43, 83, -7, 76, 96, -80, 48, -53, -94, -4, 111, 6, 15, -53, -26, -84, 80, 95, -52, -99, -89, -110, 96, 38, -6, 94, -45, -94, -57, 76, -7, 9, -53, 101, -12, -46, -73, 93, 67, -54, -43, -29, -111, 28, 3, -42, -117, -22, -67, 40, 97, -19, -100, -118, 52, 99, -42, -37, -30, -74, -113, -71, 53, 31, -76, 63, 40, 38, 90, 114, -4, -50, 21, -110, -108, 53, 111, -65, -16, -19, -103, -24, -118, 86, -111, -113, -98, 15, 97, -78, -10, 114, -64, 48, -106, -49, 111, 13, -80, 8, -54, 74, 23, -49, 46, -11, 79, 81, -103, -12, -108, -109, 66, -43, 56, 114, 87, -57, 33, 61, -114, -57, 32, 38, -116, -88, -39, 14, -65, 46, -109, -68, -68, 51, 79, 1, -91, -46, -91, 93, -33, -47, -37, 52, 51, -63, -7, -118, -56, -40, 94, 3, 82, 17, 11, -67, -86, 57, 101, -86, 74, -111, 94, 37, 93, 19, -30, -119, -94, 9, -55, 26, 58, -15, -38, -53, -24, 92, 73, -13, 36, 103, 1, -47, 30, 26, -7, 94, -46, 65, 0, 28, -65, -94, 107, 71, 46, -45, 37, -29, 60, -102, 25, 108, -90, 83, -11, -44, -43, 111, 107, -84, 90, 108, -2, 114, 51, -24, 93, 77, 40, 82, -64, 39, 21, 12, 38, 1, 92, -120, -113, 66, -10, -6, 114, -82, -30, -17, -107, -89, -15, -67, -8, -107, -110, 66, 35, -30, 5, -92, -101, 59, 3, -95, 42, -45, -108, 65, 19, -6, -2, -7, 98, -105, -53, -37, 67, -87, 28, 57, -97, 74, -66, -116, 61, -40, -96, 47, 114, -11, -73, -43, -97, -54, 34, 67, 55, 4, 34, 97, -54, -116, 19, 42, 25, 54, 62, 64, -10, -10, -87, -61, -70, 9, -53, 22, -96, -119, -60, -60, -79, 78, 49, 80, 113, -56, 72, -116, 76, 59, 108, 45, 83, 77, 47, -90, -112, 49, -46, 81, 103, -54, -54, 77, 9, 5, 99, -66, 24, -50, 19, -38, 36, 17, -78, 100, 12, 0, -43, 47, -28, 101, 12, -65, 40, -74, 66, -57, -9, -104, 110, -96, 72, 11, 63, -63, 48, 29, -48, -97, 82, -106, 14, 79, 56, -60, -55, -116, -64, -17, 78, -22, 95, -96, -110, 31, 117, 64, -97, 4, -42, -101, 114, -47, -64, 36, 74, 92, -38, 113, 55, -31, 87, 65, -10, 63, 47, -26, -22, -117, 32, 72, -7, -58, 103, -64, 108, 88, -83, 38, 113, 72, 95, 62, -91, 29, 102, -116, -77, -27, 29, -39, 35, 89, -93, 38, 72, -67, 107, -105, -82, 69, 34, 109, 0, -38, 22, -66, -1, 10, -98, -106, 89, 21, -95, 69, 55, 112, -59, 87, 37, -68, 46, -86, -4, 31, -7, 74, 11, 83, -41, -44, -44, -98, -14, -117, 116, 62, -59, -51, -25, 47, -5, -72, 0, -25, -29, 10, -102, 76, 96, 15, -113, 12, -42, -113, -93, -68, -106, -74, -4, 9, 106, 91, -107, 107, 102, 72, 107, -35, -69, -25, 69, -8, 17, 58, 65, 75, -40, -14, -63, 74, 100, -48, -63, -102, -21, -116, 15, -72, -85, 55, -106, -40, 49, 76, 101, 32, 25, -29, 6, 88, 70, -23, -113, -13, 63, -38, -56, 49, -64, 11, 66, 23, -81, 45, -111, -103, -75, -45, 29, 60, -82, 31, -40, 42, -51, -80, 51, 35, -8, 10, 91, 59, -93, -51, 31, 37, 82, 83, 66, 76, 79, -15, 38, -84, 61, -26, 40, 5, 89, 0, 100, 55, -112, 66, 81, -44, -44, 105, -85, -11, -67, 85, 85, -74, -106, -21, -15, 62, 109, 3, 50, 52, 105, 29, 15, -24, 38, -56, 103, -101, -60, -46, 42, 86, 105, -111, -83, 103, -63, 99, 1, 18, -113, 92, 56, -111, -7, 14, -71, -36, -6, 71, -64, 73, 54, 52, -36, 39, 98, -67, 106, -111, -103, -8, 40, -62, 39, 15, 41, 21, 80, -77, -24, -91, 10, 78, 83, 6, 105, -56, -77, -89, 54, 13, 23, -100, 1, -80, 116, 52, -99, -69, 93, 105, -39, -67, -12, 34, -56, -107, -92, -7, -40, 23, 48, -80, 71, 120, 115, -3, 62, 42, 7, -75, 81, -76, -36, -114, -47, 57, -27, -2, -50, 28, 42, 31, -105, -38, -95, -86, 41, 107, -72, -8, -117, 54, 50, -65, -84, -12, -89, -10, -2, -46, -15, -12, 45, -69, -112, -61, -83, -84, 61, 100, -30, -3, 3, 104, 108, 66, -59, 36, 52, -96, -109, 33, -100, -9, -83, 67, -95, 23, 99, -65, 1, 9, -40, -85, -86, 84, 20, 93, 21, 74, 97, -78, -114, 8, -24, -66, -30, 29, -42, -63, -107, -16, -112, 103, -27, -73, 25, 88, 112, 51, -4, 11, 92, -58, 103, 114, -6, 51, -83, 69, 54, 99, 32, 53, 57, -64, 0, -16, -17, -83, 54, 97, 30, -8, -36, -15, -112, -27, -65, -46, 6, -37, -92, 12, 119, 23, -26, -79, 16, 32, 104, 100, 53, 26, 8, -106, 22, -58, 3, 98, 95, -66, 86, -23, -65, -28, 88, -36, 35, -65, 76, 48, -81, 97, -85, -89, 71, -55, 23, 23, 88, -6, 77, 34, -44, 9, 108, -57, -95, -114, -102, -7, 51, 72, -1, 95, -74, 96, -39, -82, -91, 26, -2, 20, -21, 60, -60, 104, 70, -115, -47, -65, 71, 20, -31, 15, 19, 71, 15, 45, 82, 66, -108, -38, -111, 108, 116, 66, -27, -62, -52, 15, -1, -72, 108, -60, 53, -75, 7, -4, -25, -111, -15, 23, -40, 108, 65, 36, -7, 42, -10, 16, 11, 61, 14, -110, 113, -53, -112, 66, 46, 57, -3, 80, -44, 22, 19, -26, 9, -9, -56, -100, 58, -108, -84, -89, 92, 5, -95, -44, -43, -92, -78, 18, 95, -58, 38, 68, 99, -29, 91, 64, -92, 70, 46, 31, -84, -31, -26, 10, -97, 39, -32, 53, -31, 112, -96, -10, 102, -116, -34, 31, -50, -72, 15, -57, -36, -95, 113, -45, -61, 0, 64, -52, -51, -12, -89, -74, -108, 114, 8, -89, 56, -7, -42, -62, -17, -59, 8, 34, 4, 76, 59, 49, 94, -105, 34, -42, -44, 52, -109, 15, -103, 78, -79, -61, 32, 43, -55, -36, 13, -113, -53, -17, 80, 24, -33, -2, 53, 9, 111, -94, 74, 97, -64, 78, -74, 14, -104, -64, 75, 108, -52, 79, -19, -7, 66, 102, -77, 7, 93, -107, 111, 59, 3, -38, 86, -23, -111, 52, 8, -116, 93, -80, -77, 87, 26, -80, -5, -94, 105, 43, -3, -108, -95, -59, -92, -32, -3, -3, -68, -7, 35, -89, 21, -106, 102, 44, 96, 28, 116, -100, 43, 48, -109, -77, 5, 63, -4, -38, -74, 24, -106, 69, -79, 50, -64, -83, -100, 5, -67, 85, -1, -7, -46, -63, 64, -49, 22, -69, 19, -13, -71, -63, -95, -10, -76, 105, -67, 74, 112, 9, 107, -56, -58, 43, -105, -91, -36, -97, 15, -62, -66, 5, 91, -33, -115, -100, 116, 20, -5, -42, -40, 85, -37, 62, 81, -70, 
  56, -33, -44, -64, -71, -114, -35, 85, -33, 11, -1, -4, 5, 65, 40, -14, -47, -59, 113, 88, -55, 20, -49, 78, -39, -10, 120, -92, 99, 26, 72, -104, 2, -14, -93, 66, -105, 47, -91, 119, -8, 27, -6, 11, -53, -106, 106, -58, -10, -24, -77, 95, -99, 68, 41, -10, 15, 98, 67, -37, -68, 6, 77, -66, 57, 31, -103, 71, -84, -65, 22, 106, -31, 56, 37, 74, 59, 86, 45, -46, 88, 72, 8, 34, -65, -32, 74, 32, -51, -49, -83, 78, -42, 101, -41, -108, -53, -69, -103, -10, -68, -68, 8, -30, 116, -17, -16, -74, -58, -11, -7, 67, 79, -115, 30, -27, 65, -47, -97, -38, -59, 26, -97, 5, -38, -100, -13, 55, -31, -97, 52, -110, -9, 55, 80, 94, -91, 52, 80, 120, 50, 63, -50, -113, -84, 13, 83, -102, 91, 74, -79, 100, -5, 99, -49, -103, 26, -53, 72, -54, 113, 41, -22, -78, 73, -49, -44, 67, 88, 21, -119, 86, 79, 112, 47, -93, -111, -47, 45, -22, 82, -40, 103, 8, -46, -106, 59, -94, -83, -110, 61, -68, 81, -31, -96, -30, 72, 102, -26, 0, -67, -64, -37, -59, -6, 100, 112, 9, 10, 106, -17, 52, 94, -52, -113, -55, 9, -6, -59, 36, 19, 110, -12, -26, 30, -92, 34, 118, 117, -43, -40, 0, 70, -61, -76, 72, 3, -116, -5, -99, -55, -23, -1, -76, -94, 53, 43, 100, 103, -117, -92, -47, 11, 80, -2, -71, 95, 51, 111, 32, 110, 91, -120, 103, 81, 42, -89, -69, 1, 76, -72, -82, -90, -38, 76, 20, -50, -82, -100, 92, 85, -52, 44, -102, -75, -18, 0, -114, -52, -93, 18, -10, -27, -101, -117, -33, 69, -31, -114, 91, -74, 25, -113, -113, -6, 40, -29, 37, -73, -119, -58, 72, -92, -65, 39, 35, 42, -93, -32, -119, -20, -95, 91, 115, -53, -63, 95, -83, -117, 61, 52, -47, 32, -85, -71, -121, 30, 91, -46, -90, -1, -28, 81, 35, 118, -42, -9, 60, 22, 68, 72, 33, 77, 113, -56, 24, 54, -9, -27, 76, -47, -43, -102, 50, -99, 110, -32, 11, 95, 60, -59, 19, 56, 25, -61, -39, -69, -60, 79, 50, -101, -71, -45, -90, 34, -62, 53, 25, -50, -84, -69, 63, 21, 21, 7, 57, 67, 37, -93, 86, 14, 13, -89, -111, 98, 30, 116, 112, 28, -44, 115, 79, -33, 36, 71, 56, -89, 73, 53, -115, 64, 45, 94, -64, -118, 71, -80, -16, -53, -13, 3, 57, -69, 69, -51, -21, -83, 15, 109, 0, -68, 97, -76, -102, 68, -22, 21, 73, -114, 101, -40, 56, 3, 16, -37, -63, 109, -87, -100, -75, 83, 7, 40, -79, 14, 12, -12, -4, -52, -110, -10, 6, -99, 96, 91, 28, -79, -7, 43, 114, -42, -79, 18, 53, 77, 2, 86, 85, -55, 16, 87, 35, 113, -22, -108, 60, 0, -19, 10, -104, -56, -5, 67, 18, 91, -12, 4, 12, -75, 80, -76, 85, -67, -10, 19, -53, 31, -28, 119, 86, -68, 62, -47, 3, 112, 86, 93, -50, -41, 0, -75, 85, -74, 72, -39, 7, 18, -62, 81, -14, 43, -81, 50, 53, -39, -9, 14, 30, 97, 30, 22, 20, -63, -6, -50, -27, -88, -76, 70, 86, 40, -55, 37, 23, 65, 113, 21, 20, 80, -110, 89, 96, -97, -37, -68, -72, 88, -21, 46, 63, 15, -20, -88, 22, 85, -64, 80, -72, 71, 77, 115, -91, 87, -66, 120, -74, 41, 88, 67, -38, 110, 52, -106, -55, -95, -53, -80, 13, -48, -47, 53, -85, 27, -10, -114, -89, 46, -89, 111, 74, -105, 90, -15, 75, 60, 2, 79, 59, -50, -21, -47, -10, -53, 82, 49, 62, -93, 48, 38, -54, -94, -43, 67, -70, -116, -48, -22, 4, 51, -41, 85, 35, 102, -113, -56, 47, -33, 48, 20, 68, -73, 92, 109, -107, 26, -58, 49, 34, -67, -118, 40, 56, -96, -90, 105, -13, -114, -4, 73, 22, 11, 19, -60, -86, 50, -13, -92, -50, -94, 104, -79, 27, 72, -103, -120, 97, -31, 70, 48, -115, 67, 83, 37, 111, 43, 101, -35, -7, 53, -66, -71, 45, -77, 11, 37, 20, -29, -28, 8, 13, -85, 98, -90, -46, -72, -91, 22, 99, 93, 101, -86, 59, -55, -107, -22, -91, -27, 61, -19, -7, 3, -3, -39, -73, -39, -39, -81, 43, 100, 78, -107, 81, 5, -96, -100, 1, -91, -47, 10, -29, 15, 115, 70, -13, 6, 70, -43, 109, 102, -82, -17, -28, 104, -3, -112, 43, 30, -100, 122, -46, -13, 36, 8, -87, -94, -96, -91, 98, 105, -79, -104, 78, -5, 83, 71, 8, 81, 35, -114, -93, 19, -47, 77, 26, -54, 95, 1, -19, -95, -55, -63, -94, -84, -43, 110, 92, -103, -24, -20, 48, 77, 95, 6, 15, -95, 26, -26, -103, 12, 14, 26, -34, 91, 2, -43, 104, -69, -2, 96, 20, 72, -51, 3, 85, -101, 114, 52, -19, -65, 1, 68, 24, 38, -93, 90, 2, -47, 90, -77, 86, -80, -57, -105, 47, -81, 94, -27, -72, 66, -78, 104, 109, -38, -68, 61, -80, 71, 7, 66, -77, -107, 42, -65, -57, 19, 64, -110, -16, 55, 8, 87, -54, -79, 60, -78, -22, -36, 59, -64, 23, -30, -84, 91, -54, 94, 35, -8, -12, -117, 25, 43, 7, 67, 0, 59, -50, -59, 44, -96, -83, 8, 107, 77, 26, 102, 35, 76, 52, 19, -7, -45, -85, 105, 56, 90, -23, -15, 101, -43, -31, -11, 14, -56, -77, 12, -68, -58, 37, -42, 64, -19, 40, -47, -26, 20, -80, 82, -72, 10, -107, 105, 80, -28, 60, -93, 39, -70, 79, -44, 68, 64, 8, -73, -81, -106, 80, -99, 44, 54, -102, -16, 83, -25, -49, -100, -69, 35, 82, -88, -62, 25, 119, 60, -47, -111, -108, -68, -22, 112, 28, 115, -101, -84, 14, -74, 28, -99, 121, 11, 19, 20, -109, -36, -109, 0, -37, 112, -105, 1, 19, -103, -46, 60, 110, -52, -91, -109, 100, -51, -78, -95, 29, 10, -32, -36, 59, -50, 61, 11, -8, 7, 66, 123, -6, 36, -42, -99, -40, -34, 56, 118, -108, 97, -46, -35, 26, 94, -15, 30, -2, 43, 60, -29, -100, -30, -29, -99, 52, -41, -4, 68, -21, -46, -35, 80, -20, -84, 52, 83, -38, -106, 84, -64, 96, -113, -51, 24, 1, 98, 59, 86, 15, -60, 78, 37, -111, 74, -13, 4, -58, -15, 22, -113, 58, -117, 48, -28, -33, -110, 4, -70, 0, -100, 59, -47, -47, 16, 36, 87, -91, -56, -32, -30, -69, 97, -53, -19, -51, -95, 57, 36, -84, -19, 117, 25, 37, 95, 80, 27, -113, 27, 103, 102, -52, 82, -14, -22, 21, -68, -86, 87, -44, -71, -53, -50, 48, 24, 58, 20, -34, -105, -78, -67, 22, 16, 120, 76, -60, -63, 51, -61, 97, 67, -62, -51, 112, 89, 42, -89, 79, -29, -38, -90, -22, -83, 89, 12, -78, -59, 99, -73, -32, 46, -74, -18, -2, -8, 91, 27, 69, 43, 94, 91, -71, -14, 6, -91, -75, 9, 57, -51, 32, 30, -94, -103, -85, 54, 108, 90, -42, 95, 27, 49, 6, 62, -25, 95, -10, -57, 28, 6, -73, 17, 63, 18, -16, 88, -70, 30, -7, 112, 34, 3, -29, -96, -74, -16, -24, 98, 3, -35, -44, -93, -92, -40, -103, 101, -28, 77, 10, 53, 104, 75, -50, -87, 113, -5, -58, 104, 112, 47, 63, -19, -67, 97, -73, -87, -15, 21, -17, 95, 25, -96, -64, -28, -106, 10, 90, -88, 26, -61, 75, 12, 25, -21, 71, -10, -2, -70, 114, 70, -3, -109, 44, 107, -111, 66, -113, -42, 82, 64, -30, 37, 58, -103, 73, 50, 73, -64, 54, -104, -109, 64, -55, -71, 15, -113, -20, -65, -47, 103, 102, -55, 87, -7, 5, 81, -118, 11, 70, -97, -53, 25, -7, 100, -52, 20, -45, -78, -91, -118, 78, 100, -16, 115, -65, -36, 65, -28, -31, -42, -74, 95, 15, 75, -7, 58, -51, 8, -87, 93, 2, -112, -69, 6, -6, 44, -58, 114, -66, -43, -90, -60, 9, -89, -88, -30, -65, 14, -96, 40, -72, 63, -90, -110, -2, -109, -96, -59, 108, -99, -61, -22, -108, -8, 82, -57, 114, 28, 58, 62, 34, -104, 90, 104, -55, 84, 5, -91, -35, -87, -13, -2, -28, -14, -58, 114, 60, 95, 112, 67, 96, -60, -43, -1, -115, 50, -60, -35, 77, 30, 72, -87, 37, -76, -36, -50, 68, -57, -22, -43, 1, -65, -34, 105, 103, 110, -54, -48, 112, -89, 3, -86, 83, -55, 9, 82, -37, 104, -96, -50, -59, -31, -94, -55, -36, 85, 27, 30, 65, -105, -78, -71, 26, 103, -85, -66, 106, -30, 35, 44, 102, -89, -8, 95, -87, -62, 12, -58, 56, 104, 88, 116, -2, 34, 53, -39, -78, -14, 20, -19, -82, -20, 41, 38, 98, 75, 119, -22, -2, -24, -68, 87, -88, 91, 7, -21, 61, -17, 28, -94, -13, 31, 98, 11, -88, -62, -43, 32, -62, 101, -37, 11, -11, 39, 52, 18, 41, -2, -42, -30, -95, 80, 103, -67, 7, -100, -99, -11, 109, -104, 21, 6, -44, -106, -17, 53, 84, -82, 31, 82, -80, -107, 95, 17, 79, 103, 19, -29, -75, 74, 6, 47, -31, -42, 89, -110, 69, 11, -110, 88, 44, -79, -28, -87, 113, 28, -18, 70, 94, 
  89, -111, 40, 104, 102, 30, 24, 47, -39, 98, -29, 113, -41, 38, -72, -118, -36, -59, -71, 113, 97, -77, -71, -3, -29, 111, -36, 32, -110, -24, 30, 102, 27, -99, -33, -102, -19, 27, 71, -41, -25, 32, 114, 112, 41, -17, 30, -105, -67, 60, -72, -25, -21, 17, -45, -74, -105, 80, 72, -116, -79, -43, 64, -91, 63, 35, 34, -42, -54, 117, -79, 19, -27, 47, -6, 19, -43, 63, -58, 50, 117, -113, 72, 2, 31, -112, 41, 51, 73, -41, -33, -101, 15, -68, -99, -58, -36, -97, 8, 112, -36, 67, -13, -103, -20, -41, -56, -104, 107, -43, -76, -102, 21, 55, 101, -43, 89, -22, -51, 46, -38, 32, -15, -100, 42, 44, -89, -103, -21, -18, 70, -3, -24, 16, -85, 71, -23, -26, 5, -14, -19, 68, 57, 86, 45, 74, -3, -83, 78, 21, 54, -49, 6, 67, 68, 27, -49, 15, -31, -45, -15, -97, 30, -18, -21, -45, -125, 43, -118, -26, 67, -44, -46, 15, -112, 56, -62, -114, -57, -14, -8, 92, -45, -65, -94, 18, 53, 81, 111, -1, -127, -40, 65, 106, -46, 44, 105, 73, -70, 43, -66, -10, -67, 12, -23, 102, -34, -79, -46, -20, -20, -62, -109, -5, 9, 42, 104, -115, -19, 76, -38, 26, 1, 70, 21, -48, -38, -13, -89, 47, 30, -73, -122, 92, 2, 22, 35, 64, 89, 59, 64, 25, -40, -13, 60, -25, -116, 6, -118, 96, -16, 75, -45, 61, 65, -110, -43, 103, -79, 82, -79, 44, 68, -47, -107, -23, 102, 25, 22, -77, 27, 12, -53, -56, 70, -103, -115, 73, -42, -93, -2, 93, 64, -41, 104, 36, -60, -48, 79, -4, 88, 115, -99, 20, -50, 9, 24, 77, -101, 8, -61, -109, 94, -54, 95, 25, 24, 91, 33, -80, -37, 39, 95, 117, -104, -115, 107, 25, -95, 40, 87, 89, 32, -60, -99, -107, -80, -79, 28, -87, 65, -69, -21, 83, 67, 78, 8, 68, 43, 78, 103, -61, 41, 60, 27, -11, 35, -7, -7, -17, 57, -49, 107, 39, -84, -41, -98, -17, -49, -28, 74, 86, 106, -35, -22, 53, -121, 76, -19, 68, 76, -6, 38, -97, -86, -107, 53, 14, -33, -88, 6, -36, -118, -104, 27, -97, 41, -58, -39, -47, 99, -23, 18, -114, 92, -68, 31, -81, 48, -63, -21, 88, -104, 24, 75, -11, 21, -114, -31, 75, 32, 49, 49, -36, -99, 35, 33, 64, 25, -57, -84, -99, 106, -39, -5, 3, -77, 102, -81, -32, -115, 64, -39, -24, 0, -95, -12, -42, -72, 22, -56, 23, -38, -85, 43, 40, -26, -6, -106, 86, -9, 7, -97, 5, -120, -10, 13, -67, -34, -71, 98, 81, 45, 32, -98, 51, 101, -103, 17, 87, -8, -48, -33, -34, 122, 72, -112, 95, 7, 71, -88, 26, 19, -43, -69, -23, -43, -45, -40, -52, -3, -20, 41, -25, 76, 14, -21, 115, -3, -5, 66, 71, 36, 42, -81, 95, -61, -85, 123, -99, -62, 46, 43, -92, 62, 60, 83, -109, -45, -111, -111, -4, -49, 40, -71, 36, 38, -64, -52, -13, 46, 50, 63, -44, 40, -34, -27, -33, 9, -20, 9, 97, -94, 87, -34, 65, -21, -67, -40, 79, 37, -60, 30, 51, 116, 3, -46, 59, -48, 36, 98, 101, -66, -93, -15, -22, 5, 83, 8, 52, -93, -84, -45, -43, -32, -110, 100, 106, -62, 41, 0, 66, 64, 93, 100, 118, -32, -5, 119, -48, 33, 35, 10, 19, 54, 65, 75, 5, -108, 56, 105, 26, -43, -61, -36, 33, -114, 59, -71, -104, 21, -68, -49, 81, 92, 24, -73, -7, 22, -118, 13, -43, 91, 76, 61, 10, 110, -49, 108, 113, 109, 113, -73, 89, 90, 53, 19, 89, -86, -91, 120, 70, -75, 112, -70, 63, 41, -75, -72, -82, 18, 47, 30, 52, 64, 73, 13, 0, 96, -47, -59, -52, 12, 36, 53, -32, 22, -26, -92, -102, 62, 57, -81, 33, 97, 12, 2, 61, 91, -78, -102, 8, -10, -82, 18, 16, -31, -87, 36, 65, 31, 77, -61, 102, -103, 40, -35, -5, 23, 69, 78, 29, 7, -89, 113, -44, -103, 90, 114, -9, 72, 24, -44, -70, -93, -85, 81, 38, 77, 91, -41, -69, 1, 9, 108, -66, -81, 114, -13, 16, -97, -54, 28, 83, 5, 69, -33, 27, 113, 12, 49, 73, 88, 77, -93, 72, 67, 70, 91, -7, 0, 94, 13, -94, 84, 119, -57, -77, -86, 65, 27, 97, -66, 48, 3, -42, -39, -95, -108, -34, -74, 26, -84, -70, 49, 30, 51, 79, 32, 9, 119, -50, -16, -42, 20, -105, 92, 30, 114, -17, -81, 55, -110, 2, -107, 94, 120, -37, 63, -83, 26, 40, -6, -106, 6, 72, -85, -29, 37, -80, -70, -52, 36, -96, -11, -111, 27, 73, -87, 85, 54, -40, -61, -104, 43, -79, 9, 52, 112, 58, -56, -27, -3, 8, -110, -67, 4, 92, -58, -5, 67, -66, 54, 35, 11, 78, 39, -88, 17, -107, 5, 18, 78, 31, -56, 94, 80, 97, 126, 91, 9, 28, 7, 81, 22, 56, 28, 7, -67, 50, -116, 69, 18, 29, 64, -116, 43, -32, -82, 112, -31, -93, -84, -102, 46, 80, -1, 90, -83, 26, -109, 26, -88, 67, -119, 84, 83, -16, -91, 76, 0, 57, 113, -65, 31, -28, 51, 90, 11, 98, -68, -32, -117, -79, -83, -61, 1, -78, -118, -7, 97, 68, -22, -97, -64, -99, 15, -35, 98, -1, -99, 78, 83, 10, -102, 31, -113, 2, 56, -14, -28, 41, -113, 65, -74, -74, 22, 49, -17, 32, 90, -8, 97, -88, -110, -22, 31, 15, -36, 55, 31, -114, 39, -74, 19, -39, 8, 63, -54, 118, -100, -47, 49, -85, 120, -33, -117, 24, 98, 48, -32, -29, 95, -40, 71, 68, 103, -10, -99, 21, 46, -42, 25, -17, -102, 113, -77, 41, 74, -76, -106, 24, 55, -67, -57, -86, -81, 107, -15, -85, -30, 68, -34, 60, -18, -89, 49, 78, -110, -5, -9, -109, 9, 25, 16, 34, -57, 28, -89, -41, 12, -53, 55, 89, -50, 30, 82, -31, 64, -67, 12, 17, -36, 64, -108, -23, 97, 27, 32, -48, 74, -60, -74, 7, -103, -6, -3, 77, -7, 78, 27, -78, -82, 39, 58, 58, -103, 92, -111, 63, 71, -98, 107, -34, 56, -77, -110, -21, 59, -104, 13, -61, -24, -50, -52, -70, -32, 52, 73, -93, -26, -55, -91, 78, -16, -53, -61, -1, 47, -85, 101, -96, 117, -8, -99, -70, -54, -55, 109, -4, -31, 66, -103, -11, -25, -26, 26, 111, 113, 13, 76, -84, 0, -36, -81, 32, 51, 15, 14, -14, -57, 48, -37, -77, -85, -120, 28, -12, 89, 110, -77, -80, 63, -27, -118, -74, -15, -28, -37, 74, 18, -104, 11, 0, 111, 103, 46, 61, 4, 60, 40, 105, -106, 93, 56, 91, 108, -26, 53, 96, 62, -108, 75, 55, -13, 20, 49, -69, -91, 112, -83, 44, -22, -83, 84, -14, 20, -64, -47, 41, 78, 34, 110, 76, -68, 105, 86, -51, 33, 25, -14, -20, 43, 109, -49, 103, -13, 45, 103, 6, 69, 73, -95, -62, 86, -80, 27, 60, 18, -47, -5, 72, 71, -98, 101, -21, -105, -20, 122, -22, 37, -49, 64, -79, 87, 40, 34, -44, 68, 118, -97, -44, 22, -10, -39, -115, -72, 30, -62, -78, 28, 105, -10, -16, 95, -45, -81, 113, 70, -89, -113, -77, 61, -39, -40, -83, 31, -87, -50, 36, 61, 100, -14, -90, 47, 28, 12, 47, 62, -62, 107, 93, 11, 19, -87, -73, 11, 62, -111, 17, 18, -103, -7, 113, 85, -51, -47, 29, -103, 10, -103, -107, -31, 52, -116, 91, 53, -64, -103, 51, -58, -88, 40, 98, -9, -53, 15, -23, -30, -1, -20, 89, -6, 83, -101, -10, 13, -80, -59, 114, 90, 39, 42, -94, -78, -66, 88, -80, -11, -62, 0, -99, -92, -28, 115, 91, -84, -81, -65, 77, 49, 37, 9, 47, 109, -66, -79, -105, -65, -37, -30, 39, -2, 37, -37, -2, -12, -83, 57, -57, 122, -99, -102, 72, -89, -3, 31, 14, -56, -55, -27, 8, 30, -70, -100, 65, 106, -46, -112, 114, -2, -108, -48, 18, 79, -26, -18, -8, -8, -10, -66, -63, -30, 33, 36, 3, 68, -5, -4, -115, 88, -14, -54, -94, -97, 89, 108, -11, 4, 39, -13, 78, 59, -31, -82, 41, 1, -112, -28, -6, -31, -46, 109, 48, 49, 6, -50, -94, -29, -106, -9, -112, -67, -26, 63, -98, -10, 47, -101, -42, -103, 21, 56, -73, 107, 21, -103, -113, -43, -110, 58, 20, -54, -16, 21, 111, -74, 110, 13, -49, 122, -100, 17, 105, -75, -1, 38, -21, -100, -75, 29, -103, -14, 89, -110, -112, 97, -14, -80, -16, 110, 108, -97, 1, -21, 94, -80, -24, -44, 51, -82, -108, -98, -4, -39, 14, -18, -52, 52, 35, -39, -93, 2, -58, -27, -51, -74, -117, 67, -98, 102, -101, 109, 62, -66, 63, -59, 78, -71, -5, 81, -54, -111, 104, 118, -95, -71, -49, 36, -18, 28, 38, 59, -87, -59, 31, 91, 5, -20, -9, -27, 78, 53, 107, -101, -16, -88, -73, 104, 76, -98, 66, 50, -77, 114, 78, 55, 29, -36, 68, 45, 14, -80, -53, 93, -32, -24, 9, 53, -102, -76, 82, 18, 117, -31, -45, -35, 31, 86, 50, 62, -92, 34, -25, -60, 16, 19, -51, 53, -6, 
  68, 116, 75, -16, -97, 74, -13, -68, -9, -16, 3, 71, 71, -44, 26, -58, 51, -51, 121, 29, 110, 82, 105, 50, 72, 77, 79, -11, 99, -103, 71, -120, -14, 2, -91, -26, -99, 101, -76, 13, -62, -58, -110, -47, -100, 33, -35, -23, -58, 38, -103, -110, 117, -70, 61, 58, 13, 57, -16, -45, 76, -27, 104, -54, 9, -108, 106, 91, 73, -56, -48, -33, 17, -91, -39, -106, -84, -51, -60, 92, -55, -64, -87, -49, 101, 27, -4, 44, 64, 67, -3, -109, -105, -24, 95, -14, 109, 31, 55, -64, -78, -68, -51, 54, 14, 87, -32, 9, 29, -7, -48, 71, 23, 56, 93, 109, 41, -72, 95, -29, 76, 94, 3, -40, 60, -103, 25, 109, -102, 91, -104, 93, -114, -31, -82, -1, -87, 105, 27, 94, 98, -1, 85, -69, -93, 18, 51, -79, -102, -64, 104, 67, -65, -77, -59, 61, -115, -103, 69, -25, 73, 14, 21, -91, -27, -103, -99, 36, 26, 27, 96, -22, 18, 97, 102, -54, 97, -32, -115, 46, -98, -36, -82, -36, 1, 52, -90, -54, -105, 68, 60, 49, 8, 68, -90, 54, -11, -44, -103, 94, 82, 41, -39, -41, 33, -26, 15, -108, 101, 58, 112, -71, -82, -42, 96, 34, 107, -108, -113, 52, 86, 69, 17, -45, -53, -103, -74, -108, 75, -74, 43, -8, -54, -69, 36, -27, -24, 3, 60, 70, -6, 2, 110, -4, 86, -73, 10, 55, 99, 47, 29, -74, 100, 120, -64, 47, -101, 45, 100, 56, 57, 100, -16, -48, 79, 35, -60, -98, -111, -13, 117, 8, 12, 30, 80, 36, -81, 76, -109, -23, -72, 88, -44, -105, 116, 84, 24, -8, -90, -113, 57, 14, 115, 110, 9, 72, 46, -38, -104, 103, 41, 13, 35, -6, -65, -57, -115, 56, -51, -74, -63, -84, 37, 53, -95, -11, -97, -80, -43, -102, 94, -34, 97, 7, -8, 38, -92, 18, 23, -103, 29, 0, 61, 40, -107, -16, 53, -13, -108, -48, 110, -34, -81, -61, 49, 26, -65, 63, -2, 56, 53, 103, 48, -10, 84, 34, -107, -75, -67, -109, 84, 25, -80, 41, 32, 70, 113, -34, -16, 91, -113, -15, 0, 25, -43, 109, 68, 77, -109, -120, 61, -91, 118, -43, 77, -108, 97, -19, 97, -54, 54, -113, 94, -64, -56, -27, 75, -100, 4, 118, -54, 116, -21, -46, -100, 19, 107, -103, 101, -81, 11, -49, -84, 113, -3, -56, -102, -100, 49, -18, 50, 7, -48, 121, 29, 111, -95, 63, 24, 57, 77, -63, 57, -108, 106, 44, 98, -27, -95, 99, 95, -88, -33, 19, -28, -3, -18, 105, -47, 92, -104, -31, 31, -3, -36, -24, 85, 86, -27, 10, -85, -117, -10, -17, -58, -107, 83, -43, 37, -93, -39, 40, -71, -18, 84, -56, -115, -72, -32, 102, 51, -14, 29, 55, -88, 14, -10, -25, -107, 51, 9, -56, -104, 116, -16, -77, -2, 43, -6, -20, -68, -58, -93, 20, -15, 78, 101, -122, -57, 50, 106, 106, -80, -52, 98, 69, -15, -80, -34, 91, 30, 50, -1, -13, 82, -89, 67, 41, 31, 115, 47, 47, -3, -10, -60, 87, 96, -112, -37, -83, -108, -63, 49, 42, 16, -12, -115, 35, 62, 109, 39, -88, 11, -17, -50, -60, -4, -91, -77, 26, -35, -90, -107, -98, 55, 79, -91, 69, 64, 114, -63, 68, -6, 98, 75, 34, -24, -96, -14, -56, 118, 113, -93, -65, 97, -84, -58, -46, -71, -46, -24, -105, -80, -38, -111, 25, 117, -107, 96, -3, 118, 42, 32, 47, -11, 47, -11, -36, 72, 80, 43, -83, 69, 87, 117, 104, -101, -91, -2, 45, -47, -30, 2, -70, -59, -16, 81, -14, -114, -24, -26, -51, 67, -4, -20, 2, 32, 108, -70, -16, 78, -47, -45, -39, 67, 113, 116, 103, -33, 35, 6, -11, 88, -30, 93, -15, -45, 117, 84, -32, 65, -12, -11, 117, 10, 102, -71, 102, -78, 96, -56, -1, -44, 98, -82, -40, 77, 1, 49, -108, -101, 30, -5, 38, -88, 7, -95, -101, 91, -99, -61, 108, -14, 105, -32, 109, -103, 25, 55, -77, -108, -88, -75, -64, 62, 118, 80, 67, -116, -33, -37, -97, -55, -15, 2, 60, -38, 113, 74, 111, 70, -89, -100, 103, -80, 117, 24, 108, -112, -66, 19, 78, 91, -82, 40, 118, 5, -89, -116, 46, -29, -72, 68, -90, -114, 87, 17, -96, -44, 113, 104, -16, 38, -9, -33, 64, 53, -21, 69, -86, 34, -74, -41, 88, -42, -109, 77, -73, 4, 40, 44, 119, -97, 68, -59, -20, -88, 11, -23, -11, -109, -75, -78, -108, 21, 22, 105, -103, -12, -51, -89, -37, 117, -65, -61, -21, -108, -70, -7, 60, 35, 9, -49, -99, 45, -87, -33, 16, -104, 84, -31, -96, 5, -102, -9, 78, 55, -110, -48, -96, 63, -34, -104, -79, -36, 52, 108, -51, -111, -62, 15, -73, -16, -103, -88, -87, 112, -63, -89, 19, 113, -53, 8, 29, 55, 34, -112, -17, 59, -24, -77, 86, 26, -27, 95, 107, 30, -84, -44, 62, -19, 87, 5, 47, 10, -77, -70, -10, 77, 89, -80, 13, 13, -51, -5, 81, -48, -60, 3, -38, 3, -101, -98, 82, 16, -39, -103, 37, -53, -95, -43, -20, -62, 42, -34, 80, -26, 12, -35, -116, 8, 43, 76, -59, -77, -92, 96, 116, -69, -23, 7, -15, 25, 95, -4, -58, 40, 113, 85, 89, 76, 99, -79, 30, 52, -111, 111, 67, -33, -23, -73, 90, 12, 19, 11, 5, 63, -58, 110, -90, 46, 33, -31, -10, 55, 31, 34, -18, 10, 103, 38, 4, 28, -99, 105, 10, 76, -91, 42, 13, 99, -46, 32, 69, -14, -33, 1, 6, -51, -98, -115, -86, 92, -115, -98, 80, -42, 26, 38, 114, -93, -100, -61, 28, 25, 39, -50, 90, -106, -35, 10, 7, 50, 113, -32, 39, -79, 109, 74, 90, -66, -89, -32, -58, 81, 76, 58, 93, -114, 88, -66, 108, -106, -58, -75, 47, 108, -52, -110, 112, 70, 10, -50, 55, -26, 100, 116, -42, -101, 16, -7, -32, 102, 85, -37, -77, -24, 116, -34, 66, 106, 42, 42, 39, -82, -44, 36, 113, -67, 49, 80, 92, 64, -7, 53, 21, -36, -79, 87, 22, -63, -42, 3, 112, 53, 123, 101, -8, 0, 120, 100, -109, 21, -72, 45, 0, 16, 120, 59, 94, -101, 61, 51, -72, 43, 85, 89, -69, -81, 80, -49, 72, 56, 112, -66, 83, 114, 71, 37, 62, -10, 24, 30, 0, -21, -87, 83, -41, -73, 118, 39, -20, 16, 15, 50, -11, -92, -83, -42, 87, 116, -3, 33, 11, 51, 30, 39, 96, -24, 106, -62, -117, -14, 22, -67, 102, -5, 53, -91, -32, -54, -13, -83, -44, -79, -106, 88, 4, 67, -70, 85, -22, 12, 82, 92, 93, -11, -113, -93, -92, 48, -47, -92, -13, -46, 74, -113, -113, 90, -112, 25, 115, 26, -107, -53, -100, 73, -12, 28, 88, 69, -76, -30, 3, 98, 56, -75, -65, 25, 79, 23, -87, 92, 78, 31, -31, -32, -20, 109, -46, -30, -66, 12, 77, 0, -63, -18, 5, 34, 113, -112, 37, -31, 15, 64, 74, 117, 1, 63, 18, 12, -24, 53, 90, -65, -97, -63, -60, -103, 105, -44, 86, -95, -25, -37, 71, 44, 84, -22, 40, 2, -90, 69, 32, -93, 94, 24, 42, -57, -56, -8, 45, 83, 9, 104, 62, -65, -112, -16, 81, 2, -60, -4, 101, 98, 63, 48, -99, -102, 29, 23, -74, 28, -37, 96, 50, 91, 35, -84, 110, -34, 11, -76, 4, 109, -82, -46, 11, -112, -75, -36, 75, -36, 104, -27, -52, -42, 44, -10, -77, -82, 118, -78, 28, -44, 45, -38, 54, -78, -10, 37, -35, 24, -85, 81, 96, 7, 55, 34, 72, 58, 80, -41, 83, -100, -18, -6, 36, -57, 94, -56, 38, 98, -93, 12, -85, -39, -27, 71, 107, -99, 43, 110, -69, -103, 52, 101, 61, 84, -103, 25, -9, 66, 2, -29, -17, 112, -34, 106, -32, 32, -73, -79, -8, 58, 108, 29, 101, -98, 108, -122, -15, 62, -52, -60, -88, -110, -13, -8, -79, 120, -60, 48, 90, 73, -76, -98, -90, -25, 56, -20, -85, 17, -51, -37, 55, -102, 105, 117, 21, -55, 28, 41, -20, -114, 102, -62, -64, -94, 79, -22, 40, -106, 28, -97, -2, 88, 68, 52, -19, -26, -20, 38, 69, -58, 93, -77, 0, -109, -27, 101, -99, -23, 78, -91, -40, 121, 45, -24, -10, 8, -49, 38, 76, 110, -32, 75, -96, 41, 115, -57, -10, -50, 46, -57, 114, 33, -52, -80, -35, 85, 6, 85, -31, -68, 68, 36, 61, -46, -123, 100, 3, 76, 17, 88, -60, -53, 113, -35, -78, -52, -39, 40, 9, -67, 35, 74, -13, -56, -6, 110, 88, -78, -70, 60, -79, 70, -37, 111, 8, 49, -60, 96, 107, 73, -37, -5, 0, 20, 74, 115, 67, 107, -50, -96, 34, 93, 12, -103, -58, 68, -36, -32, 42, 2, 61, -37, -65, 117, 83, 36, -73, 8, -102, 8, -17, -30, -93, -29, 112, 73, 21, 117, 43, -58, 58, 88, -92, 15, 94, -60, 5, -37, -60, -30, 105, -28, -10, -24, -16, 51, -22, 60, 43, -90, -18, -71, -4, 37, -13, -102, 11, 65, -65, -106, 74, -98, -38, 76, 83, -62, 50, 78, -4, -54, -74, -27, 13, -43, -111, 25, -116, 117, 73, -60, -105, -96, -77, -34, -124, 
  -93, 57, -94, -3, -64, 72, -110, 2, -68, -115, -105, -81, -115, -33, -68, 85, -8, 73, 89, -69, -21, 77, 18, 112, 113, 82, 1, 33, -2, 52, -45, -39, -81, 1, 89, 42, 83, 90, -21, 20, 23, 52, -68, 25, -49, -114, 82, 42, 105, -87, 67, 116, -111, -107, -75, 24, 62, 16, -111, 31, -105, -60, -74, 82, 6, -23, -105, -27, -78, 53, -78, 80, 98, 6, -26, -93, 106, -28, -111, 74, 63, 117, -96, -61, -80, 91, -83, -60, 53, 25, 88, 39, -37, -8, 16, 100, 1, -105, -87, -48, 76, -87, -104, -39, 12, -2, -122, -60, 42, 50, 56, -70, -46, -48, 102, 81, 96, 68, 75, 61, 89, -111, -60, 94, -70, 60, 81, -44, -55, 50, -51, -64, -39, -30, -102, 56, 99, 1, 15, -122, 85, -73, 40, -12, 16, 46, 110, -7, -112, -8, -118, -104, -62, -87, 97, -105, -99, 64, -104, -28, -22, -112, 54, 51, 8, -114, -49, -57, -12, -68, 20, 77, 73, -31, -111, -76, 12, -80, 88, -19, -114, 0, 59, 89, 49, -79, 112, 76, -27, 3, 6, -67, -49, 114, 22, -95, -43, -35, -115, -17, 54, 33, -77, -38, 45, 78, 82, -92, 97, 2, 11, -3, 23, 98, 24, -27, 60, 105, 71, 21, 27, 43, -109, -118, -70, -62, -2, -34, 12, 45, -96, -11, -37, 29, -63, -3, 111, -104, -40, -106, -36, 38, 62, -71, 61, 35, -28, -23, 30, 119, -41, 41, -4, -46, 57, -118, -71, 119, 108, -73, 109, 111, 65, -56, 89, -42, -11, 96, -22, 25, -46, -44, 117, 90, 35, -86, 43, 40, 99, 97, -115, 7, -16, 2, 34, -75, -84, 116, -4, 17, 29, -51, 14, 61, -39, -100, -84, -85, -63, -110, 111, -107, 69, -90, 56, 10, -78, -88, -15, 48, -4, 39, 48, 78, -8, -62, 0, -59, -70, -59, -49, -8, -40, 29, 66, 7, 29, 9, 57, 53, -60, -67, 19, -57, 41, 89, -43, -9, 39, 47, 50, -74, -35, 34, -60, 45, 55, -37, -77, -91, -26, -86, 107, -59, 38, -25, -42, 77, 31, 60, 30, -12, 27, -70, 45, -41, 96, 69, 92, -72, -59, -95, -50, -103, -13, 46, -6, -73, 99, 110, 56, -55, -110, -4, 99, 31, -64, 78, -27, -48, 33, 47, -96, 26, 60, -31, -36, -54, -41, 124, -106, 86, 85, 31, -91, 16, 47, 62, 58, 5, -33, -84, 85, -18, 74, 1, 113, -79, -87, 110, -13, -105, -87, -110, 50, 34, -23, -46, 47, -24, 36, -27, -65, -84, -28, -71, 106, 119, 81, 93, 70, -73, -61, 95, -51, -29, 68, 95, -24, -12, -75, 83, 91, 47, 73, 86, 66, 65, -28, 44, -98, -69, 59, -36, 70, 112, -93, 7, -97, -112, 62, -63, -62, -94, 15, 11, 102, -47, 57, -103, -75, 59, 60, -98, -56, -83, -33, -9, -109, 8, 71, 76, -68, 5, -90, 63, 116, 34, 92, 104, -61, -83, -84, -10, -55, -23, -26, 59, -66, -54, -39, -14, -106, 38, -57, 44, 67, -47, 12, 34, -53, -39, 6, -9, 93, 106, -46, 46, -58, 111, -105, 75, -30, 58, -99, -14, 96, 56, -31, 86, -96, 29, -9, -7, 42, -65, 65, -59, 73, 3, -33, 118, 11, -61, 103, 64, 89, -90, 70, 92, 28, -38, -1, -14, 20, 49, 13, -6, -12, 93, -74, -49, -56, -107, -107, -113, -105, 119, 22, 52, 120, -66, -104, -76, -37, -92, -104, 23, -39, -107, -79, 120, 22, -12, -55, -87, 68, -21, 24, 18, -7, 93, 26, 40, 2, 47, -6, -17, 56, -41, -65, -72, 92, 70, 4, -63, -50, 19, -75, -51, 71, -63, 80, -23, -11, 22, -82, -61, -108, 6, -31, 21, -59, -44, -114, 89, 33, 103, 63, 76, -36, 93, 113, 9, -4, -117, -71, 12, 2, -20, -23, 107, 43, -81, -16, 1, 120, -77, 33, 87, 7, 18, 45, -35, 91, 116, 4, 82, -51, 53, -93, -106, 35, -29, -77, 28, -76, 36, 16, 118, 107, -20, 7, 83, -107, 62, -45, -3, 17, -64, -89, 30, 15, 85, 78, 34, 10, 110, -1, 32, 74, -31, -90, 97, -89, 81, 42, -27, 68, 0, 112, 109, 17, -26, -74, 53, 117, 43, 31, 84, 46, 115, -35, -32, 117, -94, -30, 92, 118, 6, -57, 78, 117, -90, 44, 103, -11, 52, 108, 13, 3, -108, 105, 3, -23, 76, 90, -88, 118, 49, -20, -108, 64, -32, 80, 73, 39, -82, -91, -6, 100, -43, 112, -29, 74, -92, -74, 36, 72, 121, 26, 38, -27, 93, -82, -81, 90, 114, 0, -17, 104, 97, -109, -48, -32, -32, 101, -99, -85, -96, 90, 69, -27, 119, -47, -50, 108, 41, -83, -105, -99, -95, -40, -4, -33, 8, -54, 85, -83, 19, -51, -67, 35, -7, -100, 36, 24, 18, 26, -63, 59, -7, -113, 95, 102, -38, -77, 67, 45, -38, -78, -6, -99, -20, 22, -55, 15, 32, -101, 5, -52, 15, -24, -29, -74, 30, 57, 12, 14, -18, -49, 118, 15, 106, -98, -71, -71, 57, -98, 27, 78, 105, 41, 46, 74, 59, -54, 60, 108, 26, -104, 6, -36, -95, -90, 101, 25, -118, -112, 44, -109, 56, 53, 71, -19, -95, 74, 101, -88, -111, 14, 115, 110, -81, -80, -47, -15, 7, 41, -47, -44, -57, -12, 90, 115, -93, 56, -21, 76, 72, -94, -38, 83, 109, 89, -71, -72, 71, 10, -12, -12, 101, -87, -72, 79, -64, -107, 45, 44, 70, 22, 32, 84, -10, -50, -6, 11, 42, -85, 11, 123, 7, -33, -119, 37, 5, -15, 96, 79, -105, -11, -12, -54, 3, -5, 26, -102, -68, 73, -120, 13, 86, -13, 82, 82, 71, 108, -103, 53, 43, -25, 12, -112, 20, 83, 55, 58, -46, 114, -44, -25, -80, 5, -65, -42, 17, -83, 0, 58, 109, 59, 21, -5, 21, -53, 18, -72, 75, 56, 112, 88, 82, -66, -91, -73, -95, 29, -53, -67, -69, -30, -13, -1, -63, 6, 63, -33, 46, -105, -39, 20, -85, 22, -54, 69, -8, 17, -31, 81, -116, -57, -29, 81, 39, 9, -11, -48, 24, 59, -87, 78, 54, 95, 106, -99, -11, 102, 55, 89, -66, -31, -106, 49, -79, -90, -97, -12, 68, -94, -29, 74, -77, -32, -104, 104, -8, 2, 71, 68, 46, -26, 76, 23, 108, -38, -17, 73, 14, -63, 91, 91, 93, -17, 24, 81, 14, -36, 108, 36, 120, -109, -81, -54, 36, 0, -82, 62, 6, -117, -95, 83, 95, -47, 91, -73, -18, 5, 32, -86, -118, -81, -96, -39, -85, -95, -32, 48, -46, 13, -94, 91, 86, 53, -48, 58, -104, 93, -32, -43, -28, -74, -82, 74, 95, 58, 33, -91, -112, 92, -113, 31, -57, 71, 47, 121, -8, -1, -79, -11, -68, -22, 43, -16, -63, -96, -62, 100, 96, 54, 33, -52, 6, -38, 30, 27, 63, 17, -98, 107, 27, -26, 92, -13, 106, -4, 26, 118, 75, 58, 54, 84, 43, 120, 39, 8, -56, 92, 75, 59, 83, -79, 62, 116, 82, 41, -92, -11, -50, -51, -111, -60, -64, 27, -7, 118, -40, 14, -40, 65, -95, 73, 105, -26, 46, 74, 73, -48, 7, -71, -25, -57, -49, 39, -77, -10, -107, 49, -42, 52, -38, -5, -4, -76, -27, 41, -88, 7, 34, -11, -111, -22, -107, 12, -6, 65, 62, -3, 106, -58, -28, -93, 1, -100, -44, 13, -11, -66, -3, 5, 51, 62, 18, -43, 59, 98, -67, 20, -51, -71, 91, 20, -61, 9, -99, 69, 87, 91, -120, 103, 20, -101, 53, 9, 116, 26, 90, 100, -26, -58, -110, 17, 93, -112, 63, -40, 97, -73, 12, -113, -81, 106, -59, -114, 74, 51, -22, 56, -8, 42, 1, 23, -74, 116, -92, 117, 78, -6, -24, 48, -21, -25, -4, -10, -17, -58, -117, 113, -120, 95, -31, -64, 103, 40, -42, 67, -104, 18, 110, -27, 67, 86, 33, -75, 106, 47, -93, -79, -1, 82, -81, -30, -69, -101, 58, -70, 96, -41, 70, -94, -73, 46, -37, -34, -2, -3, 96, 22, 102, -84, -54, 97, 14, 47, 77, -66, -24, -113, -23, 35, -50, -111, -101, -74, 55, -6, -6, 98, -75, -103, -58, 33, -65, 65, 23, -34, -14, 119, 0, -89, 26, 109, -21, 91, 81, 88, -99, 25, 64, -111, 115, -115, 107, 20, -5, 50, 10, 5, 95, -106, -101, -43, 27, -53, -92, -27, 112, -58, 28, 115, -105, 101, -22, -63, 85, 71, 6, -68, 5, 5, 80, 66, 101, 80, -115, -84, -23, -17, -8, 96, -9, 77, -89, 11, 85, -45, -31, 92, -25, -1, 108, -17, -57, 115, -101, 88, -64, -43, 68, 1, 6, -64, -102, 74, -90, -46, -30, 1, 61, 34, 44, 91, 49, -71, 106, -90, 65, 115, -90, 69, -94, 78, -54, 3, 40, -36, -113, -109, 44, 5, 60, 93, -97, 58, 10, -74, 16, 38, -35, 11, -15, 93, -6, 95, 4, 42, -33, 83, -74, 61, 83, -58, 101, 82, -94, 2, -108, -45, -24, 91, 64, 74, -99, 57, 65, -59, 46, -9, -11, 17, 14, -37, -65, 49, 45, -101, 115, -37, -94, 12, 55, 14, -53, -62, -61, 76, -22, 110, -76, 39, 13, -83, -69, 71, 33, 93, -74, 96, 29, 79, 62, -66, -103, -10, 67, -25, 115, -15, 90, -95, 27, -95, -53, -113, 11, 84, -99, 47, 115, 95, -116, 63, -115, 54, -24, 90, -120, 101, -58, 98, -95, 
  110, 24, 50, -115, -95, -50, 65, 16, -8, 36, -86, 32, 28, -88, 53, -66, -5, -4, 39, 23, -102, 52, -110, 89, 95, -24, -53, -40, 80, 82, -114, -90, -95, -28, 114, 100, -36, -94, -94, 30, 43, -18, 9, -39, -41, 83, 6, -108, 66, 42, -39, -75, -26, -10, 80, 100, -79, -52, 29, -22, 28, 42, 73, 81, 26, -117, -108, 49, 50, 29, 88, 10, -29, -51, 1, 101, 29, -71, 51, 118, -52, -83, 32, -82, -53, 75, -44, 27, -47, -63, 0, 106, 51, -59, -20, 9, -68, 38, -107, 52, 95, 69, 51, 46, 55, -57, 6, -108, 86, 12, -31, 6, 36, 53, -115, 13, -37, 96, -46, -70, -60, -101, -68, -90, 94, 57, -87, 28, 52, -108, 72, -52, -92, -113, 32, 33, -17, -109, 109, 66, -51, -83, -55, 34, -23, -115, -15, -46, 44, -51, -7, 59, 54, 98, -62, -67, -52, 16, -19, 5, 91, -104, 87, 37, -13, 8, 25, -74, -9, 8, 78, -44, -62, -103, 88, 99, 36, 2, 36, 105, 30, -107, 46, -97, -24, 69, -97, 61, 110, 11, -81, -111, 75, -119, 3, 42, -32, -65, -115, -23, 31, 86, 47, -48, -35, 68, 32, 65, 36, -26, -4, -58, 85, 39, 23, -73, -82, 107, 36, -10, -9, -4, -38, -89, -28, 25, 95, 23, -55, 86, -43, -89, -10, 67, -104, 58, 40, -71, 14, 22, -44, 60, -73, -25, 73, -6, -78, 53, -65, 114, 45, -52, -110, 115, -28, 92, -10, -3, -48, -10, -112, -80, -2, 68, 62, 44, -26, 24, -80, -59, 89, 89, -106, 12, 58, 5, 6, 49, 91, -16, 9, 66, -28, 33, 33, -64, -1, 85, 98, 64, -98, -10, -57, -108, -106, 82, 63, 111, 57, 35, -53, 104, -7, 50, -42, 54, 73, -54, 4, 28, 82, -60, -52, 17, 55, -37, -69, 58, 13, -31, 15, 57, -44, 61, 61, 54, -95, 0, -88, 82, -109, 31, -100, -68, -40, 21, -75, -58, 59, 113, -38, -47, -85, -116, 15, -1, 80, 97, 80, 112, -44, 33, -23, -118, 111, 16, -53, 22, 2, 13, 49, -63, -105, 103, -77, -20, -90, -107, -108, -108, -6, -36, 1, 13, 16, 61, 20, -98, -27, 59, 51, -80, 70, 61, 93, -46, -82, -16, -31, 110, 3, 70, -119, 13, -59, 82, -10, 44, 37, 10, -12, -69, 8, -70, -24, -94, -2, 45, -54, -84, -81, -92, -93, -93, 91, -56, 87, 30, 92, -111, 71, 75, -120, -67, -23, 91, -36, 31, 93, -29, 57, -37, 93, -39, 53, -49, -25, 95, -10, 21, 53, -3, -109, 61, 106, 99, 102, 45, 90, 67, -32, 114, -60, 104, -82, -43, 52, -110, 36, 23, 24, 54, 40, 73, -34, -108, 67, -83, -52, -111, 27, -11, 108, -69, 101, 44, 63, -100, 75, 101, 20, 64, -58, 45, -50, 58, 57, 48, -96, -11, 92, 116, -78, 81, -32, -85, 74, 91, 3, -69, 22, 46, -112, 102, 38, -58, -24, -62, 36, -53, 51, -92, -58, 9, 24, -55, -72, 36, 44, 48, -88, -108, 109, 40, -17, -29, 9, -19, 1, 93, 65, 11, 75, -90, 62, -5, -64, 96, 52, -99, -75, 12, 92, 109, -18, -87, 6, -75, 72, 41, -38, -98, 31, 16, 25, -34, -3, 103, 8, -110, -10, -72, 8, -100, -21, -48, 10, 45, 97, 79, -47, 3, -48, -82, 61, 25, -86, 18, -120, 13, 115, 66, -16, 16, 74, 57, 112, 50, 61, -94, 13, -80, -48, -29, 96, 44, -53, 101, -96, 7, 33, 11, -114, 74, 82, -90, -23, -67, 99, 59, 46, 66, -81, 66, 70, -79, -16, 50, 5, 62, -61, 97, -16, -10, -93, 21, 21, 69, -45, 34, 61, -52, -45, -70, -111, 19, 105, 93, 67, 51, -28, -116, -69, 44, 91, 1, 77, -115, 30, -84, -51, 58, 98, 15, 113, 82, -120, 89, 66, 77, -87, -24, -22, 5, -37, -16, 37, -21, 47, 25, -107, -75, -104, -65, -55, -100, 110, -113, -32, -29, -27, 66, 38, -110, -72, 68, -54, 48, -6, 10, 76, 66, -28, 53, -26, 113, -43, -30, 30, -113, -51, -94, 52, -40, 73, 53, -58, -63, -38, 93, -96, -88, -79, -3, -59, 110, -66, -28, 11, -66, 44, 25, 11, -47, -37, 74, 65, -79, -38, 52, -28, -66, -13, 76, 12, -17, -70, -74, 29, -104, -113, 14, 40, 38, 28, -93, 19, -3, -78, 77, -23, 30, 69, -83, -31, -104, 81, -74, 22, 59, 82, -69, 21, -63, -103, -54, 35, -84, 16, 29, -69, -53, 99, 97, 39, -27, -23, 4, 13, 9, -109, 85, 74, -42, -39, 103, -21, 44, 79, -79, -27, -106, -2, -40, 84, -77, 104, 96, -113, -62, 43, 49, 93, -3, -30, 98, -51, -63, 19, -74, 57, -52, -107, 62, -33, -47, 37, -84, -106, 71, 83, 22, 54, -20, 3, -115, -9, 106, 97, -18, -77, -11, -84, 106, 42, 43, -90, 107, 102, -54, 69, -69, 27, -92, 12, 94, 97, -41, -63, 115, -57, 16, -76, -70, -1, 98, -62, 19, 28, -21, -16, 85, -110, -89, 80, -26, 65, -18, 34, 47, 33, 82, 8, -43, -112, 90, -34, 47, 5, 49, -114, -107, 72, -72, 25, -46, 2, -98, -104, 91, 107, -77, -88, -87, 81, 23, -26, 51, -71, -30, 27, -113, -78, 16, -110, 35, 42, -31, 14, 77, 68, -28, 85, -8, -70, -21, -97, -102, 11, -77, -54, 10, -94, -42, -12, 114, 59, 31, -18, -92, 100, 4, -108, 106, -110, 80, -51, 54, 92, 98, -25, 36, -53, 49, 94, -95, -86, -53, -53, 35, -10, 114, -16, -20, -95, 36, 47, 23, 25, -91, -23, -10, 6, 23, -32, 79, -28, 79, 76, -69, 79, -96, -22, 10, -77, 61, -104, 19, -26, 45, -99, -101, -103, -120, -19, 30, 105, 59, -10, -50, -21, 99, 101, -27, -64, -92, -87, 34, -23, -36, -5, -2, 49, 35, 107, -82, -81, 30, -109, 15, -2, -86, 31, -9, -89, -84, -93, 7, 4, 96, 110, 65, -5, 5, 17, -97, -7, -36, 72, -89, 70, 28, -3, -66, -103, -31, 12, -94, 23, 36, -36, 97, -84, -39, 0, -28, 72, -9, -93, 9, -93, 78, 59, 12, -46, -7, 1, -99, -28, 68, 89, -12, -117, -6, 4, -48, 47, -99, -12, 64, 68, -105, -97, -32, 38, -114, -115, -38, -34, 89, -8, 66, 86, -73, 113, 45, -107, -64, 1, 74, -3, -87, 55, 29, 91, 50, -45, -72, -53, -115, -34, 91, 15, 8, 14, -119, -12, -104, -90, 50, -74, -1, -110, 114, -69, -80, 24, -37, -66, -91, 113, 83, 98, 46, -46, 9, -79, 58, 75, 59, -31, -34, -48, 114, 79, -18, -50, -86, 49, 108, -117, 91, 9, -113, 89, -73, -38, -83, -24, -57, -102, -51, -82, -3, 84, -54, 49, -87, -3, 18, 94, 64, -93, 29, -89, 113, 7, 41, -27, -48, -59, 89, 115, -103, 105, 109, 29, 25, 86, 44, -54, -114, 5, -36, 7, 83, -38, 74, 37, -64, 110, -93, 97, 55, 63, 23, -40, -85, 50, 4, 104, 44, -2, -26, -109, 6, 58, -81, 102, 6, -38, 27, 79, 28, -12, -54, -48, 53, -76, -94, -58, 70, 108, 101, 38, 105, 26, -91, 42, 109, -71, 75, 86, 42, -30, 53, -65, 13, 90, -88, 14, -8, 37, 21, 115, 102, 117, -38, 44, 30, 44, 58, -103, 20, 58, -105, -36, -39, 41, 92, -56, -77, 1, 74, -65, -34, 42, 112, 114, 84, -93, 4, -108, -45, -62, 2, -49, 5, -36, -45, -57, -106, 96, 21, 3, 11, 52, 42, -108, -23, -10, -90, 30, -50, -115, 51, 47, -105, -82, -43, 29, 29, -30, 103, 42, -54, 27, -13, 83, 16, 68, 59, -117, -35, -73, -44, 109, -12, -25, 4, -112, -104, 12, 119, -11, -10, -40, 116, -3, -40, -41, 18, 64, -37, 115, 83, -69, 73, 117, -45, -1, 21, -29, 80, -69, 14, -81, 63, -39, 53, -23, -105, -105, -107, 43, -36, 78, -110, 75, -33, 50, 56, -83, 42, 86, 26, -101, -6, -51, -70, -13, 31, 91, 0, 48, -96, -110, 24, 102, 82, 1, -90, 48, 85, 94, -51, 6, -83, 77, 72, -115, 111, -37, 2, -91, -6, 82, -46, 74, -45, 112, 71, -49, 28, 62, -68, 113, 15, 6, -67, 1, -43, -115, -104, 69, -22, 2, 75, -37, 6, -2, -23, 89, 48, 26, 63, -34, 89, -28, -40, 1, -27, 14, 94, -48, -103, 94, -27, -64, 20, -91, 62, -81, 22, 109, -48, 30, 30, 98, -36, -77, 15, 40, -103, 98, 45, -43, 43, 106, -52, -57, -42, 97, 83, 23, 83, 47, 105, 60, -50, 69, 23, -66, -75, 42, 109, -91, -13, -118, -37, 25, -81, -41, 14, -96, -36, 45, 57, -32, -25, -76, -78, 60, 78, 80, 34, -20, 7, -90, -89, 76, -37, 25, 28, -78, -43, 31, 22, -31, 63, 18, 29, -26, -28, -29, 111, -37, -54, -73, 6, -97, -96, -11, 20, 106, -55, -112, 77, 49, 102, 51, -112, 56, -113, -22, 72, -69, 24, 7, -34, 99, -43, 38, -91, 98, -62, 96, -65, 101, -39, -53, 63, -118, -101, 25, -34, 27, 89, -89, 35, -32, -109, -114, 25, 13, -39, 26, -63, -86, 111, 62, 31, -46, -47, 93, 102, 83, -27, 88, -72, 72, 94, -52, -51, 85, 108, 36, -86, 99, -50, -107, 51, -32, 47, -29, -81, -28, 18, -103, -20, 
  -19, 37, 102, -38, -92, -107, 113, -49, 83, -30, 103, 105, 72, 109, -46, 55, -51, -44, 103, 1, -29, -28, 109, 1, 33, 43, 77, 54, 115, 47, -13, -22, 2, -51, 29, -29, -84, 26, 27, 59, 48, 81, 104, -21, -64, -34, 23, 56, -104, -13, -90, 76, 33, 36, 104, 64, 56, -24, 16, -97, 86, 65, -6, -30, 80, 67, 73, -32, -27, -30, -93, 1, -69, -73, 96, 30, 48, 96, 48, 22, 50, 103, -100, -65, -112, -107, -78, 52, -17, 73, 61, -95, -117, -85, 18, 36, 49, 74, -22, -34, -17, -11, 85, 79, 69, 42, 14, 112, -3, -96, -28, 27, 45, 34, -109, -79, -111, 6, 70, 38, 113, 102, 11, -26, -11, -29, -65, -86, 114, 84, -74, 67, 45, -27, -105, 22, -89, 86, -54, 64, -12, 18, -21, 52, 74, -109, 0, -50, -83, -62, 79, -70, -16, 6, -14, 40, 55, 120, -11, -24, 103, -36, 6, 57, -105, 48, -49, -74, 73, 19, 44, 5, 94, -50, 98, 4, 106, 114, -26, 94, -44, 98, 52, 80, -82, 36, 6, 43, 102, 85, -100, -32, -15, -118, -48, 91, 65, 70, -111, -61, -25, -95, 106, -77, -88, 58, -71, -87, -8, -10, -46, -12, -96, 19, -26, -68, -33, -41, -6, 88, 4, 95, -49, -42, 48, 5, 34, -58, 34, -118, -91, -80, 37, -5, 37, 1, 30, 76, -7, -6, 31, -93, -77, 45, -11, -24, -5, 45, -6, 34, 72, -59, 14, -28, -96, -60, 61, 48, 107, -16, -48, -34, 17, -97, -21, -52, 16, 33, -38, 87, -103, -15, 106, -6, -55, -6, 63, -66, 71, 49, 51, -8, 82, -24, 41, -42, -89, -20, 59, -15, -17, -16, -92, -89, -80, -24, 72, 108, 24, 52, 1, -36, 11, 120, 95, 111, -29, -43, 101, 40, 44, 114, 14, -17, -100, 76, 7, 81, -50, 107, -47, 42, 62, 46, 27, 85, 112, 37, -111, -58, -83, 11, 85, -73, -18, -65, -17, 53, 79, -39, -37, 56, -46, -14, 50, 110, -53, 29, 100, 40, 85, 59, -26, 75, -45, 1, 62, 40, 10, -6, -36, -90, 37, -41, 17, 28, -14, 42, -41, -32, 33, 110, -41, 57, 109, 32, -24, -16, 100, -54, -33, -47, -29, 35, -44, -35, 6, 55, -101, -73, -112, -119, 110, 101, 101, 67, 23, -104, 47, -56, 106, 58, -32, 14, -93, -39, 7, -33, -89, 53, -57, -95, 107, 119, -23, -56, 96, -42, 109, 55, 23, 82, 26, 56, 17, -94, -3, 101, -42, -113, 108, -68, 9, -34, -16, -89, 73, 108, 70, 13, 82, 98, -64, 42, 13, -82, 69, -18, 2, 7, 64, 7, -48, 5, 57, -70, 17, 94, 78, 79, -45, 113, -70, -86, -94, 101, 29, -84, 44, -90, 14, -112, -107, 109, 90, -116, -117, -21, -100, 78, 108, 7, -56, 7, 109, -92, -60, 88, -69, 23, 52, -44, 79, -33, 86, 2, -74, 54, 93, 98, 69, 6, -55, -72, -60, -100, -38, -83, -81, -67, -19, 97, -118, -106, 20, -111, 58, 54, 29, 64, -117, -92, 112, -49, -45, 41, 20, -57, 45, -13, -105, -26, 7, 32, -107, 31, -119, 72, -88, -83, -45, 60, -62, -69, 96, -46, -77, -75, -84, -94, 4, 78, 79, -116, 104, -33, 102, -59, -93, -109, 71, -18, -19, -5, -8, -53, -16, 1, -33, -13, -111, -46, 47, 12, 64, 96, 41, 18, 12, -19, -8, -49, 47, -117, -16, 95, -103, -2, -57, -99, -6, 86, 27, -117, 20, 98, 6, -40, -29, 13, -21, 16, -105, 44, -18, -14, -26, 50, 25, -87, 93, 89, 10, 37, -43, -10, 113, -72, 92, 24, 3, 17, -69, -76, -97, 22, -52, -53, -101, 63, 65, -10, -12, 97, 112, -111, -106, -101, 65, -45, 35, -94, -111, 42, 72, 90, -98, 103, 32, 91, 66, -91, -114, -1, 95, 70, -120, -117, -115, 62, 44, -62, -77, -54, -39, -34, -68, 65, -76, 48, -103, -73, 77, 60, 5, -56, -5, 53, 101, 70, -53, 47, 58, -112, -59, 36, 92, 73, 89, -68, -106, 108, 104, 24, 113, 85, 25, -66, 29, -109, 105, -47, 21, -99, 26, -14, -95, -27, -109, 111, -17, 99, 83, -84, -101, -12, 22, -46, -57, 35, -11, -11, -80, 43, -42, 19, -86, -40, -11, -104, -18, -110, 111, 79, -14, -64, -74, 38, -21, 38, -102, 40, 16, -29, 5, 105, -95, -24, 23, 3, 51, 98, -45, 112, -117, -94, -33, 20, -2, 98, -60, -61, 82, -77, -118, 115, -53, 25, -25, 50, 64, -28, 5, -64, 105, -118, -2, -106, -20, -25, 56, 119, -58, -10, -62, -17, -58, -35, -42, -26, 62, 43, -8, -38, -103, -110, 58, 61, 103, 75, 15, -72, -27, 113, -97, 58, -93, 36, -47, -111, 70, 95, 68, -15, -103, -32, 2, -77, 55, 37, -119, -70, -61, 20, -34, -61, -67, -68, -72, -14, 94, 26, -118, -2, 99, 82, 80, -95, 36, -45, 59, -56, -28, 47, -19, 93, 74, -74, -24, 19, 106, 84, -10, -105, -42, 16, -8, 99, -53, -98, 103, 54, -35, 103, 32, -97, 96, -15, -87, -102, -16, -113, -118, -71, -80, -99, 74, -94, -107, 105, 32, 80, -31, -69, 1, -40, 90, -69, 28, -116, -97, 28, 35, 11, -98, 15, -53, 91, 26, -81, 32, -81, -68, -111, 92, -18, 46, -2, -24, 68, -36, 98, -96, 43, 102, 37, -113, -90, -37, -40, 51, -64, 6, 106, 93, 9, 20, -9, -27, 78, 42, 33, -79, 61, -67, -78, 50, 34, 80, -16, 39, -18, -43, 36, 24, 114, -37, -107, -62, 106, 80, 96, -28, -106, 23, -106, 106, 23, 32, 2, -115, 3, 66, -102, 90, -71, -38, 100, 21, -94, -105, 101, -35, -59, 80, -37, 77, -40, 46, -69, -26, -91, 36, 27, -103, -56, -18, 78, 113, -15, -65, 78, 62, -23, -57, 109, -40, 27, 107, 4, 81, -32, -23, -1, 26, 13, -76, 64, -46, 102, -28, -57, 34, 88, 72, -100, 41, 109, -85, -52, -118, 8, 16, 77, -88, 31, 36, 62, 33, -36, 67, 114, -21, -82, 87, 71, -40, 20, -86, -36, 51, 43, -117, 39, 24, 80, 44, 63, 45, 21, -62, 34, 64, -104, -5, -25, 46, 62, 51, -109, -77, 92, 26, 87, 101, 8, -79, -78, 112, 68, -117, 42, -65, -114, 27, 95, 36, 67, -87, 13, 15, 90, 16, -62, -20, 11, -109, -82, -73, 81, 104, -9, 32, 52, -80, 102, 39, -111, 81, -9, -23, 111, -96, 97, -30, 99, 49, 13, -93, -111, 53, -70, 33, -98, 50, -7, -98, 48, 116, -106, -96, 5, 10, 45, 0, 55, 13, -3, 73, 18, 70, -15, -14, 45, 104, -110, -24, 94, 84, -48, -36, -21, 76, -12, 66, 32, 89, -103, -89, -65, -100, 15, -11, -95, 66, -90, 55, 101, -37, -72, -65, -59, 88, 114, -22, -87, 62, 52, -94, 77, -21, -10, -3, 21, 58, 61, -47, -25, 72, 42, 108, -84, -33, 50, 105, -98, 7, -40, 112, 74, 16, 93, -45, 88, 2, 13, 75, -28, -6, -57, 91, -71, -9, -102, -84, 25, 87, 94, 111, -82, -11, 34, -53, 15, 13, 40, -27, -119, -35, -83, 58, 78, -31, -105, -65, -53, -85, 41, -106, -53, 102, -15, -53, 31, 37, 78, 66, 21, 37, -104, 88, -36, -96, -94, -47, -46, 61, -56, -66, 96, 52, 10, -115, -27, 29, -72, 40, -117, 29, 91, 6, 64, 81, 56, 46, 100, -75, -41, -67, 74, -71, 108, -21, -108, -69, -51, 35, -46, -8, 88, 78, -118, 58, 68, -114, -65, 57, -108, -81, -46, 87, -17, -26, -87, -49, 45, 19, 10, -79, 28, 16, 68, -21, -75, 83, -31, -36, 67, 59, 25, 11, 53, 9, 45, 33, -51, -47, -45, -52, 34, -2, 57, -8, 99, 29, -13, 17, -59, -46, 113, -42, 91, 66, -113, -2, 43, 78, 15, -56, 36, -101, 38, -7, 84, 98, 75, 103, -20, 70, 91, -6, 51, 79, 85, 70, -16, -29, -103, 91, 42, 10, 59, -42, -62, -95, -80, 52, 54, -97, 108, 24, 63, -44, -55, 1, 113, -66, -4, -82, -80, -120, 2, -33, -107, -120, -32, 58, 112, 49, -92, -118, 115, 21, 89, 87, 8, 44, 4, -33, 31, -55, -19, 14, -17, 39, -2, 77, 79, 114, 12, 115, -87, -54, -37, -114, -85, -49, -64, -113, -80, -87, -114, -58, 21, 94, 74, 43, 60, 33, 53, -94, -15, -28, -62, -82, -61, -57, 64, 58, 81, -78, -76, -32, 4, -99, 107, -117, 79, 77, -75, 76, -85, 33, 45, 79, 59, -69, -84, -49, -66, -73, -77, 40, -3, 92, -99, -110, -103, 26, 46, -90, 98, 59, -96, -4, 73, -46, 58, 36, -86, 40, -73, 81, 95, -100, -30, 52, -21, 48, 94, -112, -11, 93, -27, -83, -40, 45, -27, 64, 41, 115, 48, -71, -40, 107, -68, 80, 28, 8, 56, 18, 90, -31, 54, -2, 72, -119, 95, 13, 110, -63, -15, 50, -66, -92, 35, 94, -36, -35, -3, -63, 32, -74, 38, -36, 38, -61, -75, -74, 10, 33, -107, 50, 38, -22, 70, -97, 26, -8, -58, -104, -114, -98, -37, 106, 47, -96, 81, 72, -14, 98, -99, -44, 76, -66, -101, 9, -105, -4, -108, 88, -110, -2, 3, -95, -115, 0, 112, 95, -46, -120, 36, 74, -60, 62, -26, -3, -108, -7, 89, -35, -101, 72, -59, -78, 64, 94, -43, -48, 105, 
